{"learner":{"attributes":{},"feature_names":["CryClu_standaloneWP","CryClu_showerShape","CryClu_isolation","Tk_hitPattern","Tk_nStubs","Tk_chi2Bend","Tk_chi2RPhi","Tk_chi2RZ","dEtaCryClu","dPhiCryClu","dPtCryClu"],"feature_types":["int","float","float","int","int","float","float","float","float","float","float"],"gradient_booster":{"model":{"gbtree_model_param":{"num_parallel_tree":"1","num_trees":"35"},"iteration_indptr":[0,1,2,3,4,5,6,7,8,9,10,11,12,13,14,15,16,17,18,19,20,21,22,23,24,25,26,27,28,29,30,31,32,33,34,35],"tree_info":[0,0,0,0,0,0,0,0,0,0,0,0,0,0,0,0,0,0,0,0,0,0,0,0,0,0,0,0,0,0,0,0,0,0,0],"trees":[{"base_weights":[-0E0,-1.8235356E0,4.2436075E-1,-5.257065E-1,-1.8864135E0,1.0820258E0,-1.7870684E0,-1.8978713E-1,6.408621E-1,-1.9292123E0,-1.4205353E0,-1.3155512E0,1.2281368E0,-1.8383367E0,1.3197901E0,-1.6485654E-1,1.2902896E0,-1.9377506E-1,-2.045969E-1,-1.9274954E-1,-4.4675323E-1,-1.6543896E0,7.634297E-1,1.402236E0,-9.8511565E-1,-9.676936E-1,-1.9025248E0,1.6447536E0,-1.0554387E-1,1.5671892E-1,-1.1269846E-1,-1.3413857E-1,7.697127E-2,8.151053E-2,-1.8426509E-1,6.1766125E-2,-1.866603E-1,1.0660783E-1,-3.9403528E-2,9.8886795E-2,1.7751506E-1,1.2359201E-1,-1.3385187E-1,-1.6418792E-1,6.9139235E-2,-1.9763559E-1,-1.5917264E-1,-2.7748996E-2,1.7853677E-1],"categories":[],"categories_nodes":[],"categories_segments":[],"categories_sizes":[],"default_left":[0,0,0,0,0,0,0,0,0,0,0,0,0,0,0,0,0,0,0,0,0,0,0,0,0,0,0,0,0,0,0,0,0,0,0,0,0,0,0,0,0,0,0,0,0,0,0,0,0],"id":0,"left_children":[1,3,5,7,9,11,13,-1,15,17,19,21,23,25,27,-1,29,-1,31,-1,33,35,37,39,41,43,45,47,-1,-1,-1,-1,-1,-1,-1,-1,-1,-1,-1,-1,-1,-1,-1,-1,-1,-1,-1,-1,-1],"loss_changes":[6.260462E5,1.2122844E4,9.5461494E5,1.1883957E4,2.29325E3,1.7739281E5,2.4257062E4,0E0,6.071414E3,1.7022188E3,6.006623E3,2.0694098E4,1.8397144E5,7.8038125E3,2.138063E3,0E0,2.348191E3,0E0,1.0729636E3,0E0,8.334008E3,1.2327852E4,1.5458589E3,6.7725375E4,2.7491516E4,1.1927925E4,2.4882188E3,8.0788916E2,0E0,0E0,0E0,0E0,0E0,0E0,0E0,0E0,0E0,0E0,0E0,0E0,0E0,0E0,0E0,0E0,0E0,0E0,0E0,0E0,0E0],"parents":[2147483647,0,0,1,1,2,2,3,3,4,4,5,5,6,6,8,8,9,9,10,10,11,11,12,12,13,13,14,14,16,16,18,18,20,20,21,21,22,22,23,23,24,24,25,25,26,26,27,27],"right_children":[2,4,6,8,10,12,14,-1,16,18,20,22,24,26,28,-1,30,-1,32,-1,34,36,38,40,42,44,46,48,-1,-1,-1,-1,-1,-1,-1,-1,-1,-1,-1,-1,-1,-1,-1,-1,-1,-1,-1,-1,-1],"split_conditions":[-2.734375E-2,2.3E1,3.125E-2,-6.25E-2,4E0,-6.1523438E-2,1.475E1,-1.8978713E-1,1E0,4.5E0,-5.859375E-2,6E0,5.078125E-2,3.90625E-2,3.1640625E0,-1.6485654E-1,1E0,-1.9377506E-1,-4.8095703E-2,-1.9274954E-1,-5.1757812E-2,2.3E1,6.3E1,2E0,2.3E1,3E0,3.5E0,6E0,-1.0554387E-1,1.5671892E-1,-1.1269846E-1,-1.3413857E-1,7.697127E-2,8.151053E-2,-1.8426509E-1,6.1766125E-2,-1.866603E-1,1.0660783E-1,-3.9403528E-2,9.8886795E-2,1.7751506E-1,1.2359201E-1,-1.3385187E-1,-1.6418792E-1,6.9139235E-2,-1.9763559E-1,-1.5917264E-1,-2.7748996E-2,1.7853677E-1],"split_indices":[8,3,8,8,6,9,10,0,6,7,8,6,9,8,2,0,7,0,8,0,8,3,3,6,3,6,2,4,0,0,0,0,0,0,0,0,0,0,0,0,0,0,0,0,0,0,0,0,0],"split_type":[0,0,0,0,0,0,0,0,0,0,0,0,0,0,0,0,0,0,0,0,0,0,0,0,0,0,0,0,0,0,0,0,0,0,0,0,0,0,0,0,0,0,0,0,0,0,0,0,0],"sum_hessian":[8.088152E5,1.5262703E5,6.561881E5,7.1696025E3,1.4545744E5,5.0584834E5,1.503398E5,3.3050747E3,3.864528E3,1.3273475E5,1.272269E4,2.8970955E4,4.7687738E5,1.4797105E5,2.368754E3,7.859583E2,3.0785698E3,1.3201083E5,7.239086E2,8.2348955E3,4.487795E3,2.4969824E4,4.0011316E3,4.4217662E5,3.4700742E4,1.0377446E4,1.375936E5,2.1477656E3,2.2098828E2,2.830833E3,2.4773686E2,3.6407755E2,3.598311E2,2.3412915E3,2.1465037E3,2.0764248E3,2.2893398E4,3.2465342E3,7.545975E2,2.1001389E5,2.3216273E5,4.6903794E3,3.0010361E4,7.422538E3,2.9549084E3,1.1048896E5,2.7104635E4,9.1290215E1,2.0564753E3],"tree_param":{"num_deleted":"0","num_feature":"11","num_nodes":"49","size_leaf_vector":"1"}},{"base_weights":[-2.4293631E-4,-1.6598537E0,3.8404068E-1,-4.8274928E-1,-1.716966E0,9.7846353E-1,-1.6257058E0,-1.7316715E-1,5.718228E-1,-1.7559533E0,-1.2925338E0,-9.4213456E-1,1.1285192E0,-1.672404E0,1.1887974E0,-1.5134096E-1,1.1652253E0,-1.7637543E-1,-1.7955372E-1,-1.7561965E-1,-4.0449595E-1,7.741897E-1,-1.4884295E0,1.2900872E0,-8.9108557E-1,-8.7627405E-1,-1.7313042E0,1.4919516E0,-9.852751E-2,-1.14612535E-1,1.4337903E-1,-1.2416734E-1,7.100048E-2,7.377087E-2,-1.6829039E-1,-9.822289E-3,1.2936248E-1,-1.7481606E-1,3.805794E-2,1.4507946E-1,4.195417E-2,-1.2191464E-1,1.3054423E-1,-1.5228426E-1,6.659102E-2,-1.7996739E-1,-1.4442918E-1,-2.642991E-2,1.625745E-1],"categories":[],"categories_nodes":[],"categories_segments":[],"categories_sizes":[],"default_left":[0,0,0,0,0,0,0,0,0,0,0,0,0,0,0,0,0,0,0,0,0,0,0,0,0,0,0,0,0,0,0,0,0,0,0,0,0,0,0,0,0,0,0,0,0,0,0,0,0],"id":1,"left_children":[1,3,5,7,9,11,13,-1,15,17,19,21,23,25,27,-1,29,-1,31,-1,33,35,37,39,41,43,45,47,-1,-1,-1,-1,-1,-1,-1,-1,-1,-1,-1,-1,-1,-1,-1,-1,-1,-1,-1,-1,-1],"loss_changes":[5.1265E5,9.858094E3,7.795776E5,9.716635E3,1.8515625E3,1.4527528E5,1.9821906E4,0E0,5.020755E3,1.3900938E3,4.9469824E3,3.4414094E4,1.5261881E5,6.4609688E3,1.81523E3,0E0,2.1568188E3,0E0,9.175805E2,0E0,6.8835293E3,4.1361074E3,1.3683566E4,6.0291188E4,2.510041E4,1.0574005E4,2.0895625E3,7.0406445E2,0E0,0E0,0E0,0E0,0E0,0E0,0E0,0E0,0E0,0E0,0E0,0E0,0E0,0E0,0E0,0E0,0E0,0E0,0E0,0E0,0E0],"parents":[2147483647,0,0,1,1,2,2,3,3,4,4,5,5,6,6,8,8,9,9,10,10,11,11,12,12,13,13,14,14,16,16,18,18,20,20,21,21,22,22,23,23,24,24,25,25,26,26,27,27],"right_children":[2,4,6,8,10,12,14,-1,16,18,20,22,24,26,28,-1,30,-1,32,-1,34,36,38,40,42,44,46,48,-1,-1,-1,-1,-1,-1,-1,-1,-1,-1,-1,-1,-1,-1,-1,-1,-1,-1,-1,-1,-1],"split_conditions":[-2.734375E-2,2.3E1,3.125E-2,-6.25E-2,4E0,-3.9245605E-2,1.475E1,-1.7316715E-1,1E0,4.5E0,-5.859375E-2,5E0,5.078125E-2,3.90625E-2,3.1640625E0,-1.5134096E-1,0E0,-1.7637543E-1,-4.8095703E-2,-1.7561965E-1,-5.1757812E-2,-8.59375E-2,5E0,2.75E0,1E1,1.5E0,3.5E0,6E0,-9.852751E-2,-1.14612535E-1,1.4337903E-1,-1.2416734E-1,7.100048E-2,7.377087E-2,-1.6829039E-1,-9.822289E-3,1.2936248E-1,-1.7481606E-1,3.805794E-2,1.4507946E-1,4.195417E-2,-1.2191464E-1,1.3054423E-1,-1.5228426E-1,6.659102E-2,-1.7996739E-1,-1.4442918E-1,-2.642991E-2,1.625745E-1],"split_indices":[8,3,8,8,6,9,10,0,6,7,8,4,9,8,2,0,9,0,8,0,8,9,6,10,6,7,2,4,0,0,0,0,0,0,0,0,0,0,0,0,0,0,0,0,0,0,0,0,0],"split_type":[0,0,0,0,0,0,0,0,0,0,0,0,0,0,0,0,0,0,0,0,0,0,0,0,0,0,0,0,0,0,0,0,0,0,0,0,0,0,0,0,0,0,0,0,0,0,0,0,0],"sum_hessian":[8.0342756E5,1.5104328E5,6.523843E5,7.1141714E3,1.4392911E5,5.0355028E5,1.4883403E5,3.2709856E3,3.8431855E3,1.3131728E5,1.261182E4,3.6404613E4,4.6714566E5,1.4647975E5,2.3542798E3,7.7970874E2,3.0634768E3,1.30595695E5,7.215917E2,8.147484E3,4.4643364E3,8.735394E3,2.766922E4,4.3262162E5,3.452402E4,1.0316823E4,1.3616292E5,2.134075E3,2.2020499E2,2.4612695E2,2.8173499E3,3.6209174E2,3.5949994E2,2.3387935E3,2.125543E3,3.218449E3,5.516945E3,2.4345908E4,3.3233115E3,3.6504994E5,6.7571695E4,3.011608E4,4.407942E3,7.3157534E3,3.0010698E3,1.0926035E5,2.6902574E4,9.125423E1,2.0428207E3],"tree_param":{"num_deleted":"0","num_feature":"11","num_nodes":"49","size_leaf_vector":"1"}},{"base_weights":[-7.5948046E-4,-1.5346262E0,3.5088915E-1,-4.4912815E-1,-1.5875365E0,8.9243364E-1,-1.5009893E0,-1.6039445E-1,5.1411784E-1,-1.6239705E0,-1.1918595E0,3.9994043E-1,1.398034E0,-1.5442023E0,1.0829867E0,-1.404079E-1,1.0609901E0,-1.6313039E-1,-1.5730765E-1,-1.625462E0,-3.6943424E-1,-1.3321656E0,5.887867E-1,1.4157282E-1,1.4649096E0,-7.9814196E-1,-1.6001219E0,1.3703183E0,-9.230324E-2,-1.06676176E-1,1.314355E-1,-1.156683E-1,6.563207E-2,-1.6404372E-1,-7.728461E-3,6.695339E-2,-1.558653E-1,9.010955E-2,-1.6607241E-1,8.617484E-2,-1.0928234E-1,9.239759E-2,-8.843607E-2,1.5185408E-1,7.234409E-3,-1.4023924E-1,6.543766E-2,-1.6663367E-1,-1.324646E-1,-2.5178079E-2,1.5001945E-1],"categories":[],"categories_nodes":[],"categories_segments":[],"categories_sizes":[],"default_left":[0,0,0,0,0,0,0,0,0,0,0,0,0,0,0,0,0,0,0,0,0,0,0,0,0,0,0,0,0,0,0,0,0,0,0,0,0,0,0,0,0,0,0,0,0,0,0,0,0,0,0],"id":2,"left_children":[1,3,5,7,9,11,13,-1,15,17,19,21,23,25,27,-1,29,-1,31,33,35,37,39,41,43,45,47,49,-1,-1,-1,-1,-1,-1,-1,-1,-1,-1,-1,-1,-1,-1,-1,-1,-1,-1,-1,-1,-1,-1,-1],"loss_changes":[4.2623872E5,8.1903125E3,6.4454525E5,8.064407E3,1.5490625E3,1.23601E5,1.644875E4,0E0,4.1925825E3,1.172875E3,4.178924E3,8.248906E4,2.0426781E4,5.6019062E3,1.5616362E3,0E0,1.8483083E3,0E0,7.891786E2,1.9667969E0,5.7603926E3,1.8400043E4,1.0449708E5,1.0183966E4,1.7214938E4,9.207711E3,1.9040312E3,6.248081E2,0E0,0E0,0E0,0E0,0E0,0E0,0E0,0E0,0E0,0E0,0E0,0E0,0E0,0E0,0E0,0E0,0E0,0E0,0E0,0E0,0E0,0E0,0E0],"parents":[2147483647,0,0,1,1,2,2,3,3,4,4,5,5,6,6,8,8,9,9,10,10,11,11,12,12,13,13,14,14,16,16,18,18,19,19,20,20,21,21,22,22,23,23,24,24,25,25,26,26,27,27],"right_children":[2,4,6,8,10,12,14,-1,16,18,20,22,24,26,28,-1,30,-1,32,34,36,38,40,42,44,46,48,50,-1,-1,-1,-1,-1,-1,-1,-1,-1,-1,-1,-1,-1,-1,-1,-1,-1,-1,-1,-1,-1,-1,-1],"split_conditions":[-2.734375E-2,2.3E1,3.125E-2,-6.25E-2,4E0,2E0,1.475E1,-1.6039445E-1,1E0,4.5E0,-5.859375E-2,-3.9245605E-2,-3.0273438E-2,3.90625E-2,3.1640625E0,-1.404079E-1,0E0,-1.6313039E-1,-4.8095703E-2,1E1,-5.1757812E-2,2.3E1,2.5390625E-2,4.6E1,5.859375E-2,3E0,3.5E0,6E0,-9.230324E-2,-1.06676176E-1,1.314355E-1,-1.156683E-1,6.563207E-2,-1.6404372E-1,-7.728461E-3,6.695339E-2,-1.558653E-1,9.010955E-2,-1.6607241E-1,8.617484E-2,-1.0928234E-1,9.239759E-2,-8.843607E-2,1.5185408E-1,7.234409E-3,-1.4023924E-1,6.543766E-2,-1.6663367E-1,-1.324646E-1,-2.5178079E-2,1.5001945E-1],"split_indices":[8,3,8,8,6,6,10,0,6,7,8,9,9,8,2,0,9,0,8,7,8,3,9,3,9,6,2,4,0,0,0,0,0,0,0,0,0,0,0,0,0,0,0,0,0,0,0,0,0,0,0],"split_type":[0,0,0,0,0,0,0,0,0,0,0,0,0,0,0,0,0,0,0,0,0,0,0,0,0,0,0,0,0,0,0,0,0,0,0,0,0,0,0,0,0,0,0,0,0,0,0,0,0,0,0],"sum_hessian":[7.898159E5,1.4729097E5,6.4252494E5,6.9776343E3,1.4031333E5,4.9722678E5,1.4529814E5,3.1902312E3,3.787403E3,1.2796691E5,1.2346419E4,2.5206914E5,2.4515766E5,1.4298586E5,2.3122837E3,7.6488947E2,3.0225137E3,1.2725125E5,7.156567E2,7.940671E3,4.405748E3,2.4669008E4,2.2740012E5,1.2480508E4,2.3267716E5,1.0201123E4,1.3278473E5,2.0939036E3,2.1838008E2,2.4545569E2,2.777058E3,3.5740305E2,3.582536E2,7.7947227E3,1.4594861E2,2.3298613E3,2.0758867E3,3.1024663E3,2.1566541E4,1.9573614E5,3.166399E4,7.1415728E3,5.338935E3,2.239706E5,8.706552E3,7.2552305E3,2.9458923E3,1.06353195E5,2.6431537E4,9.118732E1,2.0027163E3],"tree_param":{"num_deleted":"0","num_feature":"11","num_nodes":"51","size_leaf_vector":"1"}},{"base_weights":[-1.3073289E-3,-1.4356503E0,3.2306173E-1,-4.2214832E-1,-1.4853688E0,8.1959796E-1,-1.4015795E0,-1.5026435E-1,4.651614E-1,-1.520019E0,-1.110745E0,3.645678E-1,1.2926828E0,-1.4420551E0,9.9471915E-1,-1.3133232E-1,9.731561E-1,-1.5270603E-1,-1.3728432E-1,-1.5233846E-1,-3.395571E-1,-1.2381587E0,5.359689E-1,1.2775755E-1,1.3557998E0,-7.3232263E-1,-1.4961685E0,1.2703097E0,-8.672636E-2,1.2247807E-1,-1.08261324E-1,-1.0829883E-1,6.077198E-2,6.0889658E-2,-1.4589898E-1,8.2207195E-2,-1.5488689E-1,8.017423E-2,-9.033838E-2,8.403428E-2,-8.0368616E-2,1.4102381E-1,1.4022946E-2,-1.3240033E-1,6.316548E-2,-1.5623735E-1,-1.22452155E-1,-2.3989482E-2,1.3982688E-1],"categories":[],"categories_nodes":[],"categories_segments":[],"categories_sizes":[],"default_left":[0,0,0,0,0,0,0,0,0,0,0,0,0,0,0,0,0,0,0,0,0,0,0,0,0,0,0,0,0,0,0,0,0,0,0,0,0,0,0,0,0,0,0,0,0,0,0,0,0],"id":3,"left_children":[1,3,5,7,9,11,13,-1,15,17,19,21,23,25,27,-1,29,-1,31,-1,33,35,37,39,41,43,45,47,-1,-1,-1,-1,-1,-1,-1,-1,-1,-1,-1,-1,-1,-1,-1,-1,-1,-1,-1,-1,-1],"loss_changes":[3.5856084E5,6.9095938E3,5.380843E5,6.7707925E3,1.3253438E3,1.04825E5,1.3809875E4,0E0,3.5304324E3,1.014E3,3.6050332E3,6.838857E4,1.7412875E4,4.9749375E3,1.3568416E3,0E0,1.729655E3,0E0,6.819195E2,0E0,4.8694854E3,1.5580223E4,8.614809E4,8.354301E3,1.4826531E4,8.317464E3,1.8351562E3,5.6199365E2,0E0,0E0,0E0,0E0,0E0,0E0,0E0,0E0,0E0,0E0,0E0,0E0,0E0,0E0,0E0,0E0,0E0,0E0,0E0,0E0,0E0],"parents":[2147483647,0,0,1,1,2,2,3,3,4,4,5,5,6,6,8,8,9,9,10,10,11,11,12,12,13,13,14,14,16,16,18,18,20,20,21,21,22,22,23,23,24,24,25,25,26,26,27,27],"right_children":[2,4,6,8,10,12,14,-1,16,18,20,22,24,26,28,-1,30,-1,32,-1,34,36,38,40,42,44,46,48,-1,-1,-1,-1,-1,-1,-1,-1,-1,-1,-1,-1,-1,-1,-1,-1,-1,-1,-1,-1,-1],"split_conditions":[-2.734375E-2,2.3E1,3.125E-2,-6.25E-2,4E0,2E0,1.475E1,-1.5026435E-1,1E0,4.5E0,-5.859375E-2,-3.9245605E-2,-3.0273438E-2,3.90625E-2,3.1640625E0,-1.3133232E-1,1E0,-1.5270603E-1,-4.8095703E-2,-1.5233846E-1,-5.1757812E-2,2.3E1,2.1484375E-2,4.6E1,5.078125E-2,1.5E0,3.5E0,6E0,-8.672636E-2,1.2247807E-1,-1.08261324E-1,-1.0829883E-1,6.077198E-2,6.0889658E-2,-1.4589898E-1,8.2207195E-2,-1.5488689E-1,8.017423E-2,-9.033838E-2,8.403428E-2,-8.0368616E-2,1.4102381E-1,1.4022946E-2,-1.3240033E-1,6.316548E-2,-1.5623735E-1,-1.22452155E-1,-2.3989482E-2,1.3982688E-1],"split_indices":[8,3,8,8,6,6,10,0,6,7,8,9,9,8,2,0,7,0,8,0,8,3,9,3,9,7,2,4,0,0,0,0,0,0,0,0,0,0,0,0,0,0,0,0,0,0,0,0,0],"split_type":[0,0,0,0,0,0,0,0,0,0,0,0,0,0,0,0,0,0,0,0,0,0,0,0,0,0,0,0,0,0,0,0,0,0,0,0,0,0,0,0,0,0,0,0,0,0,0,0,0],"sum_hessian":[7.702347E5,1.4205234E5,6.281824E5,6.7811035E3,1.3527123E5,4.8784022E5,1.4034214E5,3.0772388E3,3.7038645E3,1.2329462E5,1.1976622E4,2.4886308E5,2.3897712E5,1.3809122E5,2.2509292E3,7.439432E2,2.9599214E3,1.2258761E5,7.07004E2,7.6539917E3,4.32263E3,2.392654E4,2.2493655E5,1.23795625E4,2.2659756E5,1.00167295E4,1.28074484E5,2.0351857E3,2.1574348E2,2.716491E3,2.4343042E2,3.5069476E2,3.5630923E2,2.316349E3,2.0062809E3,3.071811E3,2.0854729E4,1.8997234E5,3.4964203E4,7.0801523E3,5.2994097E3,2.1679052E5,9.807058E3,7.039364E3,2.9773652E3,1.0229919E5,2.5775299E4,9.109406E1,1.9440916E3],"tree_param":{"num_deleted":"0","num_feature":"11","num_nodes":"49","size_leaf_vector":"1"}},{"base_weights":[-1.8406875E-3,-1.3100427E0,3.1093273E-1,-1.4198285E0,-4.620873E-1,7.7982956E-1,-1.3198932E0,-1.4259778E0,-2.1642059E-1,-1.4410073E0,3.2008848E-1,3.6635467E-1,1.2148025E0,-1.3581476E0,9.1908437E-1,-1.4546947E-1,-1.1931378E0,4.9257657E-1,-1.1300279E-1,-1.455492E-1,-7.930052E-3,9.276191E-1,-9.782767E-1,-1.1357987E0,5.1577896E-1,1.6890658E-1,1.2714742E0,-9.8164237E-1,-1.4607896E0,1.1858319E0,-8.1685595E-2,-0E0,-1.3557641E-1,-2.0267334E-2,9.257831E-2,-0E0,-3.577836E-2,-1.332777E-1,1.1631794E-1,-1.2069702E-1,-0E0,7.98767E-2,-1.4539611E-1,7.310294E-2,-8.720993E-2,8.111619E-2,-7.068422E-2,1.317508E-1,1.2013025E-2,-1.2710223E-1,1.01366555E-2,-1.4669444E-1,4.3314453E-3,-2.2860436E-2,1.3133268E-1],"categories":[],"categories_nodes":[],"categories_segments":[],"categories_sizes":[],"default_left":[0,0,0,0,0,0,0,0,0,0,0,0,0,0,0,0,0,0,0,0,0,0,0,0,0,0,0,0,0,0,0,0,0,0,0,0,0,0,0,0,0,0,0,0,0,0,0,0,0,0,0,0,0,0,0],"id":4,"left_children":[1,3,5,7,9,11,13,15,17,19,21,23,25,27,29,-1,31,33,-1,-1,35,37,39,41,43,45,47,49,51,53,-1,-1,-1,-1,-1,-1,-1,-1,-1,-1,-1,-1,-1,-1,-1,-1,-1,-1,-1,-1,-1,-1,-1,-1,-1],"loss_changes":[3.0568997E5,1.3167422E4,4.6091388E5,7.483594E2,1.3005538E4,8.400444E4,1.1695328E4,4.0909375E2,6.691609E2,8.749023E0,7.4622563E3,5.3932938E4,1.33491875E4,4.7290156E3,1.187884E3,0E0,2.7774727E3,2.374161E2,0E0,0E0,2.7075434E1,3.585477E3,5.510078E2,1.354499E4,6.53798E4,6.7754185E3,1.1298406E4,9.179654E3,1.1080156E3,5.1069482E2,0E0,0E0,0E0,0E0,0E0,0E0,0E0,0E0,0E0,0E0,0E0,0E0,0E0,0E0,0E0,0E0,0E0,0E0,0E0,0E0,0E0,0E0,0E0,0E0,0E0],"parents":[2147483647,0,0,1,1,2,2,3,3,4,4,5,5,6,6,7,7,8,8,9,9,10,10,11,11,12,12,13,13,14,14,16,16,17,17,20,20,21,21,22,22,23,23,24,24,25,25,26,26,27,27,28,28,29,29],"right_children":[2,4,6,8,10,12,14,16,18,20,22,24,26,28,30,-1,32,34,-1,-1,36,38,40,42,44,46,48,50,52,54,-1,-1,-1,-1,-1,-1,-1,-1,-1,-1,-1,-1,-1,-1,-1,-1,-1,-1,-1,-1,-1,-1,-1,-1,-1],"split_conditions":[-2.34375E-2,4E0,3.125E-2,4.5E0,-6.25E-2,2E0,1.475E1,-3.515625E-2,7.5E-1,1E1,4.3E1,-3.9245605E-2,-3.0273438E-2,5.46875E-2,3.1640625E0,-1.4546947E-1,5E0,2.5E0,-1.1300279E-1,-1.455492E-1,-5E-1,-2.34375E-2,-2.734375E-2,2.3E1,2.5390625E-2,4.6E1,5.859375E-2,1.5E0,1E1,6E0,-8.1685595E-2,-0E0,-1.3557641E-1,-2.0267334E-2,9.257831E-2,-0E0,-3.577836E-2,-1.332777E-1,1.1631794E-1,-1.2069702E-1,-0E0,7.98767E-2,-1.4539611E-1,7.310294E-2,-8.720993E-2,8.111619E-2,-7.068422E-2,1.317508E-1,1.2013025E-2,-1.2710223E-1,1.01366555E-2,-1.4669444E-1,4.3314453E-3,-2.2860436E-2,1.3133268E-1],"split_indices":[8,6,8,7,8,6,10,8,10,7,3,9,9,8,2,0,4,6,0,0,10,9,8,3,9,3,9,7,7,4,0,0,0,0,0,0,0,0,0,0,0,0,0,0,0,0,0,0,0,0,0,0,0,0,0],"split_type":[0,0,0,0,0,0,0,0,0,0,0,0,0,0,0,0,0,0,0,0,0,0,0,0,0,0,0,0,0,0,0,0,0,0,0,0,0,0,0,0,0,0,0,0,0,0,0,0,0,0,0,0,0,0,0],"sum_hessian":[7.4665244E5,1.4406961E5,6.025828E5,1.27390805E5,1.6678805E4,4.68106E5,1.3447683E5,1.26642086E5,7.487186E2,7.4271226E3,9.251683E3,2.4019578E5,2.279102E5,1.3230039E5,2.1764365E3,1.1188828E5,1.4753807E4,3.858845E2,3.6283417E2,7.282175E3,1.449476E2,6.3745024E3,2.8771804E3,2.1611123E4,2.1858466E5,1.1825682E4,2.1608453E5,2.8776115E4,1.0352428E5,1.9639481E3,2.1248851E2,1.8386996E3,1.2915107E4,7.995079E1,3.059337E2,3.3315483E1,1.11632126E2,5.1758026E2,5.856922E3,2.2340872E3,6.430931E2,2.9865066E3,1.8624615E4,1.8933888E5,2.9245783E4,6.892462E3,4.93322E3,2.0767966E5,8.404877E3,2.2767592E4,6.0085225E3,1.03171055E5,3.53222E2,9.097853E1,1.8729696E3],"tree_param":{"num_deleted":"0","num_feature":"11","num_nodes":"55","size_leaf_vector":"1"}},{"base_weights":[-2.3780505E-3,-1.2423718E0,2.8919175E-1,-1.3482364E0,-4.3583396E-1,7.2277987E-1,-1.2504681E0,-1.4263497E-1,-1.2302468E0,-1.3726348E0,2.9041415E-1,3.7086254E-1,1.1828998E0,-1.2868507E0,8.527799E-1,-9.8690957E-1,-1.4023416E-1,-1.3868392E-1,-0E0,8.546268E-1,-9.05722E-1,5.6993544E-1,-6.3448447E-1,-1.3654658E-2,1.2191626E0,-9.152718E-1,-1.3901573E0,1.1128035E0,-7.7094175E-2,-6.6605255E-2,-1.4497961E-1,-0E0,-3.4078833E-2,-1.2479047E-1,1.0758773E-1,-0E0,-1.14638485E-1,7.856961E-2,-9.215397E-2,1.440624E-1,-8.83093E-2,-1.0322167E-1,5.939891E-2,1.2571298E-1,1.8725341E-2,-1.2060519E-1,6.951976E-3,-1.396385E-1,3.9891074E-3,-2.1787507E-2,1.24093495E-1],"categories":[],"categories_nodes":[],"categories_segments":[],"categories_sizes":[],"default_left":[0,0,0,0,0,0,0,0,0,0,0,0,0,0,0,0,0,0,0,0,0,0,0,0,0,0,0,0,0,0,0,0,0,0,0,0,0,0,0,0,0,0,0,0,0,0,0,0,0,0,0],"id":5,"left_children":[1,3,5,7,9,11,13,-1,15,17,19,21,23,25,27,29,-1,-1,31,33,35,37,39,41,43,45,47,49,-1,-1,-1,-1,-1,-1,-1,-1,-1,-1,-1,-1,-1,-1,-1,-1,-1,-1,-1,-1,-1,-1,-1],"loss_changes":[2.6071547E5,1.148575E4,3.8960662E5,6.76E2,1.1161373E4,7.354803E4,9.9641875E3,0E0,1.6963516E3,3.4746094E0,6.2413164E3,5.1731977E4,8.6791875E3,4.4834688E3,1.0461074E3,2.8243574E3,0E0,0E0,2.4449568E1,3.0567754E3,5.402136E2,6.949424E4,2.2080914E4,3.7063943E3,7.334375E3,8.122662E3,1.0164844E3,4.677505E2,0E0,0E0,0E0,0E0,0E0,0E0,0E0,0E0,0E0,0E0,0E0,0E0,0E0,0E0,0E0,0E0,0E0,0E0,0E0,0E0,0E0,0E0,0E0],"parents":[2147483647,0,0,1,1,2,2,3,3,4,4,5,5,6,6,8,8,9,9,10,10,11,11,12,12,13,13,14,14,15,15,18,18,19,19,20,20,21,21,22,22,23,23,24,24,25,25,26,26,27,27],"right_children":[2,4,6,8,10,12,14,-1,16,18,20,22,24,26,28,30,-1,-1,32,34,36,38,40,42,44,46,48,50,-1,-1,-1,-1,-1,-1,-1,-1,-1,-1,-1,-1,-1,-1,-1,-1,-1,-1,-1,-1,-1,-1,-1],"split_conditions":[-2.34375E-2,4E0,3.125E-2,-7.421875E-2,-6.25E-2,2.5E0,1.475E1,-1.4263497E-1,6.3E1,1E1,4.3E1,2.75E0,-6.25E-2,5.46875E-2,3.1640625E0,1.6679688E0,-1.4023416E-1,-1.3868392E-1,-5E-1,-2.34375E-2,-1.2109375E-1,2.1484375E-2,2.3E1,6E0,5.859375E-2,2.5E0,1E1,6E0,-7.7094175E-2,-6.6605255E-2,-1.4497961E-1,-0E0,-3.4078833E-2,-1.2479047E-1,1.0758773E-1,-0E0,-1.14638485E-1,7.856961E-2,-9.215397E-2,1.440624E-1,-8.83093E-2,-1.0322167E-1,5.939891E-2,1.2571298E-1,1.8725341E-2,-1.2060519E-1,6.951976E-3,-1.396385E-1,3.9891074E-3,-2.1787507E-2,1.24093495E-1],"split_indices":[8,6,8,8,8,6,10,0,3,7,3,10,9,8,2,2,0,0,10,9,9,9,3,6,9,6,7,4,0,0,0,0,0,0,0,0,0,0,0,0,0,0,0,0,0,0,0,0,0,0,0],"split_type":[0,0,0,0,0,0,0,0,0,0,0,0,0,0,0,0,0,0,0,0,0,0,0,0,0,0,0,0,0,0,0,0,0,0,0,0,0,0,0,0,0,0,0,0,0,0,0,0,0,0,0],"sum_hessian":[7.206523E5,1.3719664E5,5.834556E5,1.2110895E5,1.6087683E4,4.5534316E5,1.281125E5,7.169078E4,4.941817E4,7.046702E3,9.04098E3,2.5823395E5,1.971092E5,1.26018945E5,2.0935513E3,2.0991434E4,2.8426738E4,6.902863E3,1.4383958E2,6.2194463E3,2.8215342E3,2.1567086E5,4.2563094E4,5.718592E3,1.9139061E5,2.783925E4,9.8179695E4,1.8847753E3,2.0877606E2,1.2669382E4,8.322053E3,3.3315483E1,1.105241E2,5.049484E2,5.7144976E3,6.868312E2,2.1347031E3,1.8851427E5,2.7156592E4,4.4593833E3,3.810371E4,2.1721785E3,3.546413E3,1.8448414E5,6.9064688E3,2.1554047E4,6.285203E3,9.782596E4,3.537337E2,9.084432E1,1.7939309E3],"tree_param":{"num_deleted":"0","num_feature":"11","num_nodes":"51","size_leaf_vector":"1"}},{"base_weights":[-2.8279044E-3,-1.2311294E0,2.5890353E-1,-3.3046767E-1,-1.2769852E0,6.491983E-1,-1.190802E0,-1.2921825E-1,3.9630777E-1,-1.3670056E-1,-1.130388E0,-7.049931E-1,7.6437247E-1,-1.2255948E0,7.935036E-1,-1.1275821E-1,8.273146E-1,-7.167575E-1,-1.2684315E0,6.1793375E-1,-1.2058873E0,8.7991977E-1,-6.0858154E-1,-5.424626E-1,-1.2819593E0,1.0483854E0,-7.288381E-2,1.0614442E-1,-9.639038E-2,-1.3779737E-1,-3.0216185E-2,-1.292247E-1,1.04863765E-2,7.850974E-2,-1.6386181E-1,-1.4244822E-1,2.5318542E-2,1.0388946E-1,5.7143527E-3,1.2463655E-1,-9.1801256E-2,-1.1044079E-1,6.638014E-2,-1.3613336E-1,-9.6962E-2,-2.0767504E-2,1.1780139E-1],"categories":[],"categories_nodes":[],"categories_segments":[],"categories_sizes":[],"default_left":[0,0,0,0,0,0,0,0,0,0,0,0,0,0,0,0,0,0,0,0,0,0,0,0,0,0,0,0,0,0,0,0,0,0,0,0,0,0,0,0,0,0,0,0,0,0,0],"id":6,"left_children":[1,3,5,7,9,11,13,-1,15,-1,17,19,21,23,25,-1,27,29,31,33,35,37,39,41,43,45,-1,-1,-1,-1,-1,-1,-1,-1,-1,-1,-1,-1,-1,-1,-1,-1,-1,-1,-1,-1,-1],"loss_changes":[2.2365392E5,4.8446094E3,3.2433162E5,4.4473887E3,1.1285938E3,7.05125E4,8.532922E3,0E0,2.3796338E3,0E0,2.2909062E3,2.3584914E4,6.61423E4,4.3514062E3,9.2548303E2,0E0,1.3106466E3,3.0029893E3,1.2302656E3,3.7139678E3,8.369172E3,5.0138656E4,1.8631027E4,6.5034766E3,2.3677656E3,4.310442E2,0E0,0E0,0E0,0E0,0E0,0E0,0E0,0E0,0E0,0E0,0E0,0E0,0E0,0E0,0E0,0E0,0E0,0E0,0E0,0E0,0E0],"parents":[2147483647,0,0,1,1,2,2,3,3,4,4,5,5,6,6,8,8,10,10,11,11,12,12,13,13,14,14,16,16,17,17,18,18,19,19,20,20,21,21,22,22,23,23,24,24,25,25],"right_children":[2,4,6,8,10,12,14,-1,16,-1,18,20,22,24,26,-1,28,30,32,34,36,38,40,42,44,46,-1,-1,-1,-1,-1,-1,-1,-1,-1,-1,-1,-1,-1,-1,-1,-1,-1,-1,-1,-1,-1],"split_conditions":[-2.734375E-2,2.3E1,3.125E-2,-6.25E-2,-7.421875E-2,-3.515625E-2,1.475E1,-1.2921825E-1,1E0,-1.3670056E-1,4.3E1,5E0,5.078125E-2,3.90625E-2,3.1640625E0,-1.1275821E-1,1E0,1.1679688E0,4.5E0,2.7109375E0,5E0,2.75E0,2.3E1,3E0,3.5E0,6E0,-7.288381E-2,1.0614442E-1,-9.639038E-2,-1.3779737E-1,-3.0216185E-2,-1.292247E-1,1.04863765E-2,7.850974E-2,-1.6386181E-1,-1.4244822E-1,2.5318542E-2,1.0388946E-1,5.7143527E-3,1.2463655E-1,-9.1801256E-2,-1.1044079E-1,6.638014E-2,-1.3613336E-1,-9.6962E-2,-2.0767504E-2,1.1780139E-1],"split_indices":[8,3,8,8,8,9,10,0,6,0,3,4,9,8,2,0,7,2,7,2,6,10,3,6,2,4,0,0,0,0,0,0,0,0,0,0,0,0,0,0,0,0,0,0,0,0,0],"split_type":[0,0,0,0,0,0,0,0,0,0,0,0,0,0,0,0,0,0,0,0,0,0,0,0,0,0,0,0,0,0,0,0,0,0,0,0,0,0,0,0,0,0,0,0,0,0,0],"sum_hessian":[6.9518825E5,1.2211522E5,5.7307306E5,6.061509E3,1.1605371E5,4.5161256E5,1.2146049E5,2.6347888E3,3.42672E3,7.096306E4,4.509064E4,3.5290832E4,4.1632172E5,1.1945461E5,2.0058806E3,6.6872186E2,2.757998E3,1.161909E4,3.347155E4,9.631025E3,2.5659807E4,3.8410438E5,3.2217334E4,9.321057E3,1.10133555E5,1.8011416E3,2.0473901E2,2.5245806E3,2.3341748E2,4.295255E3,7.323835E3,3.2978367E4,4.9318356E2,9.068743E3,5.622819E2,2.2378084E4,3.2817239E3,3.2178256E5,6.2321832E4,4.51647E3,2.7700863E4,6.421095E3,2.8999614E3,8.7293766E4,2.2839793E4,9.069465E1,1.710447E3],"tree_param":{"num_deleted":"0","num_feature":"11","num_nodes":"47","size_leaf_vector":"1"}},{"base_weights":[-3.4672525E-3,-1.1363556E0,2.5175777E-1,-1.240794E0,-3.678416E-1,6.816591E-1,-9.5293653E-1,-1.2475222E0,-7.111153E-2,-1.2651551E0,2.7713528E-1,3.8272637E-1,1.1370844E0,-1.0485584E0,1.2154844E0,-1.2794782E-1,-1.0048084E0,-9.507196E-2,5.263042E-1,-1.2807073E-1,-0E0,7.773182E-1,-7.7596885E-1,5.6842256E-1,-8.125969E-1,1.1579794E0,-5.9803015E-1,-4.9351946E-1,-1.2295499E0,1.4196918E0,-1.0360368E-1,-5.2880812E-2,-1.432407E-1,9.096883E-2,-8.948456E-3,-0E0,-2.692954E-2,9.683078E-2,-1.366723E-1,-0E0,-1.01742685E-1,-1.3494565E-1,6.723151E-2,-1.0179382E-1,1.2927984E-1,4.6236876E-2,1.1892207E-1,-2.1157224E-1,4.552476E-2,-8.94902E-2,5.041618E-2,-1.3132669E-1,-9.0589136E-2,-4.7908105E-2,1.534352E-1],"categories":[],"categories_nodes":[],"categories_segments":[],"categories_sizes":[],"default_left":[0,0,0,0,0,0,0,0,0,0,0,0,0,0,0,0,0,0,0,0,0,0,0,0,0,0,0,0,0,0,0,0,0,0,0,0,0,0,0,0,0,0,0,0,0,0,0,0,0,0,0,0,0,0,0],"id":7,"left_children":[1,3,5,7,9,11,13,15,17,19,21,23,25,27,29,-1,31,-1,33,-1,35,37,39,41,43,45,47,49,51,53,-1,-1,-1,-1,-1,-1,-1,-1,-1,-1,-1,-1,-1,-1,-1,-1,-1,-1,-1,-1,-1,-1,-1,-1,-1],"loss_changes":[1.9324339E5,9.657641E3,2.823612E5,7.0953125E2,8.791957E3,5.451711E4,2.9834336E4,4.7548438E2,5.175807E2,2.5961914E1,4.6542207E3,5.3939492E4,5.8924062E3,1.3569281E4,2.970124E3,0E0,2.4386328E3,0E0,2.0310828E2,0E0,1.4879035E1,2.5605232E3,5.105332E2,4.1941492E4,1.4211293E4,3.1976094E3,3.302504E3,1.3734998E4,2.4609688E3,1.4060342E3,0E0,0E0,0E0,0E0,0E0,0E0,0E0,0E0,0E0,0E0,0E0,0E0,0E0,0E0,0E0,0E0,0E0,0E0,0E0,0E0,0E0,0E0,0E0,0E0,0E0],"parents":[2147483647,0,0,1,1,2,2,3,3,4,4,5,5,6,6,7,7,8,8,9,9,10,10,11,11,12,12,13,13,14,14,16,16,18,18,20,20,21,21,22,22,23,23,24,24,25,25,26,26,27,27,28,28,29,29],"right_children":[2,4,6,8,10,12,14,16,18,20,22,24,26,28,30,-1,32,-1,34,-1,36,38,40,42,44,46,48,50,52,54,-1,-1,-1,-1,-1,-1,-1,-1,-1,-1,-1,-1,-1,-1,-1,-1,-1,-1,-1,-1,-1,-1,-1,-1,-1],"split_conditions":[-2.34375E-2,4E0,1.953125E-2,4.5E0,-6.25E-2,3E0,1.075E1,-3.515625E-2,2.5E0,1E1,4.3E1,3E0,4.171875E0,3.90625E-2,4.671875E0,-1.2794782E-1,1.3085938E0,-9.507196E-2,7.5E-1,-1.2807073E-1,-5E-1,6.25E-2,-1.2109375E-1,-7.03125E-2,1.475E1,-3.0273438E-2,1.5E1,3E0,3.5E0,5.9E1,-1.0360368E-1,-5.2880812E-2,-1.432407E-1,9.096883E-2,-8.948456E-3,-0E0,-2.692954E-2,9.683078E-2,-1.366723E-1,-0E0,-1.01742685E-1,-1.3494565E-1,6.723151E-2,-1.0179382E-1,1.2927984E-1,4.6236876E-2,1.1892207E-1,-2.1157224E-1,4.552476E-2,-8.94902E-2,5.041618E-2,-1.3132669E-1,-9.0589136E-2,-4.7908105E-2,1.534352E-1],"split_indices":[8,6,8,7,8,6,10,8,6,7,3,10,2,8,2,0,2,0,10,0,10,9,9,9,10,9,6,6,2,3,0,0,0,0,0,0,0,0,0,0,0,0,0,0,0,0,0,0,0,0,0,0,0,0,0],"split_type":[0,0,0,0,0,0,0,0,0,0,0,0,0,0,0,0,0,0,0,0,0,0,0,0,0,0,0,0,0,0,0,0,0,0,0,0,0,0,0,0,0,0,0,0,0,0,0,0,0,0,0,0,0,0,0],"sum_hessian":[6.6783025E5,1.2279895E5,5.450313E5,1.07938875E5,1.486008E4,4.0178034E5,1.4325097E5,1.07229914E5,7.0896124E2,6.2390264E3,8.621054E3,2.4280877E5,1.589716E5,1.3729439E5,5.9565674E3,9.4012914E4,1.3216998E4,3.3053918E2,3.7842206E2,6.101834E3,1.3719221E2,5.927073E3,2.6939805E3,2.1027775E5,3.2531018E4,1.5716978E5,1.8018085E3,3.3988508E4,1.0330588E5,5.53584E3,4.2072748E2,6.471024E3,6.7459746E3,3.0388943E2,7.45326E1,3.202079E1,1.0517142E2,5.535457E3,3.9161642E2,6.7559143E2,2.018389E3,1.0694454E4,1.995833E5,2.973052E4,2.800497E3,6.9609214E3,1.5020886E5,7.35738E2,1.0660706E3,2.4316242E4,9.672265E3,8.158777E4,2.1718111E4,2.474868E2,5.288353E3],"tree_param":{"num_deleted":"0","num_feature":"11","num_nodes":"55","size_leaf_vector":"1"}},{"base_weights":[-3.937986E-3,-1.1375434E0,2.253655E-1,-2.8282058E-1,-1.1823629E0,5.603282E-1,-1.0954139E0,-1.19870566E-1,3.646215E-1,-1.2797926E-1,-1.0274446E0,2.0581806E-1,9.6881217E-1,-6.5489924E-1,-1.2305847E0,-1.0191214E-1,7.4804044E-1,-6.149392E-1,-1.1710452E0,3.8697132E-1,-8.197546E-1,4.0390402E-2,1.0258684E0,-9.726207E-1,2.371282E-1,-1.2419037E0,4.286239E-2,-8.8400535E-2,9.746303E-2,-2.1360004E-2,-1.2930179E-1,-1.19544856E-1,8.028532E-3,-1.2877606E-1,4.7706302E-2,1.1772177E-2,-1.394695E-1,-6.165249E-2,6.275933E-2,1.077398E-1,6.418185E-3,-1.2264623E-1,-3.507826E-2,1.977302E-1,-2.8592614E-2,-1.24929324E-1,2.4541672E-2,-7.852243E-2,5.7615746E-2],"categories":[],"categories_nodes":[],"categories_segments":[],"categories_sizes":[],"default_left":[0,0,0,0,0,0,0,0,0,0,0,0,0,0,0,0,0,0,0,0,0,0,0,0,0,0,0,0,0,0,0,0,0,0,0,0,0,0,0,0,0,0,0,0,0,0,0,0,0],"id":8,"left_children":[1,3,5,7,9,11,13,-1,15,-1,17,19,21,23,25,-1,27,29,31,33,35,37,39,41,43,45,47,-1,-1,-1,-1,-1,-1,-1,-1,-1,-1,-1,-1,-1,-1,-1,-1,-1,-1,-1,-1,-1,-1],"loss_changes":[1.6698088E5,3.9608594E3,2.362297E5,3.4645933E3,1.1858594E3,6.1559547E4,6.1611875E3,0E0,1.8052996E3,0E0,2.1486094E3,4.2413023E4,1.0366984E4,7.3928496E3,1.3122109E3,0E0,1.0959694E3,2.7742212E3,1.0296758E3,2.928457E4,1.8593488E4,4.5365723E3,9.108125E3,2.8117754E3,6.3777188E3,1.0290078E3,3.530403E2,0E0,0E0,0E0,0E0,0E0,0E0,0E0,0E0,0E0,0E0,0E0,0E0,0E0,0E0,0E0,0E0,0E0,0E0,0E0,0E0,0E0,0E0],"parents":[2147483647,0,0,1,1,2,2,3,3,4,4,5,5,6,6,8,8,10,10,11,11,12,12,13,13,14,14,16,16,17,17,18,18,19,19,20,20,21,21,22,22,23,23,24,24,25,25,26,26],"right_children":[2,4,6,8,10,12,14,-1,16,-1,18,20,22,24,26,-1,28,30,32,34,36,38,40,42,44,46,48,-1,-1,-1,-1,-1,-1,-1,-1,-1,-1,-1,-1,-1,-1,-1,-1,-1,-1,-1,-1,-1,-1],"split_conditions":[-2.734375E-2,2.3E1,3.125E-2,-6.25E-2,-7.421875E-2,2E0,5.46875E-2,-1.19870566E-1,1E0,-1.2797926E-1,4.3E1,2.5E0,-3.0273438E-2,2.5E0,1.475E1,-1.0191214E-1,0E0,-4.8095703E-2,4.5E0,-7.03125E-2,5.5E1,6E0,5.078125E-2,3E0,7.647059E-1,1E1,1.5E0,-8.8400535E-2,9.746303E-2,-2.1360004E-2,-1.2930179E-1,-1.19544856E-1,8.028532E-3,-1.2877606E-1,4.7706302E-2,1.1772177E-2,-1.394695E-1,-6.165249E-2,6.275933E-2,1.077398E-1,6.418185E-3,-1.2264623E-1,-3.507826E-2,1.977302E-1,-2.8592614E-2,-1.24929324E-1,2.4541672E-2,-7.852243E-2,5.7615746E-2],"split_indices":[8,3,8,8,8,6,8,0,6,0,3,2,9,6,10,0,9,8,7,9,3,6,9,2,1,7,7,0,0,0,0,0,0,0,0,0,0,0,0,0,0,0,0,0,0,0,0,0,0],"split_type":[0,0,0,0,0,0,0,0,0,0,0,0,0,0,0,0,0,0,0,0,0,0,0,0,0,0,0,0,0,0,0,0,0,0,0,0,0,0,0,0,0,0,0,0,0,0,0,0,0],"sum_hessian":[6.4183356E5,1.07992445E5,5.338411E5,5.52829E3,1.0246416E5,4.2594947E5,1.0789169E5,2.3182104E3,3.2100798E3,6.206147E4,4.0402684E4,2.2825205E5,1.976974E5,2.5643889E4,8.22478E4,6.039261E2,2.6061538E3,1.0749219E4,2.9653465E4,1.9412272E5,3.4129332E4,1.1557443E4,1.8613997E5,1.8984924E4,6.658963E3,8.160347E4,6.443273E2,2.285474E2,2.3776062E3,6.9277935E3,3.8214255E3,2.9168996E4,4.8447006E2,9.785156E3,1.8433756E5,1.2938269E4,2.1191062E4,5.3721846E3,6.185259E3,1.7656325E5,9.576708E3,1.3298343E4,5.6865815E3,1.5188812E3,5.1400815E3,8.1282875E4,3.206E2,1.6044261E2,4.8388467E2],"tree_param":{"num_deleted":"0","num_feature":"11","num_nodes":"49","size_leaf_vector":"1"}},{"base_weights":[-4.4187806E-3,-1.055421E0,2.2013701E-1,-1.1592927E0,-3.1948784E-1,5.9335226E-1,-8.722418E-1,-1.2477366E-1,-1.0333236E0,-1.18527E0,2.5411826E-1,3.391121E-1,1.0584351E0,-9.6524966E-1,1.1207923E0,-7.829921E-1,-1.223497E-1,-1.2028342E-1,-0E0,6.98442E-1,-6.7223066E-1,5.2957106E-1,-6.3425636E-1,1.0782683E0,-4.8926637E-1,-5.8402437E-1,-1.2032142E0,1.4257301E0,-2.4465004E-1,-4.4894148E-2,-1.2938172E-1,-0E0,-2.072762E-2,-1.1794647E-1,9.124499E-2,-0E0,-9.239464E-2,7.004323E-2,-7.385764E-2,2.9233793E-2,-1.16218105E-1,2.7947873E-2,1.0995998E-1,-1.9068371E-1,3.4994427E-2,-8.577954E-2,1.5733272E-2,-1.21097945E-1,2.5274074E-2,1.4955898E-1,-3.608569E-2,-1.0764237E-1,3.579193E-2],"categories":[],"categories_nodes":[],"categories_segments":[],"categories_sizes":[],"default_left":[0,0,0,0,0,0,0,0,0,0,0,0,0,0,0,0,0,0,0,0,0,0,0,0,0,0,0,0,0,0,0,0,0,0,0,0,0,0,0,0,0,0,0,0,0,0,0,0,0,0,0,0,0],"id":9,"left_children":[1,3,5,7,9,11,13,-1,15,17,19,21,23,25,27,29,-1,-1,31,33,35,37,39,41,43,45,47,49,51,-1,-1,-1,-1,-1,-1,-1,-1,-1,-1,-1,-1,-1,-1,-1,-1,-1,-1,-1,-1,-1,-1,-1,-1],"loss_changes":[1.4562819E5,8.1201094E3,2.0715188E5,7.019219E2,6.924322E3,4.4614938E4,2.4069547E4,0E0,1.6199727E3,4.3936523E1,3.4453464E3,4.5480508E4,4.2156562E3,1.0971227E4,2.5535615E3,2.8193418E3,0E0,0E0,8.580608E0,2.3707808E3,5.013186E2,4.451358E4,1.9730275E4,2.0823125E3,2.24079E3,9.803173E3,9.8446875E2,7.6495996E2,6.5067084E2,0E0,0E0,0E0,0E0,0E0,0E0,0E0,0E0,0E0,0E0,0E0,0E0,0E0,0E0,0E0,0E0,0E0,0E0,0E0,0E0,0E0,0E0,0E0,0E0],"parents":[2147483647,0,0,1,1,2,2,3,3,4,4,5,5,6,6,8,8,9,9,10,10,11,11,12,12,13,13,14,14,15,15,18,18,19,19,20,20,21,21,22,22,23,23,24,24,25,25,26,26,27,27,28,28],"right_children":[2,4,6,8,10,12,14,-1,16,18,20,22,24,26,28,30,-1,-1,32,34,36,38,40,42,44,46,48,50,52,-1,-1,-1,-1,-1,-1,-1,-1,-1,-1,-1,-1,-1,-1,-1,-1,-1,-1,-1,-1,-1,-1,-1,-1],"split_conditions":[-2.34375E-2,4E0,1.953125E-2,-7.421875E-2,-6.25E-2,3.5E0,1.075E1,-1.2477366E-1,6.3E1,1E1,4.3E1,2.75E0,4.171875E0,5.46875E-2,4.3945312E-2,1.6679688E0,-1.223497E-1,-1.2028342E-1,-5E-1,-2.34375E-2,-1.2109375E-1,2.1484375E-2,4.3E1,-6.25E-2,1.5E1,2.5E0,1E1,4.671875E0,1.5E0,-4.4894148E-2,-1.2938172E-1,-0E0,-2.072762E-2,-1.1794647E-1,9.124499E-2,-0E0,-9.239464E-2,7.004323E-2,-7.385764E-2,2.9233793E-2,-1.16218105E-1,2.7947873E-2,1.0995998E-1,-1.9068371E-1,3.4994427E-2,-8.577954E-2,1.5733272E-2,-1.21097945E-1,2.5274074E-2,1.4955898E-1,-3.608569E-2,-1.0764237E-1,3.579193E-2],"split_indices":[8,6,8,8,8,6,10,0,3,7,3,10,2,8,8,2,0,0,10,9,9,9,3,9,6,6,7,2,7,0,0,0,0,0,0,0,0,0,0,0,0,0,0,0,0,0,0,0,0,0,0,0,0],"split_type":[0,0,0,0,0,0,0,0,0,0,0,0,0,0,0,0,0,0,0,0,0,0,0,0,0,0,0,0,0,0,0,0,0,0,0,0,0,0,0,0,0,0,0,0,0,0,0,0,0,0,0,0,0],"sum_hessian":[6.164937E5,1.0854398E5,5.079497E5,9.494917E4,1.3594807E4,3.7870197E5,1.292477E5,5.479371E4,4.015546E4,5.444603E3,8.1502036E3,2.4510297E5,1.3359902E5,1.235823E5,5.6654067E3,1.7783717E4,2.2371744E4,5.3142256E3,1.3037724E2,5.5977793E3,2.5524243E3,2.051162E5,3.9986754E4,1.3200239E5,1.5966238E3,4.7788906E4,7.579339E4,4.68741E3,9.779965E2,1.0984272E4,6.799445E3,3.065831E1,9.971893E1,4.7871133E2,5.119068E3,6.611167E2,1.8913075E3,1.8087061E5,2.4245592E4,1.4460831E4,2.5525924E4,3.5920205E3,1.28410375E5,5.9072675E2,1.0058971E3,3.4987707E4,1.2801201E4,7.547635E4,3.1704013E2,4.5805605E3,1.0684981E2,4.4753958E2,5.304569E2],"tree_param":{"num_deleted":"0","num_feature":"11","num_nodes":"53","size_leaf_vector":"1"}},{"base_weights":[-4.6952325E-3,-1.0188067E0,2.057853E-1,-1.1217197E0,-3.0482358E-1,5.010636E-1,-1.0153439E0,-1.2179305E-1,-9.877234E-1,-1.1523191E0,2.3259437E-1,1.4708486E-1,8.365158E-1,-5.8303714E-1,-1.1580944E0,-7.3522735E-1,-1.1857754E-1,-1.1705589E-1,-0E0,4.871392E-1,-1.3573614E-1,4.4436374E-1,-4.258005E-1,-4.2607628E-2,8.988667E-1,-8.630898E-1,3.4265417E-1,-1.1698639E0,2.3519928E-2,-4.1208796E-2,-1.2550436E-1,-0E0,-1.9781888E-2,-7.2670616E-2,8.69908E-2,5.5498E-2,-1.2653567E-1,2.1205654E-2,-8.070928E-2,5.573079E-2,-8.3214566E-2,9.5113985E-2,-1.2110537E-2,-1.2751919E-1,-1.7615274E-2,-6.402809E-2,1.1238849E-1,-1.212814E-1,-7.46382E-2,-6.977313E-2,5.19516E-2],"categories":[],"categories_nodes":[],"categories_segments":[],"categories_sizes":[],"default_left":[0,0,0,0,0,0,0,0,0,0,0,0,0,0,0,0,0,0,0,0,0,0,0,0,0,0,0,0,0,0,0,0,0,0,0,0,0,0,0,0,0,0,0,0,0,0,0,0,0,0,0],"id":10,"left_children":[1,3,5,7,9,11,13,-1,15,17,19,21,23,25,27,29,-1,-1,31,33,-1,35,37,39,41,43,45,47,49,-1,-1,-1,-1,-1,-1,-1,-1,-1,-1,-1,-1,-1,-1,-1,-1,-1,-1,-1,-1,-1,-1],"loss_changes":[1.2640013E5,7.303078E3,1.7667938E5,8.041094E2,6.0781377E3,4.675921E4,5.6444844E3,0E0,1.6250781E3,4.142383E1,3.2240688E3,3.2774418E4,1.1189094E4,6.316984E3,1.11075E3,2.6749072E3,0E0,0E0,7.7819767E0,3.3481182E3,0E0,2.3976465E4,1.6040912E4,6.4208135E3,1.0181875E4,5.0913643E3,4.4014785E3,1.0014844E3,2.7552667E2,0E0,0E0,0E0,0E0,0E0,0E0,0E0,0E0,0E0,0E0,0E0,0E0,0E0,0E0,0E0,0E0,0E0,0E0,0E0,0E0,0E0,0E0],"parents":[2147483647,0,0,1,1,2,2,3,3,4,4,5,5,6,6,8,8,9,9,10,10,11,11,12,12,13,13,14,14,15,15,18,18,19,19,21,21,22,22,23,23,24,24,25,25,26,26,27,27,28,28],"right_children":[2,4,6,8,10,12,14,-1,16,18,20,22,24,26,28,30,-1,-1,32,34,-1,36,38,40,42,44,46,48,50,-1,-1,-1,-1,-1,-1,-1,-1,-1,-1,-1,-1,-1,-1,-1,-1,-1,-1,-1,-1,-1,-1],"split_conditions":[-2.34375E-2,4E0,3.125E-2,-7.421875E-2,-6.25E-2,1.5E0,5.46875E-2,-1.2179305E-1,6.3E1,1E1,6.25E-2,1.3984375E0,-3.0273438E-2,1.5E0,1.475E1,1.6679688E0,-1.1857754E-1,-1.1705589E-1,-5E-1,-2.34375E-2,-1.3573614E-1,4.7973633E-2,5.5E1,4.6E1,6.640625E-2,2E0,2.5E0,5E0,1.5E0,-4.1208796E-2,-1.2550436E-1,-0E0,-1.9781888E-2,-7.2670616E-2,8.69908E-2,5.5498E-2,-1.2653567E-1,2.1205654E-2,-8.070928E-2,5.573079E-2,-8.3214566E-2,9.5113985E-2,-1.2110537E-2,-1.2751919E-1,-1.7615274E-2,-6.402809E-2,1.1238849E-1,-1.212814E-1,-7.46382E-2,-6.977313E-2,5.19516E-2],"split_indices":[8,6,8,8,8,6,8,0,3,7,9,2,9,7,10,2,0,0,10,9,0,9,3,3,9,10,2,2,5,0,0,0,0,0,0,0,0,0,0,0,0,0,0,0,0,0,0,0,0,0,0],"split_type":[0,0,0,0,0,0,0,0,0,0,0,0,0,0,0,0,0,0,0,0,0,0,0,0,0,0,0,0,0,0,0,0,0,0,0,0,0,0,0,0,0,0,0,0,0,0,0,0,0,0,0],"sum_hessian":[5.915957E5,1.0169799E5,4.898977E5,8.8713695E4,1.2984294E4,3.9461712E5,9.528056E4,5.073219E4,3.7981508E4,5.0663833E3,7.91791E3,1.9222148E5,2.0239566E5,2.395227E4,7.13283E4,1.7125012E4,2.0856494E4,4.936862E3,1.2952155E2,6.939227E3,9.786831E2,1.26681516E5,6.553996E4,1.3299919E4,1.8909573E5,1.8477113E4,5.4751562E3,7.070961E4,6.186826E2,1.0789476E4,6.335536E3,3.065831E1,9.886323E1,1.5794211E3,5.3598057E3,1.1910184E5,7.579675E3,2.443882E4,4.1101145E4,7.50224E3,5.7976787E3,1.799768E5,9.118942E3,1.1404315E4,7.072798E3,2.3758853E3,3.099271E3,6.3814887E4,6.8947236E3,1.5337114E2,4.653115E2],"tree_param":{"num_deleted":"0","num_feature":"11","num_nodes":"51","size_leaf_vector":"1"}},{"base_weights":[-5.245184E-3,-8.7741965E-1,2.2571646E-1,4.4519562E-1,-1.0162048E0,6.05293E-1,-6.5378153E-1,-1.2614273E0,8.2788795E-1,-1.1299963E0,-9.220262E-2,7.722366E-1,-2.3728041E-1,9.1576415E-1,-8.995489E-1,-1.4310238E-1,-1.659688E-1,1.0233265E0,-8.34561E-1,-7.8933483E-1,-1.2434714E0,-8.3193904E-1,1.524801E-1,8.309131E-1,-1.1749859E-1,-7.210812E-1,8.640444E-1,1.208404E0,-5.543892E-1,-1.0189598E0,4.5742005E-1,-0E0,-6.578748E-2,-9.342388E-2,1.1949314E-1,-0E0,-1.24292426E-1,-1.2634577E-1,2.046417E-2,-1.17625676E-1,-1.5292996E-1,-9.29548E-2,4.602009E-2,8.071112E-2,-5.1213082E-2,-1.17115915E-1,8.8946685E-2,-1.06632344E-1,1.2579058E-1,9.081848E-2,-1.3754448E-1,1.2806168E-1,-8.112724E-2,-1.3361385E-1,8.079699E-2,-5.650657E-2,-1.1817868E-1,7.232309E-2,-1.23616055E-1],"categories":[],"categories_nodes":[],"categories_segments":[],"categories_sizes":[],"default_left":[0,0,0,0,0,0,0,0,0,0,0,0,0,0,0,0,0,0,0,0,0,0,0,0,0,0,0,0,0,0,0,0,0,0,0,0,0,0,0,0,0,0,0,0,0,0,0,0,0,0,0,0,0,0,0,0,0,0,0],"id":11,"left_children":[1,3,5,7,9,11,13,15,17,19,21,23,25,27,29,-1,31,33,35,37,39,41,43,45,-1,47,49,51,53,55,57,-1,-1,-1,-1,-1,-1,-1,-1,-1,-1,-1,-1,-1,-1,-1,-1,-1,-1,-1,-1,-1,-1,-1,-1,-1,-1,-1,-1],"loss_changes":[1.14442375E5,2.1940398E4,1.4987162E5,7.4408223E3,1.1198758E4,4.4190977E4,5.2263867E4,1.9953369E2,3.1382383E3,3.4037422E3,2.2566262E3,2.9987781E4,2.7672793E4,8.009547E3,1.9072438E4,0E0,9.6569305E1,2.9777666E3,3.7616138E2,1.1651245E4,9.232969E2,4.8135522E2,3.9938213E3,2.9893594E4,0E0,2.4806674E4,1.6406934E3,2.3907422E3,3.4105254E3,7.71825E3,4.301248E3,0E0,0E0,0E0,0E0,0E0,0E0,0E0,0E0,0E0,0E0,0E0,0E0,0E0,0E0,0E0,0E0,0E0,0E0,0E0,0E0,0E0,0E0,0E0,0E0,0E0,0E0,0E0,0E0],"parents":[2147483647,0,0,1,1,2,2,3,3,4,4,5,5,6,6,7,7,8,8,9,9,10,10,11,11,12,12,13,13,14,14,16,16,17,17,18,18,19,19,20,20,21,21,22,22,23,23,25,25,26,26,27,27,28,28,29,29,30,30],"right_children":[2,4,6,8,10,12,14,16,18,20,22,24,26,28,30,-1,32,34,36,38,40,42,44,46,-1,48,50,52,54,56,58,-1,-1,-1,-1,-1,-1,-1,-1,-1,-1,-1,-1,-1,-1,-1,-1,-1,-1,-1,-1,-1,-1,-1,-1,-1,-1,-1,-1],"split_conditions":[-2.1484375E-2,2.3E1,1.7089844E-2,-8.59375E-2,5E0,2.75E0,2.3E1,6E0,9.765625E-3,4.3E1,-1.5625E-2,5.2490234E-2,5E0,7.8125E-2,1E1,-1.4310238E-1,7.5E-1,-2.734375E-2,5.722656E-1,-3.90625E-2,-3.9245605E-2,4.8E1,8.666992E-3,-5.859375E-2,-1.1749859E-1,1.475E1,4.671875E0,3.90625E-2,1E1,4.7E1,1.7578125E-2,-0E0,-6.578748E-2,-9.342388E-2,1.1949314E-1,-0E0,-1.24292426E-1,-1.2634577E-1,2.046417E-2,-1.17625676E-1,-1.5292996E-1,-9.29548E-2,4.602009E-2,8.071112E-2,-5.1213082E-2,-1.17115915E-1,8.8946685E-2,-1.06632344E-1,1.2579058E-1,9.081848E-2,-1.3754448E-1,1.2806168E-1,-8.112724E-2,-1.3361385E-1,8.079699E-2,-5.650657E-2,-1.1817868E-1,7.232309E-2,-1.23616055E-1],"split_indices":[9,3,9,9,6,10,3,6,8,3,8,8,6,9,6,0,5,8,2,9,9,10,8,8,0,10,2,8,6,3,8,0,0,0,0,0,0,0,0,0,0,0,0,0,0,0,0,0,0,0,0,0,0,0,0,0,0,0,0],"split_type":[0,0,0,0,0,0,0,0,0,0,0,0,0,0,0,0,0,0,0,0,0,0,0,0,0,0,0,0,0,0,0,0,0,0,0,0,0,0,0,0,0,0,0,0,0,0,0,0,0,0,0,0,0,0,0,0,0,0,0],"sum_hessian":[5.6760275E5,1.1887002E5,4.4873275E5,1.1199363E4,1.07670664E5,3.1355328E5,1.3517945E5,1.961426E3,9.2379375E3,9.574864E4,1.1922023E4,2.618071E5,5.17462E4,1.8209365E4,1.16970086E5,1.5928988E3,3.685273E2,8.354387E3,8.8355035E2,2.4343701E4,7.140494E4,3.0052112E3,8.9168125E3,2.542542E5,7.5528784E3,3.6039668E4,1.5706532E4,1.52580205E4,2.9513445E3,1.0760007E5,9.370019E3,2.1558046E2,1.5294685E2,5.9055396E2,7.763833E3,2.9662982E2,5.8692053E2,1.653166E4,7.8120405E3,5.8507797E4,1.2897144E4,2.8921863E3,1.1302483E2,4.557133E3,4.3596797E3,7.1222334E3,2.4713197E5,3.0768607E4,5.271059E3,1.5505028E4,2.0150427E2,1.4814441E4,4.4357925E2,1.9231365E3,1.028208E3,2.8688795E4,7.891127E4,8.199441E3,1.1705765E3],"tree_param":{"num_deleted":"0","num_feature":"11","num_nodes":"59","size_leaf_vector":"1"}},{"base_weights":[-5.5698976E-3,-8.4063035E-1,2.1230394E-1,4.170523E-1,-9.7379214E-1,5.686215E-1,-6.2025154E-1,-1.2001034E0,7.832146E-1,-1.0879848E0,-8.419009E-2,7.283573E-1,-2.163681E-1,8.624457E-1,-8.538245E-1,-1.3689332E-1,-1.4546801E-1,9.724428E-1,-7.86557E-1,-7.4967927E-1,-1.2026576E0,8.408831E-2,-1.0682343E0,7.8307307E-1,-1.1501753E-1,-6.5222025E-1,8.1588626E-1,1.1383479E0,-5.219789E-1,-9.690216E-1,4.2112222E-1,-0E0,-6.247604E-2,-8.9936875E-2,1.1377358E-1,-0E0,-1.1920916E-1,-1.2289523E-1,1.8465292E-2,-1.3112211E-1,-1.02853715E-1,-7.790633E-2,4.5601424E-2,-0E0,-1.0962452E-1,-1.1467733E-1,8.375626E-2,-9.590422E-2,1.1943352E-1,8.596828E-2,-1.2802152E-1,1.20730065E-1,-7.796823E-2,-1.2826513E-1,7.489833E-2,-5.2012224E-2,-1.13698415E-1,6.672542E-2,-1.1795732E-1],"categories":[],"categories_nodes":[],"categories_segments":[],"categories_sizes":[],"default_left":[0,0,0,0,0,0,0,0,0,0,0,0,0,0,0,0,0,0,0,0,0,0,0,0,0,0,0,0,0,0,0,0,0,0,0,0,0,0,0,0,0,0,0,0,0,0,0,0,0,0,0,0,0,0,0,0,0,0,0],"id":12,"left_children":[1,3,5,7,9,11,13,15,17,19,21,23,25,27,29,-1,31,33,35,37,39,41,43,45,-1,47,49,51,53,55,57,-1,-1,-1,-1,-1,-1,-1,-1,-1,-1,-1,-1,-1,-1,-1,-1,-1,-1,-1,-1,-1,-1,-1,-1,-1,-1,-1,-1],"loss_changes":[9.871257E4,1.8902195E4,1.2757003E5,6.417243E3,1.0198992E4,3.7836016E4,4.468463E4,1.8004663E2,2.7314858E3,3.2049766E3,2.0565735E3,2.5791828E4,2.2937475E4,6.814126E3,1.6456195E4,0E0,8.787052E1,2.6082139E3,3.4334546E2,1.054414E4,8.9403125E2,3.2320723E3,3.049707E1,2.5663766E4,0E0,2.0437895E4,1.453081E3,2.0813594E3,2.972585E3,7.485836E3,3.6634346E3,0E0,0E0,0E0,0E0,0E0,0E0,0E0,0E0,0E0,0E0,0E0,0E0,0E0,0E0,0E0,0E0,0E0,0E0,0E0,0E0,0E0,0E0,0E0,0E0,0E0,0E0,0E0,0E0],"parents":[2147483647,0,0,1,1,2,2,3,3,4,4,5,5,6,6,7,7,8,8,9,9,10,10,11,11,12,12,13,13,14,14,16,16,17,17,18,18,19,19,20,20,21,21,22,22,23,23,25,25,26,26,27,27,28,28,29,29,30,30],"right_children":[2,4,6,8,10,12,14,16,18,20,22,24,26,28,30,-1,32,34,36,38,40,42,44,46,-1,48,50,52,54,56,58,-1,-1,-1,-1,-1,-1,-1,-1,-1,-1,-1,-1,-1,-1,-1,-1,-1,-1,-1,-1,-1,-1,-1,-1,-1,-1,-1,-1],"split_conditions":[-2.1484375E-2,2.3E1,1.7089844E-2,-8.59375E-2,5E0,2.75E0,2.3E1,6E0,9.765625E-3,4.3E1,4.3945312E-2,5.2490234E-2,5E0,7.8125E-2,1E1,-1.3689332E-1,7.5E-1,-2.734375E-2,5.722656E-1,-3.90625E-2,2.6367188E-2,-1.5625E-2,-1.5E0,-5.859375E-2,-1.1501753E-1,1.475E1,4.671875E0,3.90625E-2,1E1,4.7E1,1.7578125E-2,-0E0,-6.247604E-2,-8.9936875E-2,1.1377358E-1,-0E0,-1.1920916E-1,-1.2289523E-1,1.8465292E-2,-1.3112211E-1,-1.02853715E-1,-7.790633E-2,4.5601424E-2,-0E0,-1.0962452E-1,-1.1467733E-1,8.375626E-2,-9.590422E-2,1.1943352E-1,8.596828E-2,-1.2802152E-1,1.20730065E-1,-7.796823E-2,-1.2826513E-1,7.489833E-2,-5.2012224E-2,-1.13698415E-1,6.672542E-2,-1.1795732E-1],"split_indices":[9,3,9,9,6,10,3,6,8,3,8,8,6,9,6,0,5,8,2,9,8,8,10,8,0,10,2,8,6,3,8,0,0,0,0,0,0,0,0,0,0,0,0,0,0,0,0,0,0,0,0,0,0,0,0,0,0,0,0],"split_type":[0,0,0,0,0,0,0,0,0,0,0,0,0,0,0,0,0,0,0,0,0,0,0,0,0,0,0,0,0,0,0,0,0,0,0,0,0,0,0,0,0,0,0,0,0,0,0,0,0,0,0,0,0,0,0,0,0,0,0],"sum_hessian":[5.420187E5,1.1219068E5,4.2982803E5,1.0649016E4,1.01541664E5,3.0111044E5,1.2871759E5,1.8735646E3,8.775451E3,8.987081E4,1.1670858E4,2.5031E5,5.080043E4,1.7422701E4,1.1129489E5,1.5076016E3,3.6596307E2,7.922222E3,8.5322906E2,2.3162643E4,6.6708164E4,9.957833E3,1.7130253E3,2.4333398E5,6.9760044E3,3.5812773E4,1.4987655E4,1.4602562E4,2.8201396E3,1.0216616E5,9.12874E3,2.1558046E2,1.5038263E2,5.576934E2,7.364529E3,2.9662982E2,5.5659924E2,1.5359408E4,7.8032334E3,4.033318E4,2.6374988E4,2.8847278E3,7.073105E3,6.609101E1,1.6469342E3,6.576469E3,2.3675752E5,3.0797678E4,5.0150967E3,1.4785419E4,2.0223625E2,1.4181916E4,4.206449E2,1.812886E3,1.00725354E3,2.809201E4,7.407415E4,8.016817E3,1.1119231E3],"tree_param":{"num_deleted":"0","num_feature":"11","num_nodes":"59","size_leaf_vector":"1"}},{"base_weights":[-5.976969E-3,-9.4085E-1,1.7380656E-1,-1.0376141E0,-3.1472528E-1,4.005073E-1,-9.915186E-1,-1.1533415E-1,-8.8592935E-1,-1.093697E0,1.5237407E-1,1.592244E-1,8.464429E-1,-1.1092551E0,-5.856997E-1,-6.272128E-1,-1.1066959E-1,-1.11497715E-1,-0E0,3.9275402E-1,-1.275319E-1,3.954104E-1,-2.8506443E-1,8.695092E-1,-9.38074E-1,-1.1490048E0,7.292012E-1,3.7811628E-1,-9.287922E-1,-3.0578429E-2,-1.19045496E-1,-0E0,-1.5926708E-2,-5.42169E-2,7.0295684E-2,4.8875358E-2,-1.152905E-1,1.5374601E-2,-5.3031694E-2,1.7425349E-2,9.1840856E-2,1.158812E-2,-1.980109E-1,-1.16039984E-1,5.0058533E-2,8.82841E-2,-1.6836656E-2,-1.09659865E-1,1.3910535E-1,7.342777E-2,-1.1923341E-1],"categories":[],"categories_nodes":[],"categories_segments":[],"categories_sizes":[],"default_left":[0,0,0,0,0,0,0,0,0,0,0,0,0,0,0,0,0,0,0,0,0,0,0,0,0,0,0,0,0,0,0,0,0,0,0,0,0,0,0,0,0,0,0,0,0,0,0,0,0,0,0],"id":13,"left_children":[1,3,5,7,9,11,13,-1,15,17,19,21,23,25,27,29,-1,-1,31,33,-1,35,37,39,41,43,45,47,49,-1,-1,-1,-1,-1,-1,-1,-1,-1,-1,-1,-1,-1,-1,-1,-1,-1,-1,-1,-1,-1,-1],"loss_changes":[8.705677E4,4.8946406E3,1.146221E5,9.6114844E2,4.283089E3,3.8989062E4,3.1401562E3,0E0,1.587627E3,5.3081055E1,2.424529E3,2.479675E4,5.3199844E3,4.104375E3,5.4755474E3,2.564893E3,0E0,0E0,4.9398146E0,1.8749769E3,0E0,2.229541E4,8.855197E3,4.155383E3,1.9873284E3,1.1275078E3,2.4629877E2,6.5603955E3,5.4436045E3,0E0,0E0,0E0,0E0,0E0,0E0,0E0,0E0,0E0,0E0,0E0,0E0,0E0,0E0,0E0,0E0,0E0,0E0,0E0,0E0,0E0,0E0],"parents":[2147483647,0,0,1,1,2,2,3,3,4,4,5,5,6,6,8,8,9,9,10,10,11,11,12,12,13,13,14,14,15,15,18,18,19,19,21,21,22,22,23,23,24,24,25,25,26,26,27,27,28,28],"right_children":[2,4,6,8,10,12,14,-1,16,18,20,22,24,26,28,30,-1,-1,32,34,-1,36,38,40,42,44,46,48,50,-1,-1,-1,-1,-1,-1,-1,-1,-1,-1,-1,-1,-1,-1,-1,-1,-1,-1,-1,-1,-1,-1],"split_conditions":[-2.34375E-2,4E0,3.90625E-2,-7.421875E-2,-6.25E-2,3E0,3.5E0,-1.1533415E-1,6.3E1,1E1,6.25E-2,1.3984375E0,4.671875E0,1.475E1,4.3E1,1.6679688E0,-1.1066959E-1,-1.11497715E-1,-5E-1,-2.34375E-2,-1.275319E-1,4.7973633E-2,5.5E1,-2.34375E-2,5E-1,1E1,3.90625E-3,2E0,7E-1,-3.0578429E-2,-1.19045496E-1,-0E0,-1.5926708E-2,-5.42169E-2,7.0295684E-2,4.8875358E-2,-1.152905E-1,1.5374601E-2,-5.3031694E-2,1.7425349E-2,9.1840856E-2,1.158812E-2,-1.980109E-1,-1.16039984E-1,5.0058533E-2,8.82841E-2,-1.6836656E-2,-1.09659865E-1,1.3910535E-1,7.342777E-2,-1.1923341E-1],"split_indices":[8,6,8,8,8,6,2,0,3,7,9,2,2,10,3,2,0,0,10,9,0,9,3,9,7,7,9,10,1,0,0,0,0,0,0,0,0,0,0,0,0,0,0,0,0,0,0,0,0,0,0],"split_type":[0,0,0,0,0,0,0,0,0,0,0,0,0,0,0,0,0,0,0,0,0,0,0,0,0,0,0,0,0,0,0,0,0,0,0,0,0,0,0,0,0,0,0,0,0,0,0,0,0,0,0],"sum_hessian":[5.173108E5,8.3458766E4,4.3385206E5,7.209192E4,1.1366839E4,3.6332312E5,7.052893E4,4.014433E4,3.1947594E4,4.2909136E3,7.0759253E3,2.3599369E5,1.2732943E5,5.4343117E4,1.6185813E4,1.509492E4,1.6852674E4,4.1676035E3,1.2330996E2,6.1782324E3,8.9769244E2,1.5423678E5,8.17569E4,1.2581054E5,1.5188904E3,5.3282965E4,1.0601508E3,4.1699395E3,1.2015874E4,9.821731E3,5.273189E3,2.8568405E1,9.4741554E1,1.440263E3,4.7379697E3,1.4559248E5,8.644307E3,2.9178945E4,5.2577953E4,8.431527E3,1.17379016E5,7.5160297E2,7.672874E2,5.3007082E4,2.7588303E2,1.0017336E3,5.841725E1,1.6543795E3,2.51556E3,1.5673175E3,1.0448557E4],"tree_param":{"num_deleted":"0","num_feature":"11","num_nodes":"51","size_leaf_vector":"1"}},{"base_weights":[-6.401067E-3,-7.9161024E-1,1.9337869E-1,3.9169562E-1,-9.210596E-1,4.5881015E-1,-7.3184085E-1,-1.1448904E0,7.397249E-1,-1.036616E0,-7.0078894E-2,5.985691E-1,-1.7966285E-1,6.8735147E-1,-9.2550147E-1,-1.3196519E-1,-1.111905E-1,9.2060333E-1,-7.421242E-1,-7.024946E-1,-1.1540269E0,7.610344E-2,-1.0124656E0,-1.1187401E-1,6.559401E-1,-5.593242E-1,7.432928E-1,1.0866008E0,-4.9438542E-1,-9.667395E-1,1.2163535E0,-0E0,-5.777687E-2,-8.336672E-2,1.0715785E-1,-0E0,-1.144228E-1,-1.1947888E-1,1.7445913E-2,-1.272838E-1,-9.6131116E-2,-6.948704E-2,3.961555E-2,-0E0,-1.0435393E-1,7.339908E-2,-5.11114E-2,-7.892658E-2,1.0991907E-1,-6.129479E-2,8.183589E-2,-1.4980628E-2,1.22809984E-1,-1.221254E-1,6.529216E-2,-1.0282917E-1,6.0210004E-4,2.0718694E-1,-8.645854E-2],"categories":[],"categories_nodes":[],"categories_segments":[],"categories_sizes":[],"default_left":[0,0,0,0,0,0,0,0,0,0,0,0,0,0,0,0,0,0,0,0,0,0,0,0,0,0,0,0,0,0,0,0,0,0,0,0,0,0,0,0,0,0,0,0,0,0,0,0,0,0,0,0,0,0,0,0,0,0,0],"id":14,"left_children":[1,3,5,7,9,11,13,15,17,19,21,23,25,27,29,-1,31,33,35,37,39,41,43,-1,45,47,49,51,53,55,57,-1,-1,-1,-1,-1,-1,-1,-1,-1,-1,-1,-1,-1,-1,-1,-1,-1,-1,-1,-1,-1,-1,-1,-1,-1,-1,-1,-1],"loss_changes":[7.807791E4,1.5556223E4,9.734849E4,5.3657617E3,8.842867E3,2.7550047E4,2.436086E4,1.7171973E2,2.2913438E3,2.8763047E3,1.6312043E3,2.4950336E4,1.9396863E4,5.114103E3,6.965953E3,0E0,7.559574E1,2.0828223E3,3.0160562E2,9.322895E3,1.00303906E3,2.370197E3,3.501892E1,0E0,2.2368312E4,1.5046296E4,1.7078301E3,1.5289238E3,2.3734656E3,4.6803047E3,2.9140784E3,0E0,0E0,0E0,0E0,0E0,0E0,0E0,0E0,0E0,0E0,0E0,0E0,0E0,0E0,0E0,0E0,0E0,0E0,0E0,0E0,0E0,0E0,0E0,0E0,0E0,0E0,0E0,0E0],"parents":[2147483647,0,0,1,1,2,2,3,3,4,4,5,5,6,6,7,7,8,8,9,9,10,10,11,11,12,12,13,13,14,14,16,16,17,17,18,18,19,19,20,20,21,21,22,22,24,24,25,25,26,26,27,27,28,28,29,29,30,30],"right_children":[2,4,6,8,10,12,14,16,18,20,22,24,26,28,30,-1,32,34,36,38,40,42,44,-1,46,48,50,52,54,56,58,-1,-1,-1,-1,-1,-1,-1,-1,-1,-1,-1,-1,-1,-1,-1,-1,-1,-1,-1,-1,-1,-1,-1,-1,-1,-1,-1,-1],"split_conditions":[-2.1484375E-2,2.3E1,3.90625E-2,-8.59375E-2,5E0,2.75E0,2.3E1,6E0,9.765625E-3,4.3E1,4.3945312E-2,-6.25E-2,5E0,7.8125E-2,1.075E1,-1.3196519E-1,7.5E-1,-2.734375E-2,5.722656E-1,-3.90625E-2,2.6367188E-2,-1.5625E-2,-1.5E0,-1.1187401E-1,2.5878906E-2,1.475E1,-1.26953125E-2,-1.953125E-2,1E1,1E1,2.109375E0,-0E0,-5.777687E-2,-8.336672E-2,1.0715785E-1,-0E0,-1.144228E-1,-1.1947888E-1,1.7445913E-2,-1.272838E-1,-9.6131116E-2,-6.948704E-2,3.961555E-2,-0E0,-1.0435393E-1,7.339908E-2,-5.11114E-2,-7.892658E-2,1.0991907E-1,-6.129479E-2,8.183589E-2,-1.4980628E-2,1.22809984E-1,-1.221254E-1,6.529216E-2,-1.0282917E-1,6.0210004E-4,2.0718694E-1,-8.645854E-2],"split_indices":[9,3,9,9,6,10,3,6,8,3,8,8,6,9,10,0,5,8,2,9,8,8,10,0,8,10,8,8,6,6,2,0,0,0,0,0,0,0,0,0,0,0,0,0,0,0,0,0,0,0,0,0,0,0,0,0,0,0,0],"split_type":[0,0,0,0,0,0,0,0,0,0,0,0,0,0,0,0,0,0,0,0,0,0,0,0,0,0,0,0,0,0,0,0,0,0,0,0,0,0,0,0,0,0,0,0,0,0,0,0,0,0,0,0,0,0,0,0,0,0,0],"sum_hessian":[4.9714822E5,1.0087521E5,3.96273E5,9.851042E3,9.1024164E4,3.0805516E5,8.821786E4,1.7238345E3,8.1272075E3,8.0018914E4,1.1005254E4,2.5286661E5,5.5188527E4,1.0500001E4,7.771786E4,1.3681302E3,3.5570428E2,7.336992E3,7.9021497E2,2.121019E4,5.8808723E4,9.515091E3,1.4901632E3,8.0584E3,2.4480822E5,3.9207938E4,1.5980591E4,7.9176855E3,2.5823152E3,7.634942E4,1.3684348E3,2.1236781E2,1.4333646E2,4.9307785E2,6.8439146E3,2.85376E2,5.0483893E2,1.3634179E4,7.5760103E3,3.5712355E4,2.309637E4,2.6652368E3,6.8498545E3,6.1133648E1,1.4290295E3,2.2957727E5,1.5230949E4,3.45329E4,4.675039E3,7.3066925E2,1.5249921E4,7.399011E2,7.1777847E3,1.6302173E3,9.5209784E2,7.1897164E4,4.4522593E3,1.0041144E3,3.643205E2],"tree_param":{"num_deleted":"0","num_feature":"11","num_nodes":"59","size_leaf_vector":"1"}},{"base_weights":[-6.698752E-3,-7.834471E-1,1.8021469E-1,-1.119064E0,-5.5356896E-1,4.6205565E-1,-6.9624203E-1,-1.12169206E-1,-0E0,-7.305622E-1,1.0222832E-2,5.5689985E-1,-5.476403E-1,-7.872586E-1,1.027987E0,-0E0,-2.4556732E-2,-9.9016964E-1,-3.4871066E-1,2.128394E-1,-1.1563227E0,2.9248956E-1,8.1412846E-1,-8.376409E-1,1.0044556E0,-4.5676625E-1,-1.0505406E0,1.31964E0,-2.9319564E-1,6.11598E-3,-1.0742533E-1,-1.2118105E-1,-6.882059E-4,-5.283025E-2,6.0257353E-2,-1.3050972E-1,-0E0,-4.4731237E-2,4.4552088E-2,2.1001909E-2,8.654474E-2,7.927863E-2,-1.14974916E-1,1.09592974E-1,-7.229961E-2,-8.723345E-2,-4.031282E-3,-1.1139047E-1,-4.8231374E-2,1.3894184E-1,-2.1970432E-2,-9.098906E-2,1.2516079E-2],"categories":[],"categories_nodes":[],"categories_segments":[],"categories_sizes":[],"default_left":[0,0,0,0,0,0,0,0,0,0,0,0,0,0,0,0,0,0,0,0,0,0,0,0,0,0,0,0,0,0,0,0,0,0,0,0,0,0,0,0,0,0,0,0,0,0,0,0,0,0,0,0,0],"id":15,"left_children":[1,3,5,7,9,11,13,-1,15,17,19,21,23,25,27,-1,-1,29,31,33,35,37,39,41,43,45,47,49,51,-1,-1,-1,-1,-1,-1,-1,-1,-1,-1,-1,-1,-1,-1,-1,-1,-1,-1,-1,-1,-1,-1,-1,-1],"loss_changes":[6.90789E4,6.8925977E3,9.463706E4,3.0777344E1,5.577047E3,2.7804098E4,1.4677598E4,0E0,1.3258365E1,4.0067207E3,3.0367175E3,1.7906195E4,1.1258297E4,7.5110977E3,1.9368027E3,0E0,0E0,2.305627E3,4.9977773E3,3.319236E3,4.1798755E2,1.4867237E4,4.0348672E3,1.0842245E4,7.3363184E2,6.764375E3,1.5535078E3,5.66104E2,3.1236523E2,0E0,0E0,0E0,0E0,0E0,0E0,0E0,0E0,0E0,0E0,0E0,0E0,0E0,0E0,0E0,0E0,0E0,0E0,0E0,0E0,0E0,0E0,0E0,0E0],"parents":[2147483647,0,0,1,1,2,2,3,3,4,4,5,5,6,6,8,8,9,9,10,10,11,11,12,12,13,13,14,14,17,17,18,18,19,19,20,20,21,21,22,22,23,23,24,24,25,25,26,26,27,27,28,28],"right_children":[2,4,6,8,10,12,14,-1,16,18,20,22,24,26,28,-1,-1,30,32,34,36,38,40,42,44,46,48,50,52,-1,-1,-1,-1,-1,-1,-1,-1,-1,-1,-1,-1,-1,-1,-1,-1,-1,-1,-1,-1,-1,-1,-1,-1],"split_conditions":[-1.5625E-2,-7.421875E-2,1.953125E-2,1E1,3E0,3.75E0,1.075E1,-1.12169206E-1,-5E-1,1E0,6.25E-2,1.5E0,1.475E1,5.46875E-2,4.3945312E-2,-0E0,-2.4556732E-2,2.3E1,-1.5625E-2,-4.3945312E-3,6E1,-1.26953125E-2,-2.1484375E-2,2.7E1,2.375E0,1E0,5E0,4.671875E0,1.5E0,6.11598E-3,-1.0742533E-1,-1.2118105E-1,-6.882059E-4,-5.283025E-2,6.0257353E-2,-1.3050972E-1,-0E0,-4.4731237E-2,4.4552088E-2,2.1001909E-2,8.654474E-2,7.927863E-2,-1.14974916E-1,1.09592974E-1,-7.229961E-2,-8.723345E-2,-4.031282E-3,-1.1139047E-1,-4.8231374E-2,1.3894184E-1,-2.1970432E-2,-9.098906E-2,1.2516079E-2],"split_indices":[8,8,8,7,6,10,10,0,10,7,9,6,10,8,8,0,0,3,9,9,6,9,9,3,2,6,2,2,7,0,0,0,0,0,0,0,0,0,0,0,0,0,0,0,0,0,0,0,0,0,0,0,0],"split_type":[0,0,0,0,0,0,0,0,0,0,0,0,0,0,0,0,0,0,0,0,0,0,0,0,0,0,0,0,0,0,0,0,0,0,0,0,0,0,0,0,0,0,0,0,0,0,0,0,0,0,0,0,0],"sum_hessian":[4.7518738E5,9.221E4,3.8297738E5,3.715001E4,5.505999E4,2.8991212E5,9.306525E4,3.700012E4,1.4988782E2,4.201717E4,1.3042813E4,2.651496E5,2.476253E4,8.850566E4,4.559593E3,3.0026478E1,1.19861336E2,2.4761506E4,1.7255666E4,1.1255356E4,1.7874578E3,1.3104664E5,1.3410294E5,2.0957244E4,3.805285E3,3.9533457E4,4.8972203E4,3.7971685E3,7.624244E2,1.7476725E3,2.3013834E4,4.740101E3,1.2515565E4,3.778256E3,7.4771E3,1.6270659E3,1.6039185E2,2.231639E4,1.0873025E5,1.0692474E4,1.2341047E5,3.2909885E3,1.7666256E4,3.703613E3,1.0167173E2,1.9612777E4,1.9920678E4,4.381436E4,5.1578433E3,3.7039702E3,9.3198326E1,3.5728824E2,4.051361E2],"tree_param":{"num_deleted":"0","num_feature":"11","num_nodes":"53","size_leaf_vector":"1"}},{"base_weights":[-6.8098987E-3,-7.491057E-1,1.6819845E-1,-1.1045877E0,-5.181218E-1,4.4445488E-1,-6.1863047E-1,-1.1074243E-1,-0E0,-3.547399E-1,-1.1706934E0,5.3382915E-1,-4.802732E-1,-2.4834318E-1,-1.0195358E0,-0E0,-2.3404645E-2,-9.48217E-1,5.085531E-2,-1.19615786E-1,-0E0,3.5806823E-1,8.9285463E-1,-7.4020797E-1,9.6706194E-1,-3.6765352E-1,1.1878392E0,-1.0845315E0,-4.7779328E-1,-1.029731E-1,8.088396E-2,2.6378503E-2,-6.2463082E-2,-0E0,3.2302596E-2,-1.0983405E-1,4.1760113E-2,9.07347E-2,-3.042065E-2,7.553415E-2,-1.02189444E-1,1.0555073E-1,-6.337166E-2,-6.917818E-2,1.979321E-2,1.2831496E-1,-4.121151E-2,-1.0992221E-1,6.0310233E-2,9.921453E-2,-1.1147802E-1],"categories":[],"categories_nodes":[],"categories_segments":[],"categories_sizes":[],"default_left":[0,0,0,0,0,0,0,0,0,0,0,0,0,0,0,0,0,0,0,0,0,0,0,0,0,0,0,0,0,0,0,0,0,0,0,0,0,0,0,0,0,0,0,0,0,0,0,0,0,0,0],"id":16,"left_children":[1,3,5,7,9,11,13,-1,15,17,19,21,23,25,27,-1,-1,29,31,-1,33,35,37,39,41,43,45,47,49,-1,-1,-1,-1,-1,-1,-1,-1,-1,-1,-1,-1,-1,-1,-1,-1,-1,-1,-1,-1,-1,-1],"loss_changes":[5.9449758E4,6.9514375E3,8.040375E4,3.242578E1,5.4881436E3,2.26675E4,1.4107832E4,0E0,1.1952239E1,1.0418549E4,4.1318652E2,1.5612383E4,9.112885E3,8.563176E3,1.4102734E3,0E0,0E0,2.6142598E3,3.6441116E3,0E0,2.1388678E1,1.455483E4,1.5083438E3,8.756757E3,6.2625684E2,8.585451E3,7.209297E2,1.1272734E3,5.0545425E3,0E0,0E0,0E0,0E0,0E0,0E0,0E0,0E0,0E0,0E0,0E0,0E0,0E0,0E0,0E0,0E0,0E0,0E0,0E0,0E0,0E0,0E0],"parents":[2147483647,0,0,1,1,2,2,3,3,4,4,5,5,6,6,8,8,9,9,10,10,11,11,12,12,13,13,14,14,17,17,18,18,20,20,21,21,22,22,23,23,24,24,25,25,26,26,27,27,28,28],"right_children":[2,4,6,8,10,12,14,-1,16,18,20,22,24,26,28,-1,-1,30,32,-1,34,36,38,40,42,44,46,48,50,-1,-1,-1,-1,-1,-1,-1,-1,-1,-1,-1,-1,-1,-1,-1,-1,-1,-1,-1,-1,-1,-1],"split_conditions":[-1.5625E-2,-7.421875E-2,1.7578125E-2,1E1,7.421875E-2,3.75E0,5.46875E-2,-1.1074243E-1,-5E-1,-1.171875E-2,6E1,3.5E0,1.475E1,1.075E1,5E0,-0E0,-2.3404645E-2,1E1,-2.1972656E-2,-1.19615786E-1,1.875E-1,-7.03125E-2,4.171875E0,2.7E1,2.375E0,2E0,4.671875E0,1E1,5.203125E0,-1.029731E-1,8.088396E-2,2.6378503E-2,-6.2463082E-2,-0E0,3.2302596E-2,-1.0983405E-1,4.1760113E-2,9.07347E-2,-3.042065E-2,7.553415E-2,-1.02189444E-1,1.0555073E-1,-6.337166E-2,-6.917818E-2,1.979321E-2,1.2831496E-1,-4.121151E-2,-1.0992221E-1,6.0310233E-2,9.921453E-2,-1.1147802E-1],"split_indices":[8,8,8,7,9,10,8,0,10,9,6,6,10,10,2,0,0,7,8,0,9,9,2,3,2,6,2,7,2,0,0,0,0,0,0,0,0,0,0,0,0,0,0,0,0,0,0,0,0,0,0],"split_type":[0,0,0,0,0,0,0,0,0,0,0,0,0,0,0,0,0,0,0,0,0,0,0,0,0,0,0,0,0,0,0,0,0,0,0,0,0,0,0,0,0,0,0,0,0,0,0,0,0,0,0],"sum_hessian":[4.5698566E5,8.723268E4,3.69753E5,3.403776E4,5.3194918E4,2.737942E5,9.595881E4,3.388954E4,1.4822166E2,4.278948E4,1.04054375E4,2.4980147E5,2.3992713E4,5.0098152E4,4.586066E4,3.0026478E1,1.1819519E2,1.7417104E4,2.5372375E4,1.0251689E4,1.5374864E2,1.6802372E5,8.177775E4,2.0439771E4,3.5529404E3,4.6388477E4,3.7096763E3,4.069364E4,5.1670195E3,1.6738857E4,6.782476E2,1.945019E4,5.922185E3,4.8769745E1,1.0497889E2,6.4640073E3,1.615597E5,8.0906E4,8.7175275E2,3.1567227E3,1.7283049E4,3.4583918E3,9.454875E1,2.958708E4,1.6801395E4,3.578788E3,1.3088828E2,4.0435773E4,2.578643E2,1.4978262E3,3.6691936E3],"tree_param":{"num_deleted":"0","num_feature":"11","num_nodes":"51","size_leaf_vector":"1"}},{"base_weights":[-6.919284E-3,-7.7159935E-1,1.5086623E-1,2.8861326E-1,-8.8687664E-1,3.702183E-1,-6.7776734E-1,-1.0506824E0,6.716689E-1,-9.941895E-1,-1.4998545E-2,1.7724006E-1,7.63788E-1,6.267625E-1,-8.638697E-1,-1.2239351E-1,-7.232661E-2,8.117834E-1,-1.09282196E-1,-1.0575229E0,-4.9679172E-1,1.5897919E-1,-9.9110794E-1,3.8467342E-1,-3.677566E-1,7.968734E-1,-1.0878406E0,9.966608E-1,-4.8767772E-1,-9.063626E-1,9.5224863E-1,-0E0,-5.246767E-2,9.2591584E-2,-7.364948E-2,-1.110055E-1,-6.863623E-2,4.4795897E-2,-1.5044048E-1,-0E0,1.2624957E-1,-1.303484E-1,-0E0,5.256605E-2,-8.202099E-2,6.5234974E-2,-5.4398146E-2,-8.819637E-2,8.174547E-2,-1.0974666E-1,-0E0,-1.2224495E-2,1.131744E-1,-1.1687765E-1,5.3132415E-2,-1.050502E-1,-4.7457643E-2,1.5630601E-1,-7.858025E-2],"categories":[],"categories_nodes":[],"categories_segments":[],"categories_sizes":[],"default_left":[0,0,0,0,0,0,0,0,0,0,0,0,0,0,0,0,0,0,0,0,0,0,0,0,0,0,0,0,0,0,0,0,0,0,0,0,0,0,0,0,0,0,0,0,0,0,0,0,0,0,0,0,0,0,0,0,0,0,0],"id":17,"left_children":[1,3,5,7,9,11,13,15,17,19,21,23,25,27,29,-1,31,33,-1,35,37,39,41,43,45,47,49,51,53,55,57,-1,-1,-1,-1,-1,-1,-1,-1,-1,-1,-1,-1,-1,-1,-1,-1,-1,-1,-1,-1,-1,-1,-1,-1,-1,-1,-1,-1],"loss_changes":[5.314612E4,9.296176E3,6.6265766E4,3.8193237E3,6.2675977E3,2.180023E4,1.8590664E4,1.3653992E2,1.5090203E3,1.6984336E3,1.400649E3,2.1930516E4,5.859176E3,4.0202627E3,5.240176E3,0E0,6.164424E1,1.065648E3,0E0,7.856367E2,7.0291274E3,1.1809808E3,5.0793835E2,2.3895988E4,9.616949E3,3.2841953E3,2.2283203E1,1.2092515E3,1.770688E3,3.8692305E3,1.8175973E3,0E0,0E0,0E0,0E0,0E0,0E0,0E0,0E0,0E0,0E0,0E0,0E0,0E0,0E0,0E0,0E0,0E0,0E0,0E0,0E0,0E0,0E0,0E0,0E0,0E0,0E0,0E0,0E0],"parents":[2147483647,0,0,1,1,2,2,3,3,4,4,5,5,6,6,7,7,8,8,9,9,10,10,11,11,12,12,13,13,14,14,16,16,17,17,19,19,20,20,21,21,22,22,23,23,24,24,25,25,26,26,27,27,28,28,29,29,30,30],"right_children":[2,4,6,8,10,12,14,16,18,20,22,24,26,28,30,-1,32,34,-1,36,38,40,42,44,46,48,50,52,54,56,58,-1,-1,-1,-1,-1,-1,-1,-1,-1,-1,-1,-1,-1,-1,-1,-1,-1,-1,-1,-1,-1,-1,-1,-1,-1,-1,-1,-1],"split_conditions":[-2.734375E-2,2.3E1,3.90625E-2,-8.59375E-2,6E0,3E0,2.3E1,6E0,2.5E0,-3.515625E-2,2.8359375E0,2.25E0,3.491211E-2,7.8125E-2,1.075E1,-1.2239351E-1,7.5E-1,1.8554688E-2,-1.09282196E-1,1.5E0,4.3E1,2.6640625E0,8.5E0,1.5625E-2,1.8164062E-1,-6.25E-2,4.8E1,-1.953125E-2,1E1,2E0,2.109375E0,-0E0,-5.246767E-2,9.2591584E-2,-7.364948E-2,-1.110055E-1,-6.863623E-2,4.4795897E-2,-1.5044048E-1,-0E0,1.2624957E-1,-1.303484E-1,-0E0,5.256605E-2,-8.202099E-2,6.5234974E-2,-5.4398146E-2,-8.819637E-2,8.174547E-2,-1.0974666E-1,-0E0,-1.2224495E-2,1.131744E-1,-1.1687765E-1,5.3132415E-2,-1.050502E-1,-4.7457643E-2,1.5630601E-1,-7.858025E-2],"split_indices":[9,3,9,9,6,6,3,6,2,9,2,10,8,9,10,0,5,8,0,7,3,2,10,9,2,8,10,8,6,6,2,0,0,0,0,0,0,0,0,0,0,0,0,0,0,0,0,0,0,0,0,0,0,0,0,0,0,0,0],"split_type":[0,0,0,0,0,0,0,0,0,0,0,0,0,0,0,0,0,0,0,0,0,0,0,0,0,0,0,0,0,0,0,0,0,0,0,0,0,0,0,0,0,0,0,0,0,0,0,0,0,0,0,0,0,0,0,0,0,0,0],"sum_hessian":[4.3976756E5,7.526304E4,3.6450453E5,7.2810366E3,6.798201E4,2.8834984E5,7.615466E4,1.5224996E3,5.758537E3,6.0417008E4,7.564995E3,1.9374861E5,9.460126E4,9.411106E3,6.6743555E4,1.1852885E3,3.3721115E2,5.437429E3,3.21108E2,5.33148E4,7.1022075E3,6.4047114E3,1.1602839E3,1.4048931E5,5.325929E4,9.3049586E4,1.5516658E3,7.1411562E3,2.2699504E3,6.5320367E4,1.4231848E3,2.0497467E2,1.3223647E2,5.1617144E3,2.757146E2,4.629409E4,7.0207124E3,3.642888E3,3.4593196E3,5.660626E3,7.4408527E2,9.275673E2,2.3271664E2,1.2589708E5,1.4592237E4,7.721941E3,4.5537348E4,1.0173688E3,9.203222E4,1.5413201E3,1.0345717E1,6.9054333E2,6.450613E3,1.4105671E3,8.5938324E2,4.869129E4,1.6629078E4,1.1031156E3,3.2006915E2],"tree_param":{"num_deleted":"0","num_feature":"11","num_nodes":"59","size_leaf_vector":"1"}},{"base_weights":[-7.090365E-3,-8.757599E-1,1.21712625E-1,-1.0838757E0,-6.2836355E-1,2.7910444E-1,-8.6855805E-1,-1.0872009E-1,-0E0,-1.8086654E-1,-8.938508E-1,1.3116318E-1,7.9873574E-1,-1.0365293E0,-3.5510442E-1,-0E0,-1.9938322E-2,-8.445872E-1,1.9060002E-1,1.6105096E-1,-9.442918E-1,1.9776009E-1,-8.854502E-1,8.1234246E-1,-1.4919555E-1,-1.081822E0,6.0874337E-1,6.2842244E-1,-7.6683855E-1,-0E0,-1.14784695E-1,1.0466524E-1,-8.9257926E-2,-6.976666E-2,1.5483192E-1,-9.867692E-2,5.079002E-2,-3.7690766E-2,3.448311E-2,-1.15689814E-1,-4.7946613E-2,8.501041E-2,1.16635E-2,-1.0981842E-1,6.2303405E-2,7.805756E-2,-1.909078E-2,-9.893869E-2,1.4945613E-1,9.526234E-2,-1.1120186E-1],"categories":[],"categories_nodes":[],"categories_segments":[],"categories_sizes":[],"default_left":[0,0,0,0,0,0,0,0,0,0,0,0,0,0,0,0,0,0,0,0,0,0,0,0,0,0,0,0,0,0,0,0,0,0,0,0,0,0,0,0,0,0,0,0,0,0,0,0,0,0,0],"id":18,"left_children":[1,3,5,7,9,11,13,-1,15,17,19,21,23,25,27,-1,-1,29,31,33,35,37,39,41,-1,43,45,47,49,-1,-1,-1,-1,-1,-1,-1,-1,-1,-1,-1,-1,-1,-1,-1,-1,-1,-1,-1,-1,-1,-1],"loss_changes":[4.7407266E4,2.5783555E3,5.7370363E4,4.4164062E1,2.9012314E3,2.4339895E4,4.174918E3,0E0,8.466963E0,2.4844326E3,9.350322E2,1.6723477E4,2.2442344E3,2.9309844E3,5.2187783E3,0E0,0E0,1.00879834E3,5.889253E3,1.0468005E3,1.0354971E3,1.967767E4,1.4514697E3,1.7320625E3,0E0,1.1451445E3,2.1373663E2,5.440584E3,5.5188687E3,0E0,0E0,0E0,0E0,0E0,0E0,0E0,0E0,0E0,0E0,0E0,0E0,0E0,0E0,0E0,0E0,0E0,0E0,0E0,0E0,0E0,0E0],"parents":[2147483647,0,0,1,1,2,2,3,3,4,4,5,5,6,6,8,8,9,9,10,10,11,11,12,12,13,13,14,14,17,17,18,18,19,19,20,20,21,21,22,22,23,23,25,25,26,26,27,27,28,28],"right_children":[2,4,6,8,10,12,14,-1,16,18,20,22,24,26,28,-1,-1,30,32,34,36,38,40,42,-1,44,46,48,50,-1,-1,-1,-1,-1,-1,-1,-1,-1,-1,-1,-1,-1,-1,-1,-1,-1,-1,-1,-1,-1,-1],"split_conditions":[-2.734375E-2,-7.421875E-2,3.90625E-2,1E1,4.3E1,6E0,3.5E0,-1.0872009E-1,-5E-1,1.1679688E0,5E0,8.59375E-2,6.328125E0,1.475E1,4.3E1,-0E0,-1.9938322E-2,2.3E1,1.7148438E0,-3.125E-2,4.5E0,-1.26953125E-2,1E0,1.953125E-2,-1.4919555E-1,1E1,3.90625E-3,2E0,7E-1,-0E0,-1.14784695E-1,1.0466524E-1,-8.9257926E-2,-6.976666E-2,1.5483192E-1,-9.867692E-2,5.079002E-2,-3.7690766E-2,3.448311E-2,-1.15689814E-1,-4.7946613E-2,8.501041E-2,1.16635E-2,-1.0981842E-1,6.2303405E-2,7.805756E-2,-1.909078E-2,-9.893869E-2,1.4945613E-1,9.526234E-2,-1.1120186E-1],"split_indices":[8,8,8,7,3,6,2,0,10,2,4,9,2,10,3,0,0,3,2,8,7,9,6,8,0,7,9,10,1,0,0,0,0,0,0,0,0,0,0,0,0,0,0,0,0,0,0,0,0,0,0],"split_type":[0,0,0,0,0,0,0,0,0,0,0,0,0,0,0,0,0,0,0,0,0,0,0,0,0,0,0,0,0,0,0,0,0,0,0,0,0,0,0,0,0,0,0,0,0,0,0,0,0,0,0],"sum_hessian":[4.2283656E5,5.4625984E4,3.682106E5,2.9265133E4,2.5360852E4,3.1786284E5,5.0347742E4,2.9123146E4,1.4198645E2,9.646241E3,1.5714611E4,2.4766831E5,7.019454E4,3.771351E4,1.2634231E4,2.9000765E1,1.1298569E2,3.512354E3,6.133887E3,6.166411E2,1.5097971E4,2.3260931E5,1.5058996E4,6.98876E4,3.0694122E2,3.679559E4,9.1791943E2,3.6410933E3,8.993139E3,8.9095245E2,2.6214016E3,3.4796006E3,2.6542864E3,3.6705786E2,2.4958325E2,1.476694E4,3.3103018E2,4.7229137E4,1.8538017E5,8.766371E3,6.2926245E3,6.613214E4,3.755454E3,3.653915E4,2.5644113E2,8.604603E2,5.7459103E1,1.2244086E3,2.4166848E3,1.4256746E3,7.567464E3],"tree_param":{"num_deleted":"0","num_feature":"11","num_nodes":"51","size_leaf_vector":"1"}},{"base_weights":[-7.4000116E-3,-6.8727857E-1,1.437472E-1,-1.0728782E0,-4.6648192E-1,3.0556235E-1,-8.464755E-1,-1.0764891E-1,-0E0,-3.1977773E-1,-1.1189996E0,1.5841609E-1,7.6220596E-1,-1.0230598E0,-3.343722E-1,-0E0,-1.9006435E-2,-8.7653947E-1,2.2591544E-2,-1.14836775E-1,-0E0,3.6006987E-1,-2.4213749E-1,7.9358345E-1,-1.9439541E-1,-1.0690401E0,5.682786E-1,6.4624894E-1,-7.288782E-1,-9.6252196E-2,7.630264E-2,2.390769E-2,-6.401145E-2,-0E0,2.9093523E-2,5.048988E-2,-5.4510653E-2,2.815179E-2,-5.2506E-2,8.347481E-2,1.649825E-2,-1.6511598E-1,4.7222506E-3,-1.0866457E-1,5.629892E-2,7.440447E-2,-1.839388E-2,-1.0612383E-1,1.8920025E-1,1.0528951E-2,-1.08615816E-1],"categories":[],"categories_nodes":[],"categories_segments":[],"categories_sizes":[],"default_left":[0,0,0,0,0,0,0,0,0,0,0,0,0,0,0,0,0,0,0,0,0,0,0,0,0,0,0,0,0,0,0,0,0,0,0,0,0,0,0,0,0,0,0,0,0,0,0,0,0,0,0],"id":19,"left_children":[1,3,5,7,9,11,13,-1,15,17,19,21,23,25,27,-1,-1,29,31,-1,33,35,37,39,41,43,45,47,49,-1,-1,-1,-1,-1,-1,-1,-1,-1,-1,-1,-1,-1,-1,-1,-1,-1,-1,-1,-1,-1,-1],"loss_changes":[4.2012863E4,6.128961E3,5.3478234E4,4.5333984E1,4.3809014E3,1.9192848E4,4.0660703E3,0E0,7.6456017E0,7.55226E3,3.7281348E2,1.7587793E4,2.1703398E3,2.6453398E3,4.815585E3,0E0,0E0,2.2116045E3,3.4522324E3,0E0,1.7216562E1,1.901501E4,1.0813131E4,1.6380898E3,9.4106793E2,1.0836172E3,1.9886484E2,7.7507563E3,2.7603257E3,0E0,0E0,0E0,0E0,0E0,0E0,0E0,0E0,0E0,0E0,0E0,0E0,0E0,0E0,0E0,0E0,0E0,0E0,0E0,0E0,0E0,0E0],"parents":[2147483647,0,0,1,1,2,2,3,3,4,4,5,5,6,6,8,8,9,9,10,10,11,11,12,12,13,13,14,14,17,17,18,18,20,20,21,21,22,22,23,23,24,24,25,25,26,26,27,27,28,28],"right_children":[2,4,6,8,10,12,14,-1,16,18,20,22,24,26,28,-1,-1,30,32,-1,34,36,38,40,42,44,46,48,50,-1,-1,-1,-1,-1,-1,-1,-1,-1,-1,-1,-1,-1,-1,-1,-1,-1,-1,-1,-1,-1,-1],"split_conditions":[-1.5625E-2,-7.421875E-2,3.90625E-2,1E1,7.421875E-2,5E0,3.5E0,-1.0764891E-1,-5E-1,-1.171875E-2,6E1,2E0,3.7109375E0,1.475E1,5.46875E-2,-0E0,-1.9006435E-2,1E1,-2.1972656E-2,-1.14836775E-1,1.875E-1,2.1484375E-2,4.3E1,1.953125E-2,2E0,1E1,3.90625E-3,5.078125E-2,4.3E1,-9.6252196E-2,7.630264E-2,2.390769E-2,-6.401145E-2,-0E0,2.9093523E-2,5.048988E-2,-5.4510653E-2,2.815179E-2,-5.2506E-2,8.347481E-2,1.649825E-2,-1.6511598E-1,4.7222506E-3,-1.0866457E-1,5.629892E-2,7.440447E-2,-1.839388E-2,-1.0612383E-1,1.8920025E-1,1.0528951E-2,-1.08615816E-1],"split_indices":[8,8,8,7,9,6,2,0,10,9,6,10,2,10,8,0,0,7,8,0,9,9,3,8,10,7,9,8,3,0,0,0,0,0,0,0,0,0,0,0,0,0,0,0,0,0,0,0,0,0,0],"split_type":[0,0,0,0,0,0,0,0,0,0,0,0,0,0,0,0,0,0,0,0,0,0,0,0,0,0,0,0,0,0,0,0,0,0,0,0,0,0,0,0,0,0,0,0,0,0,0,0,0,0,0],"sum_hessian":[4.0811253E5,7.428344E4,3.338291E5,2.6742127E4,4.7541312E4,2.8708572E5,4.6743375E4,2.660148E4,1.4064693E2,3.9061465E4,8.479848E3,2.1738916E5,6.969656E4,3.453865E4,1.2204727E4,2.9000765E1,1.1164616E2,1.4925554E4,2.413591E4,8.329322E3,1.505255E2,1.447675E5,7.262165E4,6.7600766E4,2.095796E3,3.3661688E4,8.7696216E2,3.410349E3,8.794377E3,1.4279016E4,6.4653796E2,1.8354793E4,5.7811177E3,4.7124115E1,1.03401375E2,1.2493284E5,1.9834654E4,2.5349617E4,4.7272035E4,6.3265855E4,4.33491E3,2.7404175E2,1.8217542E3,3.3396113E4,2.6557224E2,8.195011E2,5.7461063E1,1.4109606E3,1.9993887E3,2.5743918E3,6.2199854E3],"tree_param":{"num_deleted":"0","num_feature":"11","num_nodes":"51","size_leaf_vector":"1"}},{"base_weights":[-7.3892833E-3,-6.3760704E-1,1.469371E-1,-1.1556719E-1,-9.707762E-1,3.8453865E-1,-4.6737143E-1,-7.4832827E-1,3.4567443E-1,-1.1355311E0,-4.8650622E-1,5.839618E-1,-1.3112031E-1,1.4068654E-1,-9.1760796E-1,-9.2320114E-1,-0E0,6.219047E-1,-7.874644E-1,-9.981535E-1,-1.5563418E0,-6.064373E-1,9.109423E-1,6.2116635E-1,-1.035591E-1,-4.259429E-1,5.729166E-1,5.650271E-1,-7.234139E-1,-9.845324E-1,1.0551822E0,-1.0155412E-1,7.185999E-2,-1.0849177E-1,2.4664035E-2,-9.561854E-2,7.926977E-2,-3.6740885E-3,-1.379489E-1,-1.07177E-1,-4.757145E-2,-1.695842E-1,-9.926068E-2,-1.5609912E-2,-9.861238E-2,1.0800797E-1,-0E0,-1.03359334E-1,6.5703616E-2,-5.7281245E-2,1.0351231E-1,8.27634E-2,7.892257E-3,-4.7521073E-2,8.060425E-2,-1.0067673E-1,1.9970058E-2,-1.05202675E-1,3.6208245E-3,1.4274646E-1,-6.025813E-2],"categories":[],"categories_nodes":[],"categories_segments":[],"categories_sizes":[],"default_left":[0,0,0,0,0,0,0,0,0,0,0,0,0,0,0,0,0,0,0,0,0,0,0,0,0,0,0,0,0,0,0,0,0,0,0,0,0,0,0,0,0,0,0,0,0,0,0,0,0,0,0,0,0,0,0,0,0,0,0,0,0],"id":20,"left_children":[1,3,5,7,9,11,13,15,17,19,21,23,25,27,29,31,33,35,37,39,41,43,45,47,-1,49,51,53,55,57,59,-1,-1,-1,-1,-1,-1,-1,-1,-1,-1,-1,-1,-1,-1,-1,-1,-1,-1,-1,-1,-1,-1,-1,-1,-1,-1,-1,-1,-1,-1],"loss_changes":[3.840936E4,1.3396326E4,4.6236156E4,8.969199E3,3.5569453E3,2.3555402E4,2.425304E4,1.6169297E3,5.54786E3,1.6165234E3,2.0925764E3,9.962949E3,1.3227361E4,1.3790091E4,6.8061914E3,1.6836377E3,8.1209485E2,3.9120737E3,1.3763284E3,8.286797E2,2.1341406E2,1.8347847E3,2.4937665E2,9.609465E3,0E0,9.678284E3,2.2606E3,6.417058E3,3.3259312E3,3.4985078E3,1.1970621E3,0E0,0E0,0E0,0E0,0E0,0E0,0E0,0E0,0E0,0E0,0E0,0E0,0E0,0E0,0E0,0E0,0E0,0E0,0E0,0E0,0E0,0E0,0E0,0E0,0E0,0E0,0E0,0E0,0E0,0E0],"parents":[2147483647,0,0,1,1,2,2,3,3,4,4,5,5,6,6,7,7,8,8,9,9,10,10,11,11,12,12,13,13,14,14,15,15,16,16,17,17,18,18,19,19,20,20,21,21,22,22,23,23,25,25,26,26,27,27,28,28,29,29,30,30],"right_children":[2,4,6,8,10,12,14,16,18,20,22,24,26,28,30,32,34,36,38,40,42,44,46,48,-1,50,52,54,56,58,60,-1,-1,-1,-1,-1,-1,-1,-1,-1,-1,-1,-1,-1,-1,-1,-1,-1,-1,-1,-1,-1,-1,-1,-1,-1,-1,-1,-1,-1,-1],"split_conditions":[-1.7578125E-2,4.3E1,1.7089844E-2,-6.1523438E-2,2E0,2.25E0,4.7E1,6E0,1.171875E-2,-3.9245605E-2,1.475E1,5.2490234E-2,3.5E0,7.8125E-2,1.075E1,6E0,-8.7890625E-3,-5.859375E-2,5E-1,1.5E0,3.125E-2,1.25E0,1.4453125E0,-5.859375E-2,-1.035591E-1,1.475E1,3.25E0,1.25E0,6E0,1E1,2.375E0,-1.0155412E-1,7.185999E-2,-1.0849177E-1,2.4664035E-2,-9.561854E-2,7.926977E-2,-3.6740885E-3,-1.379489E-1,-1.07177E-1,-4.757145E-2,-1.695842E-1,-9.926068E-2,-1.5609912E-2,-9.861238E-2,1.0800797E-1,-0E0,-1.03359334E-1,6.5703616E-2,-5.7281245E-2,1.0351231E-1,8.27634E-2,7.892257E-3,-4.7521073E-2,8.060425E-2,-1.0067673E-1,1.9970058E-2,-1.05202675E-1,3.6208245E-3,1.4274646E-1,-6.025813E-2],"split_indices":[9,3,9,9,6,10,3,6,8,9,10,8,6,9,10,7,8,8,7,7,8,10,2,8,0,10,10,10,6,6,2,0,0,0,0,0,0,0,0,0,0,0,0,0,0,0,0,0,0,0,0,0,0,0,0,0,0,0,0,0,0],"split_type":[0,0,0,0,0,0,0,0,0,0,0,0,0,0,0,0,0,0,0,0,0,0,0,0,0,0,0,0,0,0,0,0,0,0,0,0,0,0,0,0,0,0,0,0,0,0,0,0,0,0,0,0,0,0,0,0,0,0,0,0,0],"sum_hessian":[3.9421653E5,7.761155E4,3.16605E5,3.0405021E4,4.7206527E4,2.284468E5,8.8158195E4,1.2884203E4,1.7520818E4,3.4968734E4,1.2237793E4,1.648675E5,6.3579293E4,3.744042E4,5.0717773E4,1.0328272E4,2.5559302E3,1.4194041E4,3.3267766E3,2.6795826E4,8.1729106E3,1.1388571E4,8.492211E2,1.6128583E5,3.5816829E3,4.4941234E4,1.8638059E4,2.521046E4,1.2229962E4,4.9151164E4,1.5666082E3,9.872089E3,4.5618365E2,4.773509E2,2.078579E3,1.2840789E3,1.2909962E4,1.5880939E3,1.7386829E3,2.3226451E4,3.5693748E3,6.2484717E3,1.9244387E3,5.3946167E3,5.9939546E3,7.889768E2,6.0244293E1,3.3038096E3,1.5798202E5,4.0953715E4,3.987518E3,1.2119124E4,6.5189346E3,4.6459897E3,2.056447E4,9.433562E3,2.7964E3,4.6191734E4,2.9594316E3,1.3399183E3,2.2668977E2],"tree_param":{"num_deleted":"0","num_feature":"11","num_nodes":"61","size_leaf_vector":"1"}},{"base_weights":[-7.6251803E-3,-7.7674294E-1,1.0759248E-1,1.0899643E-1,-8.7225264E-1,2.641874E-1,-5.710805E-1,-9.684884E-1,5.670293E-1,-9.8996097E-1,-6.4303115E-2,1.0529679E-1,6.3803244E-1,5.888197E-1,-7.5357074E-1,-1.1352117E-1,-5.3431086E-2,-1.05310194E-1,7.9463416E-1,-1.0648202E0,-5.137236E-1,2.786854E-1,-9.4339377E-1,3.094161E-1,-2.7249637E-1,6.646473E-1,-9.600319E-2,9.110824E-1,-4.3322045E-1,-7.9938763E-1,8.149376E-1,-0E0,-4.829636E-2,9.744375E-2,-6.458863E-2,-6.843417E-2,-1.0874907E-1,-9.190235E-2,-0E0,-2.0556357E-2,6.7102745E-2,-0E0,-1.2860374E-1,4.6070453E-2,-1.7789371E-2,3.427921E-2,-5.601997E-2,6.86953E-2,-8.116136E-2,-8.296954E-3,1.04337454E-1,-1.0638622E-1,4.0329482E-2,-9.6394405E-2,-3.7023332E-2,1.3001677E-1,-8.778104E-2],"categories":[],"categories_nodes":[],"categories_segments":[],"categories_sizes":[],"default_left":[0,0,0,0,0,0,0,0,0,0,0,0,0,0,0,0,0,0,0,0,0,0,0,0,0,0,0,0,0,0,0,0,0,0,0,0,0,0,0,0,0,0,0,0,0,0,0,0,0,0,0,0,0,0,0,0,0],"id":21,"left_children":[1,3,5,7,9,11,13,15,17,19,21,23,25,27,29,-1,31,-1,33,35,37,39,41,43,45,47,-1,49,51,53,55,-1,-1,-1,-1,-1,-1,-1,-1,-1,-1,-1,-1,-1,-1,-1,-1,-1,-1,-1,-1,-1,-1,-1,-1,-1,-1],"loss_changes":[3.360459E4,4.2667383E3,3.495424E4,2.3824133E3,4.14159E3,1.5811201E4,1.3099924E4,8.908899E1,1.3464653E3,1.175043E3,1.8723771E3,1.4514E4,3.4193555E3,2.8394084E3,3.8971797E3,0E0,5.0093372E1,0E0,9.182124E2,3.6148438E1,1.2501654E3,8.6610205E2,4.8253394E2,9.053651E3,1.1697064E4,2.6251133E3,0E0,9.5414453E2,1.1622021E3,3.4991367E3,1.3897212E3,0E0,0E0,0E0,0E0,0E0,0E0,0E0,0E0,0E0,0E0,0E0,0E0,0E0,0E0,0E0,0E0,0E0,0E0,0E0,0E0,0E0,0E0,0E0,0E0,0E0,0E0],"parents":[2147483647,0,0,1,1,2,2,3,3,4,4,5,5,6,6,7,7,8,8,9,9,10,10,11,11,12,12,13,13,14,14,16,16,18,18,19,19,20,20,21,21,22,22,23,23,24,24,25,25,27,27,28,28,29,29,30,30],"right_children":[2,4,6,8,10,12,14,16,18,20,22,24,26,28,30,-1,32,-1,34,36,38,40,42,44,46,48,-1,50,52,54,56,-1,-1,-1,-1,-1,-1,-1,-1,-1,-1,-1,-1,-1,-1,-1,-1,-1,-1,-1,-1,-1,-1,-1,-1,-1,-1],"split_conditions":[-3.9245605E-2,2.3E1,3.90625E-2,-8.59375E-2,6E0,3E0,2.3E1,6E0,-7.8125E-3,1.5E0,8.666992E-3,1.3984375E0,4.3945312E-2,7.8125E-2,1.075E1,-1.1352117E-1,7.5E-1,-1.05310194E-1,1.8554688E-2,-7.5E-1,2.6367188E-2,-9.765625E-3,3.1E1,2.25E0,4.3E1,4.671875E0,-9.600319E-2,-1.953125E-2,1E1,2E0,1.5E0,-0E0,-4.829636E-2,9.744375E-2,-6.458863E-2,-6.843417E-2,-1.0874907E-1,-9.190235E-2,-0E0,-2.0556357E-2,6.7102745E-2,-0E0,-1.2860374E-1,4.6070453E-2,-1.7789371E-2,3.427921E-2,-5.601997E-2,6.86953E-2,-8.116136E-2,-8.296954E-3,1.04337454E-1,-1.0638622E-1,4.0329482E-2,-9.6394405E-2,-3.7023332E-2,1.3001677E-1,-8.778104E-2],"split_indices":[9,3,9,9,6,6,3,6,8,7,8,2,8,9,10,0,5,0,8,10,8,8,3,10,3,2,0,8,6,6,6,0,0,0,0,0,0,0,0,0,0,0,0,0,0,0,0,0,0,0,0,0,0,0,0,0,0],"split_type":[0,0,0,0,0,0,0,0,0,0,0,0,0,0,0,0,0,0,0,0,0,0,0,0,0,0,0,0,0,0,0,0,0,0,0,0,0,0,0,0,0,0,0,0,0,0,0,0,0,0,0,0,0,0,0,0,0],"sum_hessian":[3.7826666E5,4.932161E4,3.2894506E5,4.6974272E3,4.4624184E4,2.6744422E5,6.150084E4,1.3028378E3,3.3945894E3,3.8821996E4,5.802186E3,1.8795552E5,7.9488695E4,8.255923E3,5.3244918E4,9.89254E2,3.1358374E2,3.1935046E2,3.0752388E3,3.3260285E4,5.5617124E3,4.141048E3,1.6611384E3,1.2220935E5,6.574616E4,7.830555E4,1.1831497E3,6.359415E3,1.8965074E3,5.184334E4,1.401579E3,1.9376266E2,1.19821075E2,2.824468E3,2.5077074E2,2.293763E3,3.0966521E4,3.149284E3,2.4124285E3,1.7606671E3,2.3803806E3,5.216786E2,1.1394598E3,9.341785E4,2.87915E4,2.083062E4,4.491554E4,7.725939E4,1.0461545E3,6.625267E2,5.6968887E3,1.1339773E3,7.6253015E2,3.7215625E4,1.4627715E4,1.1532615E3,2.4831757E2],"tree_param":{"num_deleted":"0","num_feature":"11","num_nodes":"57","size_leaf_vector":"1"}},{"base_weights":[-7.772592E-3,-6.3422E-1,1.2472992E-1,-1.0512645E0,-4.205475E-1,3.6280116E-1,-4.156646E-1,-1.0557645E-1,-0E0,-2.9100007E-1,-1.0722334E0,5.013365E-1,-2.5275907E-1,-1.7113046E-1,-9.203575E-1,-0E0,-1.5376808E-2,-8.108265E-1,-0E0,-1.1076178E-1,-0E0,-9.3792774E-2,6.0182035E-1,3.8502997E-1,-7.7024806E-1,-8.52892E-1,-1.2464659E-2,-1.0182384E0,-2.3789439E-1,-8.956842E-2,6.798101E-2,2.0492023E-2,-6.419929E-2,-0E0,2.8558612E-2,5.268119E-2,-8.7090164E-2,6.890813E-2,9.027609E-3,7.268532E-2,-1.1434975E-2,3.3645913E-2,-1.1948695E-1,-1.05742924E-1,-0E0,-4.082386E-2,2.8926203E-2,-1.04058005E-1,6.010274E-2,1.09013274E-1,-1.03598215E-1],"categories":[],"categories_nodes":[],"categories_segments":[],"categories_sizes":[],"default_left":[0,0,0,0,0,0,0,0,0,0,0,0,0,0,0,0,0,0,0,0,0,0,0,0,0,0,0,0,0,0,0,0,0,0,0,0,0,0,0,0,0,0,0,0,0,0,0,0,0,0,0],"id":22,"left_children":[1,3,5,7,9,11,13,-1,15,17,19,21,23,25,27,-1,-1,29,31,-1,33,35,37,39,41,43,45,47,49,-1,-1,-1,-1,-1,-1,-1,-1,-1,-1,-1,-1,-1,-1,-1,-1,-1,-1,-1,-1,-1,-1],"loss_changes":[3.0456201E4,5.5191094E3,3.889165E4,5.4117188E1,3.4372563E3,1.7943916E4,1.1271785E4,0E0,4.8641553E0,5.384275E3,3.49688E2,1.0316496E4,1.2778136E4,6.668984E3,1.8530527E3,0E0,0E0,1.7030518E3,3.0851353E3,0E0,1.6565134E1,1.2005412E4,6.475074E3,3.0106772E3,1.0172972E4,2.0354141E3,6.1007183E3,1.0494082E3,4.367747E3,0E0,0E0,0E0,0E0,0E0,0E0,0E0,0E0,0E0,0E0,0E0,0E0,0E0,0E0,0E0,0E0,0E0,0E0,0E0,0E0,0E0,0E0],"parents":[2147483647,0,0,1,1,2,2,3,3,4,4,5,5,6,6,8,8,9,9,10,10,11,11,12,12,13,13,14,14,17,17,18,18,20,20,21,21,22,22,23,23,24,24,25,25,26,26,27,27,28,28],"right_children":[2,4,6,8,10,12,14,-1,16,18,20,22,24,26,28,-1,-1,30,32,-1,34,36,38,40,42,44,46,48,50,-1,-1,-1,-1,-1,-1,-1,-1,-1,-1,-1,-1,-1,-1,-1,-1,-1,-1,-1,-1,-1,-1],"split_conditions":[-1.5625E-2,-7.421875E-2,1.171875E-2,1E1,7.421875E-2,2.75E0,5.46875E-2,-1.0557645E-1,-5E-1,-1.171875E-2,6E1,-1.26953125E-2,4.3E1,-2.734375E-2,5E0,-0E0,-1.5376808E-2,1E1,-2.1972656E-2,-1.1076178E-1,1.875E-1,4.6E1,1.7089844E-2,3.75E0,4.4433594E-1,1.5E0,1E0,1E1,5.203125E0,-8.956842E-2,6.798101E-2,2.0492023E-2,-6.419929E-2,-0E0,2.8558612E-2,5.268119E-2,-8.7090164E-2,6.890813E-2,9.027609E-3,7.268532E-2,-1.1434975E-2,3.3645913E-2,-1.1948695E-1,-1.05742924E-1,-0E0,-4.082386E-2,2.8926203E-2,-1.04058005E-1,6.010274E-2,1.09013274E-1,-1.03598215E-1],"split_indices":[8,8,8,7,9,10,8,0,10,9,6,9,3,9,2,0,0,7,8,0,9,3,9,10,2,7,6,7,2,0,0,0,0,0,0,0,0,0,0,0,0,0,0,0,0,0,0,0,0,0,0],"split_type":[0,0,0,0,0,0,0,0,0,0,0,0,0,0,0,0,0,0,0,0,0,0,0,0,0,0,0,0,0,0,0,0,0,0,0,0,0,0,0,0,0,0,0,0,0,0,0,0,0,0,0],"sum_hessian":[3.661072E5,6.398307E4,3.021241E5,2.1384654E4,4.2598418E4,2.0987947E5,9.224465E4,2.125045E4,1.3420432E2,3.578324E4,6.815181E3,1.7147014E5,3.840933E4,6.236134E4,2.9883309E4,2.8484993E1,1.05719315E2,1.271168E4,2.3071557E4,6.6654463E3,1.4973512E2,2.462669E4,1.4684344E5,1.7129771E4,2.1279555E4,1.157172E4,5.0789617E4,2.596378E4,3.9195283E3,1.2128251E4,5.8342896E2,1.747701E4,5.594549E3,4.6630054E1,1.03105064E2,1.3638451E4,1.0988237E4,1.2524803E5,2.1595418E4,1.0260916E4,6.8688555E3,5.8410537E3,1.5438502E4,9.313452E3,2.2582678E3,2.2098809E4,2.869081E4,2.570659E4,2.5719092E2,1.410518E3,2.5090103E3],"tree_param":{"num_deleted":"0","num_feature":"11","num_nodes":"51","size_leaf_vector":"1"}},{"base_weights":[-7.628561E-3,-7.818851E-1,8.94507E-2,-1.0429128E0,-5.1748765E-1,1.8551195E-1,-9.0063626E-1,-1.04782E-1,-0E0,-9.572901E-2,-7.967794E-1,-2.8878627E-2,4.4422188E-1,-1.0041856E0,-2.209318E-1,-0E0,-1.4661704E-2,1.5533137E0,-2.9209894E-1,2.014635E-1,-8.5773605E-1,4.302573E-1,-1.9307604E-1,4.8602077E-1,-8.6332285E-1,-1.0281311E0,5.440314E-1,9.23144E-1,-1.0186273E-1,-5.0235637E-2,2.6344624E-1,-6.6118124E-3,-1.1460795E-1,-5.965584E-2,1.2788919E-1,-9.0892404E-2,4.6224236E-2,-6.607519E-2,5.6265213E-2,6.654956E-2,-2.6545692E-2,-1.0038107E-2,5.4524697E-2,-4.2767357E-2,-1.7627019E-1,-1.0533605E-1,1.4849851E-2,-3.9212774E-2,1.8085662E-1,2.2167842E-1,-8.327743E-2],"categories":[],"categories_nodes":[],"categories_segments":[],"categories_sizes":[],"default_left":[0,0,0,0,0,0,0,0,0,0,0,0,0,0,0,0,0,0,0,0,0,0,0,0,0,0,0,0,0,0,0,0,0,0,0,0,0,0,0,0,0,0,0,0,0,0,0,0,0,0,0],"id":23,"left_children":[1,3,5,7,9,11,13,-1,15,17,19,21,23,25,27,-1,-1,29,31,33,35,37,39,41,43,45,47,49,-1,-1,-1,-1,-1,-1,-1,-1,-1,-1,-1,-1,-1,-1,-1,-1,-1,-1,-1,-1,-1,-1,-1],"loss_changes":[2.6657016E4,2.5178203E3,2.9829467E4,5.484375E1,2.2618975E3,1.5938872E4,1.8059297E3,0E0,4.400731E0,2.5855784E3,8.064512E2,1.1790845E4,7.11425E3,9.9018555E2,3.6809297E3,0E0,0E0,2.2075735E3,1.3178262E3,7.213533E2,8.515293E2,5.967346E3,7.1603813E3,4.432922E3,1.2696135E3,8.075664E2,6.4551245E2,3.983039E3,0E0,0E0,0E0,0E0,0E0,0E0,0E0,0E0,0E0,0E0,0E0,0E0,0E0,0E0,0E0,0E0,0E0,0E0,0E0,0E0,0E0,0E0,0E0],"parents":[2147483647,0,0,1,1,2,2,3,3,4,4,5,5,6,6,8,8,9,9,10,10,11,11,12,12,13,13,14,14,17,17,18,18,19,19,20,20,21,21,22,22,23,23,24,24,25,25,26,26,27,27],"right_children":[2,4,6,8,10,12,14,-1,16,18,20,22,24,26,28,-1,-1,30,32,34,36,38,40,42,44,46,48,50,-1,-1,-1,-1,-1,-1,-1,-1,-1,-1,-1,-1,-1,-1,-1,-1,-1,-1,-1,-1,-1,-1,-1],"split_conditions":[-2.734375E-2,-7.421875E-2,5.46875E-2,1E1,4.3E1,1.5E0,5E0,-1.04782E-1,-5E-1,-7.03125E-2,5E0,4.7070312E-1,4.171875E0,1E1,5.203125E0,-0E0,-1.4661704E-2,1E0,2E0,-3.125E-2,4.5E0,-1.171875E-2,2.3E1,-2.734375E-2,1E0,1.475E1,1.5037298E-1,4.3E1,-1.0186273E-1,-5.0235637E-2,2.6344624E-1,-6.6118124E-3,-1.1460795E-1,-5.965584E-2,1.2788919E-1,-9.0892404E-2,4.6224236E-2,-6.607519E-2,5.6265213E-2,6.654956E-2,-2.6545692E-2,-1.0038107E-2,5.4524697E-2,-4.2767357E-2,-1.7627019E-1,-1.0533605E-1,1.4849851E-2,-3.9212774E-2,1.8085662E-1,2.2167842E-1,-8.327743E-2],"split_indices":[8,8,8,7,3,6,2,0,10,8,4,2,2,7,2,0,0,7,10,8,7,9,3,9,7,10,9,3,0,0,0,0,0,0,0,0,0,0,0,0,0,0,0,0,0,0,0,0,0,0,0],"split_type":[0,0,0,0,0,0,0,0,0,0,0,0,0,0,0,0,0,0,0,0,0,0,0,0,0,0,0,0,0,0,0,0,0,0,0,0,0,0,0,0,0,0,0,0,0,0,0,0,0,0,0],"sum_hessian":[3.535359E5,3.942513E4,3.1411078E5,1.9500496E4,1.9924633E4,2.864963E5,2.761448E4,1.9367293E4,1.3320294E2,8.1339204E3,1.1790713E4,1.5650462E5,1.2999167E5,2.3794633E4,3.8198472E3,2.8484993E1,1.0471795E2,7.378094E2,7.396111E3,5.708758E2,1.1219837E4,4.1023074E4,1.15481555E5,1.2609989E5,3.8917869E3,2.3528906E4,2.6572702E2,1.5112645E3,2.3085825E3,2.408685E2,4.9694092E2,6.0262754E3,1.3698352E3,3.002824E2,2.7059338E2,1.0903891E4,3.1594656E2,4.3145244E3,3.670855E4,8.807479E3,1.0667408E5,1.1406405E4,1.14693484E5,2.796118E3,1.095669E3,2.312845E4,4.004566E2,1.4689082E2,1.1883618E2,8.878565E2,6.23408E2],"tree_param":{"num_deleted":"0","num_feature":"11","num_nodes":"51","size_leaf_vector":"1"}},{"base_weights":[-7.625694E-3,-5.8361334E-1,1.0951238E-1,-1.0351151E0,-3.807659E-1,3.2230774E-1,-3.8170534E-1,-1.04047135E-1,-0E0,-2.57398E-1,-1.0531714E0,4.5478734E-1,-2.4818179E-1,-1.686524E-1,-8.845728E-1,-0E0,-1.3980175E-2,-7.5246626E-1,-0E0,-1.09115675E-1,-0E0,-8.5757054E-2,5.494511E-1,3.3866608E-1,-7.1917903E-1,-2.4652077E-1,1.0107118E0,-9.9298453E-1,-2.1038161E-1,-9.201228E-2,1.0981411E-2,1.948456E-2,-5.9214223E-2,-0E0,2.4752608E-2,4.467493E-2,-8.422121E-2,6.521593E-2,1.0726388E-2,6.690105E-2,-1.2549231E-2,-1.0852255E-1,3.201687E-2,-5.687046E-2,2.378821E-3,-4.989345E-2,1.1279086E-1,-1.0187044E-1,4.8613008E-2,7.9709545E-2,-1.0019175E-1],"categories":[],"categories_nodes":[],"categories_segments":[],"categories_sizes":[],"default_left":[0,0,0,0,0,0,0,0,0,0,0,0,0,0,0,0,0,0,0,0,0,0,0,0,0,0,0,0,0,0,0,0,0,0,0,0,0,0,0,0,0,0,0,0,0,0,0,0,0,0,0],"id":24,"left_children":[1,3,5,7,9,11,13,-1,15,17,19,21,23,25,27,-1,-1,29,31,-1,33,35,37,39,41,43,45,47,49,-1,-1,-1,-1,-1,-1,-1,-1,-1,-1,-1,-1,-1,-1,-1,-1,-1,-1,-1,-1,-1,-1],"loss_changes":[2.3281521E4,5.1622246E3,2.9904316E4,5.554297E1,3.2069531E3,1.5130037E4,9.131937E3,0E0,3.982502E0,4.3720635E3,3.2475146E2,8.355852E3,1.0446928E4,5.543255E3,1.7252285E3,0E0,0E0,1.7916475E3,2.6656973E3,0E0,1.2312918E1,9.791496E3,6.197297E3,2.623586E3,8.0888447E3,5.046786E3,7.7615796E2,9.3379297E2,3.1243975E3,0E0,0E0,0E0,0E0,0E0,0E0,0E0,0E0,0E0,0E0,0E0,0E0,0E0,0E0,0E0,0E0,0E0,0E0,0E0,0E0,0E0,0E0],"parents":[2147483647,0,0,1,1,2,2,3,3,4,4,5,5,6,6,8,8,9,9,10,10,11,11,12,12,13,13,14,14,17,17,18,18,20,20,21,21,22,22,23,23,24,24,25,25,26,26,27,27,28,28],"right_children":[2,4,6,8,10,12,14,-1,16,18,20,22,24,26,28,-1,-1,30,32,-1,34,36,38,40,42,44,46,48,50,-1,-1,-1,-1,-1,-1,-1,-1,-1,-1,-1,-1,-1,-1,-1,-1,-1,-1,-1,-1,-1,-1],"split_conditions":[-1.5625E-2,-7.421875E-2,1.171875E-2,1E1,7.421875E-2,2.75E0,5.46875E-2,-1.04047135E-1,-5E-1,-1.171875E-2,6E1,-1.26953125E-2,4.3E1,1.075E1,5E0,-0E0,-1.3980175E-2,6E0,-2.1972656E-2,-1.09115675E-1,1.875E-1,5.1E1,1.5625E-2,3.75E0,6.75E0,1E0,5.9E1,1E1,5.203125E0,-9.201228E-2,1.0981411E-2,1.948456E-2,-5.9214223E-2,-0E0,2.4752608E-2,4.467493E-2,-8.422121E-2,6.521593E-2,1.0726388E-2,6.690105E-2,-1.2549231E-2,-1.0852255E-1,3.201687E-2,-5.687046E-2,2.378821E-3,-4.989345E-2,1.1279086E-1,-1.0187044E-1,4.8613008E-2,7.9709545E-2,-1.0019175E-1],"split_indices":[8,8,8,7,9,10,8,0,10,9,6,9,3,10,2,0,0,6,8,0,9,3,9,10,10,6,3,7,2,0,0,0,0,0,0,0,0,0,0,0,0,0,0,0,0,0,0,0,0,0,0],"split_type":[0,0,0,0,0,0,0,0,0,0,0,0,0,0,0,0,0,0,0,0,0,0,0,0,0,0,0,0,0,0,0,0,0,0,0,0,0,0,0,0,0,0,0,0,0,0,0,0,0,0,0],"sum_hessian":[3.4416694E5,5.8241105E4,2.8592584E5,1.7774656E4,4.046645E4,1.9966778E5,8.6258055E4,1.7642406E4,1.3225053E2,3.4435484E4,6.0309634E3,1.6219767E5,3.7470117E4,6.082174E4,2.543632E4,2.8484993E1,1.0376554E2,1.1662811E4,2.2772674E4,5.884289E3,1.4667441E2,2.4015965E4,1.381817E5,1.6601254E4,2.0868865E4,5.72084E4,3.6133374E3,2.1744188E4,3.6921335E3,9.855778E3,1.8070328E3,1.7136408E4,5.636264E3,4.571005E1,1.00964355E2,1.4040737E4,9.975228E3,1.1191358E5,2.6268123E4,9.798739E3,6.802514E3,1.5501287E4,5.367577E3,2.6218215E4,3.0990184E4,1.7536902E2,3.4379685E3,2.1469594E4,2.745934E2,1.5685824E3,2.123551E3],"tree_param":{"num_deleted":"0","num_feature":"11","num_nodes":"51","size_leaf_vector":"1"}},{"base_weights":[-7.3544453E-3,-6.894933E-1,8.3614975E-2,-8.162669E-1,-0E0,2.398796E-1,-3.8818362E-1,9.247819E-2,-9.2417353E-1,3.169521E-1,-7.329275E-1,3.874618E-1,-1.0399895E-1,1.6044652E-1,-8.3619183E-1,-1.0943665E-1,5.440852E-1,-1.0204625E0,-3.670711E-1,-1.480696E-1,6.457115E-1,-0E0,-1.1885118E0,-2.634498E-1,5.1386213E-1,-2.983311E-1,5.814412E-1,5.0203735E-1,-6.1354166E-1,-9.0863E-1,9.0849763E-1,-8.854296E-2,7.54827E-2,-5.463024E-2,-1.0506226E-1,-9.052739E-2,1.1252315E-2,5.0141376E-2,-6.86623E-2,7.140398E-2,-3.2387163E-2,2.7184054E-2,-5.9373267E-2,-0E0,-1.2892585E-1,2.4243182E-2,-7.772207E-2,-4.1369896E-2,5.5586576E-2,-4.14274E-2,9.828937E-2,6.2319588E-2,-1.100793E-1,-4.3644127E-2,7.162648E-2,-9.2269234E-2,2.0886226E-2,-1.17874086E-1,-4.917292E-2,1.2185048E-1,-5.263718E-2],"categories":[],"categories_nodes":[],"categories_segments":[],"categories_sizes":[],"default_left":[0,0,0,0,0,0,0,0,0,0,0,0,0,0,0,0,0,0,0,0,0,0,0,0,0,0,0,0,0,0,0,0,0,0,0,0,0,0,0,0,0,0,0,0,0,0,0,0,0,0,0,0,0,0,0,0,0,0,0,0,0],"id":25,"left_children":[1,3,5,7,9,11,13,15,17,19,21,23,25,27,29,-1,31,33,35,37,39,41,43,45,47,49,51,53,55,57,59,-1,-1,-1,-1,-1,-1,-1,-1,-1,-1,-1,-1,-1,-1,-1,-1,-1,-1,-1,-1,-1,-1,-1,-1,-1,-1,-1,-1,-1,-1],"loss_changes":[2.076486E4,3.5149453E3,2.168956E4,3.3648984E3,1.405786E3,1.1262133E4,1.8046867E4,1.899453E3,1.4300723E3,7.3487683E2,5.6042426E2,1.2795539E4,8.823398E3,8.702344E3,5.182508E3,0E0,8.6379016E2,1.4503711E2,1.3083062E3,6.774866E2,2.4322473E2,1.5749283E2,1.480586E2,6.6091904E3,5.1021797E3,7.6864697E3,1.0442681E3,4.669185E3,2.6359778E3,4.149838E3,8.466752E2,0E0,0E0,0E0,0E0,0E0,0E0,0E0,0E0,0E0,0E0,0E0,0E0,0E0,0E0,0E0,0E0,0E0,0E0,0E0,0E0,0E0,0E0,0E0,0E0,0E0,0E0,0E0,0E0,0E0,0E0],"parents":[2147483647,0,0,1,1,2,2,3,3,4,4,5,5,6,6,7,7,8,8,9,9,10,10,11,11,12,12,13,13,14,14,16,16,17,17,18,18,19,19,20,20,21,21,22,22,23,23,24,24,25,25,26,26,27,27,28,28,29,29,30,30],"right_children":[2,4,6,8,10,12,14,16,18,20,22,24,26,28,30,-1,32,34,36,38,40,42,44,46,48,50,52,54,56,58,60,-1,-1,-1,-1,-1,-1,-1,-1,-1,-1,-1,-1,-1,-1,-1,-1,-1,-1,-1,-1,-1,-1,-1,-1,-1,-1,-1,-1,-1,-1],"split_conditions":[-3.9245605E-2,6E0,1.7089844E-2,2.3E1,8.666992E-3,2.25E0,4.7E1,-8.59375E-2,1.5E0,-9.765625E-3,3.1E1,-1.26953125E-2,6E0,7.8125E-2,1.075E1,-1.0943665E-1,-7.8125E-3,-7.5E-1,6E0,1E0,2.5E0,3.125E-2,-1.5E0,5.1E1,0E0,1.475E1,4.671875E0,1.25E0,6E0,1.09375E-1,2.375E0,-8.854296E-2,7.54827E-2,-5.463024E-2,-1.0506226E-1,-9.052739E-2,1.1252315E-2,5.0141376E-2,-6.86623E-2,7.140398E-2,-3.2387163E-2,2.7184054E-2,-5.9373267E-2,-0E0,-1.2892585E-1,2.4243182E-2,-7.772207E-2,-4.1369896E-2,5.5586576E-2,-4.14274E-2,9.828937E-2,6.2319588E-2,-1.100793E-1,-4.3644127E-2,7.162648E-2,-9.2269234E-2,2.0886226E-2,-1.17874086E-1,-4.917292E-2,1.2185048E-1,-5.263718E-2],"split_indices":[9,6,9,3,8,10,3,9,7,8,3,9,6,9,10,0,8,10,4,10,7,8,10,3,10,10,2,10,6,9,2,0,0,0,0,0,0,0,0,0,0,0,0,0,0,0,0,0,0,0,0,0,0,0,0,0,0,0,0,0,0],"split_type":[0,0,0,0,0,0,0,0,0,0,0,0,0,0,0,0,0,0,0,0,0,0,0,0,0,0,0,0,0,0,0,0,0,0,0,0,0,0,0,0,0,0,0,0,0,0,0,0,0,0,0,0,0,0,0,0,0,0,0,0,0],"sum_hessian":[3.3345753E5,3.9288914E4,2.9416862E5,3.3279492E4,6.0094224E3,2.2117444E5,7.299417E4,3.4354158E3,2.9844076E4,4.318827E3,1.6905948E3,1.549519E5,6.622252E4,3.274081E4,4.0253363E4,8.466419E2,2.588774E3,2.522205E4,4.6220264E3,1.6855074E3,2.6333198E3,7.129059E2,9.7768896E2,2.5050773E4,1.2990114E5,5.1752355E4,1.4470171E4,2.2829574E4,9.911234E3,3.8749742E4,1.5036223E3,2.3050903E2,2.358265E3,1.8209556E3,2.3401094E4,2.234364E3,2.387662E3,6.8301733E2,1.0024902E3,2.5809302E3,5.238976E1,4.897733E2,2.2313257E2,7.2772484E1,9.0491644E2,1.2550838E4,1.2499936E4,5.486119E3,1.24415016E5,4.7591348E4,4.161006E3,1.423914E4,2.310305E2,4.136787E3,1.8692787E4,7.282909E3,2.6283254E3,2.325814E4,1.5491601E4,1.3061887E3,1.9743362E2],"tree_param":{"num_deleted":"0","num_feature":"11","num_nodes":"61","size_leaf_vector":"1"}},{"base_weights":[-7.385432E-3,-7.254194E-1,7.400155E-2,-1.0244684E0,-4.5592546E-1,1.520162E-1,-8.5557073E-1,-1.0307183E-1,-0E0,-6.724755E-2,-7.3940086E-1,4.3588806E-2,6.014932E-1,-9.749062E-1,-1.6916154E-1,-0E0,-1.2295962E-2,-7.5888103E-1,2.8510824E-1,1.9186154E-1,-8.05651E-1,-5.720374E-1,1.0191619E-1,6.643307E-1,-7.619637E-2,-1.0044124E0,4.9728826E-1,7.5115764E-1,-9.778765E-2,-0E0,-1.09672E-1,1.0433574E-1,-8.062333E-2,-5.3930618E-2,1.1120939E-1,-8.606349E-2,4.083017E-2,4.558867E-2,-8.269196E-2,2.262806E-2,-3.1831812E-2,7.041916E-2,-2.3124749E-2,1.9775085E-2,-1.374244E-1,-1.03598215E-1,1.593704E-2,-3.8225327E-2,1.6599934E-1,1.6426194E-1,-7.949645E-2],"categories":[],"categories_nodes":[],"categories_segments":[],"categories_sizes":[],"default_left":[0,0,0,0,0,0,0,0,0,0,0,0,0,0,0,0,0,0,0,0,0,0,0,0,0,0,0,0,0,0,0,0,0,0,0,0,0,0,0,0,0,0,0,0,0,0,0,0,0,0,0],"id":26,"left_children":[1,3,5,7,9,11,13,-1,15,17,19,21,23,25,27,-1,-1,29,31,33,35,37,39,41,43,45,47,49,-1,-1,-1,-1,-1,-1,-1,-1,-1,-1,-1,-1,-1,-1,-1,-1,-1,-1,-1,-1,-1,-1,-1],"loss_changes":[1.8958191E4,2.4679336E3,2.0992844E4,6.1789062E1,1.8683462E3,1.2992848E4,1.7031621E3,0E0,3.0372329E0,1.9547988E3,6.997373E2,7.721473E3,2.2737227E3,9.229199E2,2.7466738E3,0E0,0E0,7.9361365E2,4.330883E3,5.553184E2,7.1749365E2,4.9417803E3,1.03305625E4,1.7640938E3,1.6945498E3,7.896328E2,5.7188135E2,2.5094165E3,0E0,0E0,0E0,0E0,0E0,0E0,0E0,0E0,0E0,0E0,0E0,0E0,0E0,0E0,0E0,0E0,0E0,0E0,0E0,0E0,0E0,0E0,0E0],"parents":[2147483647,0,0,1,1,2,2,3,3,4,4,5,5,6,6,8,8,9,9,10,10,11,11,12,12,13,13,14,14,17,17,18,18,19,19,20,20,21,21,22,22,23,23,24,24,25,25,26,26,27,27],"right_children":[2,4,6,8,10,12,14,-1,16,18,20,22,24,26,28,-1,-1,30,32,34,36,38,40,42,44,46,48,50,-1,-1,-1,-1,-1,-1,-1,-1,-1,-1,-1,-1,-1,-1,-1,-1,-1,-1,-1,-1,-1,-1,-1],"split_conditions":[-2.734375E-2,-7.421875E-2,5.46875E-2,1E1,4.3E1,6E0,5E0,-1.0307183E-1,-5E-1,1.1679688E0,5E0,-3.515625E-2,1.953125E-2,1E1,4.3E1,-0E0,-1.2295962E-2,2.3E1,1.7148438E0,-3.125E-2,4.5E0,2.3E1,1.26953125E-2,3.3984375E0,1.7089844E-2,1.475E1,1.5037298E-1,5.203125E0,-9.778765E-2,-0E0,-1.09672E-1,1.0433574E-1,-8.062333E-2,-5.3930618E-2,1.1120939E-1,-8.606349E-2,4.083017E-2,4.558867E-2,-8.269196E-2,2.262806E-2,-3.1831812E-2,7.041916E-2,-2.3124749E-2,1.9775085E-2,-1.374244E-1,-1.03598215E-1,1.593704E-2,-3.8225327E-2,1.6599934E-1,1.6426194E-1,-7.949645E-2],"split_indices":[8,8,8,7,3,6,2,0,10,2,4,9,8,7,3,0,0,3,2,8,7,3,9,2,9,10,9,2,0,0,0,0,0,0,0,0,0,0,0,0,0,0,0,0,0,0,0,0,0,0,0],"split_type":[0,0,0,0,0,0,0,0,0,0,0,0,0,0,0,0,0,0,0,0,0,0,0,0,0,0,0,0,0,0,0,0,0,0,0,0,0,0,0,0,0,0,0,0,0,0,0,0,0,0,0],"sum_hessian":[3.2310547E5,3.2939062E4,2.901664E5,1.5304701E4,1.7634361E4,2.6787603E5,2.2290355E4,1.5176609E4,1.280918E2,7.638109E3,9.996253E3,2.160826E5,5.1793453E4,1.8829111E4,3.4612441E3,2.7204237E1,1.0088756E2,2.6347773E3,5.0033315E3,5.510627E2,9.44519E3,1.847629E4,1.976063E5,4.7535355E4,4.258099E3,1.8556889E4,2.7222366E2,1.5644084E3,1.8968357E3,7.655528E2,1.8692246E3,3.0088506E3,1.9944808E3,2.695884E2,2.8147427E2,9.142573E3,3.026164E2,3.5774507E3,1.4898839E4,1.5270022E5,4.4906086E4,4.563714E4,1.8982147E3,3.5224321E3,7.356671E2,1.8161143E4,3.9574503E2,1.4423381E2,1.27989845E2,1.0293458E3,5.350626E2],"tree_param":{"num_deleted":"0","num_feature":"11","num_nodes":"51","size_leaf_vector":"1"}},{"base_weights":[-7.424003E-3,-5.310366E-1,9.3687564E-2,-1.0175846E0,-3.4270462E-1,2.7441204E-1,-3.332508E-1,-1.0244154E-1,-0E0,-1.8365975E-1,-8.483969E-1,4.0119398E-1,-2.5062996E-1,-1.4944811E-1,-8.40142E-1,-0E0,-1.1726384E-2,-4.0598178E-1,4.6805108E-1,-3.4475046E-1,-1.7635192E-1,4.2620543E-1,-1.5000308E0,2.7951235E-1,-6.701772E-1,-7.4194163E-1,-2.5565732E-2,-9.640679E-1,-1.6223195E-1,-9.434462E-3,-8.081487E-2,1.9046105E-2,2.18635E-1,-1.1552054E-1,-3.1114866E-3,-2.821815E-3,5.077904E-2,-2.0607834E-1,-1.3565733E-2,6.067623E-2,-1.6720591E-2,3.0782342E-2,-1.06181346E-1,-9.7971715E-2,9.317449E-3,7.5990953E-3,-1.06043555E-1,-9.956868E-2,4.4339593E-2,6.612235E-2,-9.621849E-2],"categories":[],"categories_nodes":[],"categories_segments":[],"categories_sizes":[],"default_left":[0,0,0,0,0,0,0,0,0,0,0,0,0,0,0,0,0,0,0,0,0,0,0,0,0,0,0,0,0,0,0,0,0,0,0,0,0,0,0,0,0,0,0,0,0,0,0,0,0,0,0],"id":27,"left_children":[1,3,5,7,9,11,13,-1,15,17,19,21,23,25,27,-1,-1,29,31,33,-1,35,37,39,41,43,45,47,49,-1,-1,-1,-1,-1,-1,-1,-1,-1,-1,-1,-1,-1,-1,-1,-1,-1,-1,-1,-1,-1,-1],"loss_changes":[1.668287E4,4.5047783E3,2.0316072E4,6.2239258E1,2.8639517E3,1.2352092E4,7.172084E3,0E0,2.7516367E0,4.1408223E3,3.7359346E3,7.0588496E3,8.048716E3,4.152066E3,1.605501E3,0E0,0E0,2.585666E3,3.1449653E3,1.3528822E3,0E0,5.5196035E3,1.2133604E3,2.3692795E3,7.841369E3,2.0486167E3,5.142285E3,8.6940234E2,2.3561316E3,0E0,0E0,0E0,0E0,0E0,0E0,0E0,0E0,0E0,0E0,0E0,0E0,0E0,0E0,0E0,0E0,0E0,0E0,0E0,0E0,0E0,0E0],"parents":[2147483647,0,0,1,1,2,2,3,3,4,4,5,5,6,6,8,8,9,9,10,10,11,11,12,12,13,13,14,14,17,17,18,18,19,19,21,21,22,22,23,23,24,24,25,25,26,26,27,27,28,28],"right_children":[2,4,6,8,10,12,14,-1,16,18,20,22,24,26,28,-1,-1,30,32,34,-1,36,38,40,42,44,46,48,50,-1,-1,-1,-1,-1,-1,-1,-1,-1,-1,-1,-1,-1,-1,-1,-1,-1,-1,-1,-1,-1,-1],"split_conditions":[-1.5625E-2,-7.421875E-2,1.171875E-2,1E1,-2.1972656E-2,2.75E0,5.46875E-2,-1.0244154E-1,-5E-1,-2.34375E-2,1.3984375E0,4.671875E0,4.3E1,-2.734375E-2,5E0,-0E0,-1.1726384E-2,6.2E1,7E0,-4.3945312E-3,-1.7635192E-1,-1.26953125E-2,2.5E0,3.75E0,4.4433594E-1,1.5E0,1.171875E-1,1E1,4.3E1,-9.434462E-3,-8.081487E-2,1.9046105E-2,2.18635E-1,-1.1552054E-1,-3.1114866E-3,-2.821815E-3,5.077904E-2,-2.0607834E-1,-1.3565733E-2,6.067623E-2,-1.6720591E-2,3.0782342E-2,-1.06181346E-1,-9.7971715E-2,9.317449E-3,7.5990953E-3,-1.06043555E-1,-9.956868E-2,4.4339593E-2,6.612235E-2,-9.621849E-2],"split_indices":[8,8,8,7,8,10,8,0,10,8,2,2,3,9,2,0,0,3,2,9,0,9,6,10,2,7,9,7,3,0,0,0,0,0,0,0,0,0,0,0,0,0,0,0,0,0,0,0,0,0,0],"split_type":[0,0,0,0,0,0,0,0,0,0,0,0,0,0,0,0,0,0,0,0,0,0,0,0,0,0,0,0,0,0,0,0,0,0,0,0,0,0,0,0,0,0,0,0,0,0,0,0,0,0,0],"sum_hessian":[3.1408825E5,5.0926414E4,2.6316184E5,1.3940477E4,3.6985938E4,1.8508477E5,7.807706E4,1.3813165E4,1.2731153E2,2.839083E4,8.595109E3,1.4925758E5,3.5827195E4,5.753954E4,2.0537521E4,2.7204237E1,1.0010729E2,2.1311766E4,7.0790635E3,5.7032295E3,2.89188E3,1.4744802E5,1.8095616E3,1.57369375E4,2.0090258E4,9.724405E3,4.7815137E4,1.720299E4,3.3345305E3,1.2216991E4,9.094774E3,6.2402383E3,8.38825E2,1.4274463E3,4.275783E3,2.2266207E4,1.25181805E5,1.1943512E3,6.152104E2,9.191557E3,6.545381E3,5.6777495E3,1.4412508E4,7.6489995E3,2.0754058E3,4.353852E4,4.2766147E3,1.6923117E4,2.7987387E2,1.5900746E3,1.7444559E3],"tree_param":{"num_deleted":"0","num_feature":"11","num_nodes":"51","size_leaf_vector":"1"}},{"base_weights":[-7.6996014E-3,-1.0738769E-1,4.7035745E-1,-7.5006914E-1,-2.847092E-2,5.240286E-1,-7.0078003E-1,7.34722E-2,-8.614826E-1,1.2552036E-1,-4.12842E-1,-9.529764E-2,6.2014455E-1,-1.0680922E0,5.4019773E-1,-1.0559448E-1,5.0276405E-1,-9.783786E-1,-2.4746308E-1,3.0238983E-1,-3.0796292E-1,1.2614764E-1,-8.2220924E-1,1.2251514E-1,-1.092027E0,6.3613474E-1,-1.0023402E0,-0E0,-1.096706E-1,6.850779E-1,-0E0,7.109086E-2,-9.221553E-2,-9.9890225E-2,-1.2275672E-2,-7.7383615E-2,3.3121306E-2,-2.2240348E-2,4.5147825E-2,5.3743333E-2,-4.5378875E-2,4.2808965E-2,-8.725248E-2,-9.329807E-2,1.01976804E-1,-7.827851E-2,3.0595107E-2,-0E0,-1.2106609E-1,6.4923055E-2,-1.03007354E-1,-0E0,-1.5639476E-1,-0E0,7.050078E-2],"categories":[],"categories_nodes":[],"categories_segments":[],"categories_sizes":[],"default_left":[0,0,0,0,0,0,0,0,0,0,0,0,0,0,0,0,0,0,0,0,0,0,0,0,0,0,0,0,0,0,0,0,0,0,0,0,0,0,0,0,0,0,0,0,0,0,0,0,0,0,0,0,0,0,0],"id":28,"left_children":[1,3,5,7,9,11,13,15,17,19,21,23,25,27,29,-1,31,33,35,37,39,41,43,45,47,49,51,-1,-1,53,-1,-1,-1,-1,-1,-1,-1,-1,-1,-1,-1,-1,-1,-1,-1,-1,-1,-1,-1,-1,-1,-1,-1,-1,-1],"loss_changes":[1.4531117E4,1.2756736E4,3.3234287E3,2.6117754E3,1.3390743E4,3.0588965E3,1.1428315E3,1.5816063E3,1.6024434E3,1.2352976E4,1.4368122E4,1.56895E3,1.1631426E3,3.218506E1,7.747241E1,0E0,7.8556946E2,2.320918E2,1.3395514E3,8.996397E3,5.75375E3,8.416142E3,7.6200547E3,8.93161E2,1.1425244E2,9.775801E2,3.1105655E2,0E0,0E0,1.1807236E1,0E0,0E0,0E0,0E0,0E0,0E0,0E0,0E0,0E0,0E0,0E0,0E0,0E0,0E0,0E0,0E0,0E0,0E0,0E0,0E0,0E0,0E0,0E0,0E0,0E0],"parents":[2147483647,0,0,1,1,2,2,3,3,4,4,5,5,6,6,7,7,8,8,9,9,10,10,11,11,12,12,13,13,14,14,16,16,17,17,18,18,19,19,20,20,21,21,22,22,23,23,24,24,25,25,26,26,29,29],"right_children":[2,4,6,8,10,12,14,16,18,20,22,24,26,28,30,-1,32,34,36,38,40,42,44,46,48,50,52,-1,-1,54,-1,-1,-1,-1,-1,-1,-1,-1,-1,-1,-1,-1,-1,-1,-1,-1,-1,-1,-1,-1,-1,-1,-1,-1,-1],"split_conditions":[6E0,-3.9245605E-2,3.491211E-2,2.3E1,1.26953125E-2,-1.3671875E-2,2.5E1,-8.59375E-2,1.5E0,2.25E0,4.7E1,1.5E0,4E0,-1.5E0,4.3945312E-2,-1.0559448E-1,1.7148438E0,5E0,2.6367188E-2,-9.765625E-3,1.8164062E-1,7.8125E-2,1.075E1,-5.859375E-2,-1.2109375E-1,6.328125E0,2.919922E-1,-0E0,-1.096706E-1,5.4E1,-0E0,7.109086E-2,-9.221553E-2,-9.9890225E-2,-1.2275672E-2,-7.7383615E-2,3.3121306E-2,-2.2240348E-2,4.5147825E-2,5.3743333E-2,-4.5378875E-2,4.2808965E-2,-8.725248E-2,-9.329807E-2,1.01976804E-1,-7.827851E-2,3.0595107E-2,-0E0,-1.2106609E-1,6.4923055E-2,-1.03007354E-1,-0E0,-1.5639476E-1,-0E0,7.050078E-2],"split_indices":[6,9,8,3,9,8,10,9,7,10,3,7,7,10,8,0,2,6,8,9,2,9,10,8,9,2,2,0,0,3,0,0,0,0,0,0,0,0,0,0,0,0,0,0,0,0,0,0,0,0,0,0,0,0,0],"split_type":[0,0,0,0,0,0,0,0,0,0,0,0,0,0,0,0,0,0,0,0,0,0,0,0,0,0,0,0,0,0,0,0,0,0,0,0,0,0,0,0,0,0,0,0,0,0,0,0,0,0,0,0,0,0,0],"sum_hessian":[3.054687E5,2.5299828E5,5.247041E4,2.7437281E4,2.25561E5,5.0305633E4,2.1647754E3,3.1666528E3,2.4270629E4,1.6090466E5,6.4656344E4,6.6186426E3,4.3686992E4,1.7432968E3,4.214787E2,7.677848E2,2.398868E3,2.020234E4,4.0682878E3,1.1446264E5,4.644201E4,2.7833943E4,3.6822402E4,5.421316E3,1.1973265E3,4.3381875E4,3.051176E2,6.817165E1,1.6751251E3,3.8930627E2,3.2172417E1,2.1980735E3,2.0079445E2,1.9598611E4,6.03728E2,2.203255E3,1.8650328E3,2.516424E4,8.92984E4,6.6920254E3,3.974999E4,2.1492957E4,6.3409863E3,3.483138E4,1.9910253E3,7.6651184E2,4.654804E3,1.6384483E2,1.0334817E3,4.3163676E4,2.1819934E2,1.11539345E2,1.9357828E2,3.5181603E0,3.8578812E2],"tree_param":{"num_deleted":"0","num_feature":"11","num_nodes":"55","size_leaf_vector":"1"}},{"base_weights":[-7.7361967E-3,-4.681688E-1,8.8348895E-2,-1.0075252E0,-2.990915E-1,2.559795E-1,-3.0337664E-1,-1.015706E-1,-0E0,-1.9281425E-1,-1.0306046E0,2.888293E-1,-1.4453678E0,-1.3528854E-1,-8.0646765E-1,-0E0,-7.5270995E-3,-6.5513694E-1,-3.0507995E-2,-1.0734495E-1,-0E0,3.965776E-1,-1.5294687E-1,-5.225392E-1,-1.718403E-1,-2.0387839E-1,9.0694374E-1,