{"learner":{"attributes":{},"feature_names":["CryClu_standaloneWP","CryClu_showerShape","CryClu_isolation","Tk_hitPattern","Tk_nStubs","Tk_chi2Bend","Tk_chi2RPhi","Tk_chi2RZ","dEtaCryClu","dPhiCryClu","dPtCryClu"],"feature_types":["int","float","float","int","int","float","float","float","float","float","float"],"gradient_booster":{"model":{"gbtree_model_param":{"num_parallel_tree":"1","num_trees":"60"},"iteration_indptr":[0,1,2,3,4,5,6,7,8,9,10,11,12,13,14,15,16,17,18,19,20,21,22,23,24,25,26,27,28,29,30,31,32,33,34,35,36,37,38,39,40,41,42,43,44,45,46,47,48,49,50,51,52,53,54,55,56,57,58,59,60],"tree_info":[0,0,0,0,0,0,0,0,0,0,0,0,0,0,0,0,0,0,0,0,0,0,0,0,0,0,0,0,0,0,0,0,0,0,0,0,0,0,0,0,0,0,0,0,0,0,0,0,0,0,0,0,0,0,0,0,0,0,0,0],"trees":[{"base_weights":[-0E0,1.5259703E0,-1.1062942E0,1.7115855E0,-4.1208166E-1,-1.6767622E0,5.27972E-1,-4.522001E-1,1.8688525E0,-1.4290234E0,1.0150573E0,-1.8686137E-1,-8.949536E-1,-6.638296E-1,1.0558977E0,-1.2756729E0,6.181727E-1,-0E0,1.9130065E0,-0E0,-1.4492773E0,1.1006712E0,-0E0,-1.5621009E0,7.1097684E-1,-8.6666495E-1,-0E0,1.244878E0,-7.697877E-1,-0E0,-1.2961349E-1,-0E0,9.730433E-2,-0E0,-3.1114727E-2,1.9254102E-1,-0E0,-1.4620583E-1,-0E0,-0E0,1.1602076E-1,-0E0,-1.6241983E-1,1.11901484E-1,-1.2932372E-2,-0E0,-9.1688894E-2,2.0877592E-2,-3.760245E-2,-3.9839264E-2,1.4017741E-1,-9.611968E-2,-0E0],"categories":[],"categories_nodes":[],"categories_segments":[],"categories_sizes":[],"default_left":[0,0,0,0,0,0,0,0,0,0,0,0,0,0,0,0,0,0,0,0,0,0,0,0,0,0,0,0,0,0,0,0,0,0,0,0,0,0,0,0,0,0,0,0,0,0,0,0,0,0,0,0,0],"id":0,"left_children":[1,3,5,7,9,11,13,15,17,19,21,-1,23,25,27,29,31,33,35,-1,37,39,-1,41,43,45,47,49,51,-1,-1,-1,-1,-1,-1,-1,-1,-1,-1,-1,-1,-1,-1,-1,-1,-1,-1,-1,-1,-1,-1,-1,-1],"loss_changes":[5.7515836E4,5.3514727E3,1.8617123E4,4.695551E3,2.0514377E3,1.7627422E3,3.3440442E3,9.6199335E2,1.1613359E3,3.2529663E1,8.0328125E1,0E0,3.6171821E3,2.042536E2,1.4059968E3,6.6308594E0,1.8823457E2,2.1443886E1,4.0048828E2,0E0,4.629883E0,4.698108E1,0E0,1.1440967E2,4.4324728E2,4.2720947E1,4.7344574E1,1.0338745E3,8.371004E1,0E0,0E0,0E0,0E0,0E0,0E0,0E0,0E0,0E0,0E0,0E0,0E0,0E0,0E0,0E0,0E0,0E0,0E0,0E0,0E0,0E0,0E0,0E0,0E0],"parents":[2147483647,0,0,1,1,2,2,3,3,4,4,5,5,6,6,7,7,8,8,9,9,10,10,12,12,13,13,14,14,15,15,16,16,17,17,18,18,20,20,21,21,23,23,24,24,25,25,26,26,27,27,28,28],"right_children":[2,4,6,8,10,12,14,16,18,20,22,-1,24,26,28,30,32,34,36,-1,38,40,-1,42,44,46,48,50,52,-1,-1,-1,-1,-1,-1,-1,-1,-1,-1,-1,-1,-1,-1,-1,-1,-1,-1,-1,-1,-1,-1,-1,-1],"split_conditions":[1.0083008E-1,3.125E-2,-8E0,-3.90625E-2,2.5E0,9.787234E-1,1E0,2.5E0,9.4666666E-1,5E0,3.90625E-2,-1.8686137E-1,5E0,5E0,1.975E1,1.3000488E-2,9.1752577E-1,9.765625E-3,3.0273438E-2,-0E0,2E0,-1.953125E-2,-0E0,1.22802734E-1,2.8222656E-1,1.9482422E-1,2.734375E-2,-2.6367188E-2,9.834711E-1,-0E0,-1.2961349E-1,-0E0,9.730433E-2,-0E0,-3.1114727E-2,1.9254102E-1,-0E0,-1.4620583E-1,-0E0,-0E0,1.1602076E-1,-0E0,-1.6241983E-1,1.11901484E-1,-1.2932372E-2,-0E0,-9.1688894E-2,2.0877592E-2,-3.760245E-2,-3.9839264E-2,1.4017741E-1,-9.611968E-2,-0E0],"split_indices":[2,9,10,9,6,1,0,6,1,4,8,0,6,6,10,2,1,8,8,0,6,8,0,2,2,2,9,9,1,0,0,0,0,0,0,0,0,0,0,0,0,0,0,0,0,0,0,0,0,0,0,0,0],"split_type":[0,0,0,0,0,0,0,0,0,0,0,0,0,0,0,0,0,0,0,0,0,0,0,0,0,0,0,0,0,0,0,0,0,0,0,0,0,0,0,0,0,0,0,0,0,0,0,0,0,0,0,0,0],"sum_hessian":[3.386989E4,1.4218972E4,1.9650918E4,1.3033941E4,1.1850306E3,1.4609734E4,5.0411836E3,8.273468E2,1.2206595E4,7.32797E2,4.522336E2,1.1516685E4,3.0930496E3,1.4815023E3,3.5596814E3,5.095661E2,3.177807E2,2.441995E2,1.19623955E4,7.626994E0,7.2517E2,4.359716E2,1.6262045E1,2.2311624E3,8.618872E2,1.0997924E3,3.8170993E2,3.3042397E3,2.5544145E2,1.5147285E1,4.944188E2,5.0354206E1,2.6742648E2,1.2270063E2,1.2149887E2,1.1915513E4,4.6882534E1,7.1297205E2,1.2197955E1,1.8693665E1,4.1727792E2,1.3147554E2,2.0996868E3,6.379462E2,2.2394098E2,7.70241E1,1.02276825E3,2.5688602E2,1.248239E2,2.1902014E2,3.0852197E3,2.185792E2,3.6862263E1],"tree_param":{"num_deleted":"0","num_feature":"11","num_nodes":"53","size_leaf_vector":"1"}},{"base_weights":[-0E0,1.3834089E0,-1.0068814E0,-1.0484291E0,1.5052544E0,-1.4989421E0,5.5896413E-1,-1.3181548E0,-0E0,1.6023772E0,-1.1695361E0,-1.6926919E-1,-7.6655483E-1,-6.1106104E-1,9.7169584E-1,-1.3658582E0,-0E0,-5.4396953E-2,1.6737453E0,-1.2540174E0,-0E0,-1.4034091E0,6.904098E-1,2.7644834E-1,-8.7884223E-1,1.1584952E0,-8.677886E-1,-1.3682106E-1,-0E0,-8.8383906E-2,7.466537E-2,1.722357E-1,-3.1755507E-2,-1.2656127E-1,-0E0,-0E0,-1.468936E-1,1.0309347E-1,-2.8169861E-2,3.680648E-2,-0E0,-8.8932395E-2,-0E0,-7.467746E-2,1.3405022E-1,-0E0,-9.555438E-2],"categories":[],"categories_nodes":[],"categories_segments":[],"categories_sizes":[],"default_left":[0,0,0,0,0,0,0,0,0,0,0,0,0,0,0,0,0,0,0,0,0,0,0,0,0,0,0,0,0,0,0,0,0,0,0,0,0,0,0,0,0,0,0,0,0,0,0],"id":1,"left_children":[1,3,5,7,9,11,13,15,-1,17,19,-1,21,23,25,27,-1,29,31,33,-1,35,37,39,41,43,45,-1,-1,-1,-1,-1,-1,-1,-1,-1,-1,-1,-1,-1,-1,-1,-1,-1,-1,-1,-1],"loss_changes":[4.707598E4,4.41433E3,1.5285535E4,2.9044714E2,3.7671504E3,1.7521523E3,2.371211E3,5.8614746E1,0E0,1.7335234E3,7.676703E1,0E0,3.348753E3,3.7616986E2,1.3616448E3,1.6190186E0,0E0,4.682069E2,1.4274141E3,7.2404785E0,0E0,1.4812793E2,4.5546985E2,1.4669266E1,2.7167969E0,1.3201831E3,2.8755508E1,0E0,0E0,0E0,0E0,0E0,0E0,0E0,0E0,0E0,0E0,0E0,0E0,0E0,0E0,0E0,0E0,0E0,0E0,0E0,0E0],"parents":[2147483647,0,0,1,1,2,2,3,3,4,4,5,5,6,6,7,7,9,9,10,10,12,12,13,13,14,14,15,15,17,17,18,18,19,19,21,21,22,22,23,23,24,24,25,25,26,26],"right_children":[2,4,6,8,10,12,14,16,-1,18,20,-1,22,24,26,28,-1,30,32,34,-1,36,38,40,42,44,46,-1,-1,-1,-1,-1,-1,-1,-1,-1,-1,-1,-1,-1,-1,-1,-1,-1,-1,-1,-1],"split_conditions":[1.0083008E-1,1E0,-6E0,-1.1E1,2.734375E-2,9.787234E-1,9.62963E-1,2E1,-0E0,-5.078125E-2,6E0,-1.6926919E-1,5E0,1.8164062E-1,2.5390625E-2,9.574468E-1,-0E0,2.5E0,8.59375E-2,5E-1,-0E0,1.22802734E-1,3.6816406E-1,1.953125E-2,5E0,-2.34375E-2,3.0273438E-2,-1.3682106E-1,-0E0,-8.8383906E-2,7.466537E-2,1.722357E-1,-3.1755507E-2,-1.2656127E-1,-0E0,-0E0,-1.468936E-1,1.0309347E-1,-2.8169861E-2,3.680648E-2,-0E0,-8.8932395E-2,-0E0,-7.467746E-2,1.3405022E-1,-0E0,-9.555438E-2],"split_indices":[2,0,10,10,8,1,1,6,0,9,6,0,6,2,8,1,0,6,9,10,0,2,2,9,5,8,8,0,0,0,0,0,0,0,0,0,0,0,0,0,0,0,0,0,0,0,0],"split_type":[0,0,0,0,0,0,0,0,0,0,0,0,0,0,0,0,0,0,0,0,0,0,0,0,0,0,0,0,0,0,0,0,0,0,0,0,0,0,0,0,0,0,0,0,0,0,0],"sum_hessian":[3.361892E4,1.4110972E4,1.9507951E4,5.978422E2,1.3513129E4,1.4895298E4,4.612653E3,5.086321E2,8.921011E1,1.3114418E4,3.9871075E2,1.1567506E4,3.3277922E3,1.1271189E3,3.485534E3,4.982802E2,1.0351917E1,4.847103E2,1.2629708E4,3.82596E2,1.6114727E1,2.365931E3,9.618613E2,1.7394284E2,9.53176E2,3.2471682E3,2.3836574E2,4.9708957E2,1.1906238E0,2.943887E2,1.903216E2,1.2390944E4,2.3876346E2,3.78314E2,4.2820396E0,1.4644708E2,2.219484E3,7.840353E2,1.7782605E2,1.6282236E2,1.1120492E1,9.3193164E2,2.1244402E1,2.0818042E2,3.0389878E3,2.7802345E1,2.1056339E2],"tree_param":{"num_deleted":"0","num_feature":"11","num_nodes":"47","size_leaf_vector":"1"}},{"base_weights":[-2.0875635E-3,1.2700624E0,-9.269553E-1,1.4314542E0,-3.7576362E-1,-1.3913728E0,4.7301507E-1,-3.8707152E-1,1.5676413E0,-1.2582836E0,8.3932036E-1,-1.6244192E-1,-8.716872E-1,-4.9590123E-1,8.9910644E-1,-1.1084735E0,5.1265645E-1,-0E0,1.606266E0,-0E0,-1.2766953E-1,9.171225E-1,-0E0,-1.3576059E0,1.4822507E-1,-7.900155E-2,-1.0073922E0,1.1283003E0,-4.075106E-1,-0E0,-1.1266507E-1,-0E0,8.3642624E-2,-0E0,-2.764794E-2,1.6171454E-1,-0E0,-0E0,9.710894E-2,-0E0,-1.4126103E-1,1.0869815E-1,-4.8286345E-2,-8.020676E-2,1.5689513E-2,-1.012069E-1,-0E0,-4.998922E-2,1.24925934E-1,-7.145094E-2,-0E0],"categories":[],"categories_nodes":[],"categories_segments":[],"categories_sizes":[],"default_left":[0,0,0,0,0,0,0,0,0,0,0,0,0,0,0,0,0,0,0,0,0,0,0,0,0,0,0,0,0,0,0,0,0,0,0,0,0,0,0,0,0,0,0,0,0,0,0,0,0,0,0],"id":2,"left_children":[1,3,5,7,9,11,13,15,17,19,21,-1,23,25,27,29,31,33,35,-1,-1,37,-1,39,41,43,45,47,49,-1,-1,-1,-1,-1,-1,-1,-1,-1,-1,-1,-1,-1,-1,-1,-1,-1,-1,-1,-1,-1,-1],"loss_changes":[3.900263E4,3.8572441E3,1.2677949E4,3.3375E3,1.5062909E3,1.3696289E3,2.0739543E3,7.1202783E2,8.363574E2,2.5964233E1,6.0911865E1,0E0,2.5446736E3,1.9565903E2,1.1522849E3,5.3235474E0,1.4624461E2,1.6872986E1,2.9889258E2,0E0,0E0,3.63584E1,0E0,1.8367676E2,1.0541572E3,2.51592E2,2.4836426E0,7.340896E2,1.0460346E2,0E0,0E0,0E0,0E0,0E0,0E0,0E0,0E0,0E0,0E0,0E0,0E0,0E0,0E0,0E0,0E0,0E0,0E0,0E0,0E0,0E0,0E0],"parents":[2147483647,0,0,1,1,2,2,3,3,4,4,5,5,6,6,7,7,8,8,9,9,10,10,12,12,13,13,14,14,15,15,16,16,17,17,18,18,21,21,23,23,24,24,25,25,26,26,27,27,28,28],"right_children":[2,4,6,8,10,12,14,16,18,20,22,-1,24,26,28,30,32,34,36,-1,-1,38,-1,40,42,44,46,48,50,-1,-1,-1,-1,-1,-1,-1,-1,-1,-1,-1,-1,-1,-1,-1,-1,-1,-1,-1,-1,-1,-1],"split_conditions":[1.0083008E-1,3.125E-2,-6.75E0,-3.90625E-2,2.5E0,9.62963E-1,1E0,2.5E0,9.4666666E-1,5E0,3.90625E-2,-1.6244192E-1,5E0,1.5625E-2,5.5E0,1.3000488E-2,9.1752577E-1,9.765625E-3,3.90625E-2,-0E0,-1.2766953E-1,-1.953125E-2,-0E0,1.2109375E-1,1.9042969E-1,-1.5625E-2,2E2,-2.34375E-2,9.849624E-1,-0E0,-1.1266507E-1,-0E0,8.3642624E-2,-0E0,-2.764794E-2,1.6171454E-1,-0E0,-0E0,9.710894E-2,-0E0,-1.4126103E-1,1.0869815E-1,-4.8286345E-2,-8.020676E-2,1.5689513E-2,-1.012069E-1,-0E0,-4.998922E-2,1.24925934E-1,-7.145094E-2,-0E0],"split_indices":[2,9,10,9,6,1,0,6,1,4,8,0,6,9,10,2,1,8,8,0,0,8,0,2,2,9,6,8,1,0,0,0,0,0,0,0,0,0,0,0,0,0,0,0,0,0,0,0,0,0,0],"split_type":[0,0,0,0,0,0,0,0,0,0,0,0,0,0,0,0,0,0,0,0,0,0,0,0,0,0,0,0,0,0,0,0,0,0,0,0,0,0,0,0,0,0,0,0,0,0,0,0,0,0,0],"sum_hessian":[3.297852E4,1.3821576E4,1.9156941E4,1.265445E4,1.1671257E3,1.4439062E4,4.717881E3,8.176569E2,1.1836794E4,7.2169763E2,4.4542804E2,9.689104E3,4.749958E3,1.3643419E3,3.3535388E3,5.0260883E2,3.1504807E2,2.430126E2,1.1593781E4,7.5997596E0,7.1409784E2,4.29231E2,1.619707E1,3.2611702E3,1.4887878E3,9.2299274E2,4.4134915E2,2.9298025E3,4.237362E2,1.5093927E1,4.875149E2,5.0092495E1,2.6495557E2,1.2228006E2,1.20732544E2,1.1551263E4,4.2518555E1,1.863252E1,4.1059845E2,1.646123E2,3.0965579E3,6.331629E2,8.5562494E2,2.7228778E2,6.5070496E2,4.3878238E2,2.5667565E0,1.2377028E2,2.8060322E3,2.752571E2,1.4847911E2],"tree_param":{"num_deleted":"0","num_feature":"11","num_nodes":"51","size_leaf_vector":"1"}},{"base_weights":[-4.1640624E-3,1.1046731E0,-9.200655E-1,-1.1143949E0,1.2786407E0,-1.3106095E0,4.08358E-1,-1.3184044E0,-0E0,1.3680624E0,-1.0547606E0,-1.4724691E-1,-7.0257133E-1,7.4276096E-1,-6.4922553E-1,-1.3526852E0,-0E0,-7.82065E-1,1.4218056E0,-1.1338223E0,-0E0,-1.2194086E0,5.086581E-1,1.1994172E0,-0E0,-8.848615E-1,-0E0,-0E0,-1.3561168E-1,-8.672672E-2,-0E0,-6.0506012E-2,1.46284E-1,-1.1502766E-1,-0E0,-0E0,-1.2439513E-1,8.45073E-2,-2.326916E-2,1.2800388E-1,-0E0,-6.301089E-2,3.8223736E-2,-1.10886194E-1,-0E0],"categories":[],"categories_nodes":[],"categories_segments":[],"categories_sizes":[],"default_left":[0,0,0,0,0,0,0,0,0,0,0,0,0,0,0,0,0,0,0,0,0,0,0,0,0,0,0,0,0,0,0,0,0,0,0,0,0,0,0,0,0,0,0,0,0],"id":3,"left_children":[1,3,5,7,9,11,13,15,-1,17,19,-1,21,23,25,27,-1,29,31,33,-1,35,37,39,41,43,-1,-1,-1,-1,-1,-1,-1,-1,-1,-1,-1,-1,-1,-1,-1,-1,-1,-1,-1],"loss_changes":[3.2749275E4,5.774328E3,9.33641E3,3.4974207E2,3.0085332E3,1.0347461E3,1.4876772E3,6.659094E1,0E0,1.6959375E3,6.74859E1,0E0,2.1470664E3,1.0904948E3,1.4776846E2,2.5601807E0,0E0,3.8634064E1,1.2489043E3,1.075946E1,0E0,5.8675293E1,3.2404242E2,2.9089453E2,3.4108554E2,5.5987915E1,0E0,0E0,0E0,0E0,0E0,0E0,0E0,0E0,0E0,0E0,0E0,0E0,0E0,0E0,0E0,0E0,0E0,0E0,0E0],"parents":[2147483647,0,0,1,1,2,2,3,3,4,4,5,5,6,6,7,7,9,9,10,10,12,12,13,13,14,14,15,15,17,17,18,18,19,19,21,21,22,22,23,23,24,24,25,25],"right_children":[2,4,6,8,10,12,14,16,-1,18,20,-1,22,24,26,28,-1,30,32,34,-1,36,38,40,42,44,-1,-1,-1,-1,-1,-1,-1,-1,-1,-1,-1,-1,-1,-1,-1,-1,-1,-1,-1],"split_conditions":[1.1401367E-1,1E0,-5E0,-1.1E1,2.734375E-2,9.787234E-1,3.75E0,2E1,-0E0,-2.34375E-2,6E0,-1.4724691E-1,5E0,3.3789062E-1,9.849624E-1,1.1169434E-2,-0E0,3.5E1,-8.225E1,2.5E-1,-0E0,1.22802734E-1,3.6816406E-1,3.125E-2,-5E-1,5.4E1,-0E0,-0E0,-1.3561168E-1,-8.672672E-2,-0E0,-6.0506012E-2,1.46284E-1,-1.1502766E-1,-0E0,-0E0,-1.2439513E-1,8.45073E-2,-2.326916E-2,1.2800388E-1,-0E0,-6.301089E-2,3.8223736E-2,-1.10886194E-1,-0E0],"split_indices":[2,0,10,10,8,1,10,6,0,8,6,0,6,2,1,2,0,6,10,10,0,2,2,9,10,3,0,0,0,0,0,0,0,0,0,0,0,0,0,0,0,0,0,0,0],"split_type":[0,0,0,0,0,0,0,0,0,0,0,0,0,0,0,0,0,0,0,0,0,0,0,0,0,0,0,0,0,0,0,0,0,0,0,0,0,0,0,0,0,0,0,0,0],"sum_hessian":[3.2064795E4,1.4445971E4,1.7618824E4,9.6909894E2,1.3476872E4,1.3675094E4,3.9437305E3,8.65044E2,1.0405493E2,1.3060584E4,4.1628738E2,1.0557941E4,3.1171523E3,3.0907676E3,8.529629E2,8.531435E2,1.1900536E1,2.4007137E2,1.2820513E4,3.992917E2,1.6995676E1,2.2422563E3,8.74896E2,1.8816615E3,1.2091061E3,6.017247E2,2.5123819E2,3.4254594E0,8.49718E2,2.2789961E2,1.2171748E1,1.787703E2,1.2641742E4,3.9324133E2,6.0503616E0,5.3593273E1,2.188663E3,6.849655E2,1.899305E2,1.817435E3,6.422647E1,4.3882196E2,7.702841E2,3.9238516E2,2.0933952E2],"tree_param":{"num_deleted":"0","num_feature":"11","num_nodes":"45","size_leaf_vector":"1"}},{"base_weights":[-6.745488E-3,1.1024379E0,-8.05643E-1,1.2649595E0,-3.0799E-1,-1.237267E0,3.4096873E-1,-9.2612374E-1,1.3480008E0,-9.7253335E-1,4.1219395E-1,-1.4390789E-1,-7.7817273E-1,-5.159731E-1,7.426569E-1,-9.905139E-1,-0E0,-5.861486E-1,1.3923353E0,-1.1327366E0,-0E0,6.206231E-1,-0E0,-1.2011011E0,8.296232E-2,-7.4078673E-1,-0E0,8.818574E-1,-7.6826143E-1,-1.0158106E-1,-0E0,-6.5712504E-2,-0E0,-0E0,1.4175521E-1,-0E0,-1.1457612E-1,8.389567E-2,-0E0,-2.7713992E-4,-0E0,-0E0,-1.2420248E-1,9.1144055E-2,-4.3362822E-2,-0E0,-7.882854E-2,1.2150674E-2,-3.198897E-2,-5.775529E-2,1.0577897E-1,-7.777601E-2,-0E0],"categories":[],"categories_nodes":[],"categories_segments":[],"categories_sizes":[],"default_left":[0,0,0,0,0,0,0,0,0,0,0,0,0,0,0,0,0,0,0,0,0,0,0,0,0,0,0,0,0,0,0,0,0,0,0,0,0,0,0,0,0,0,0,0,0,0,0,0,0,0,0,0,0],"id":4,"left_children":[1,3,5,7,9,11,13,15,17,19,21,-1,23,25,27,29,-1,31,33,35,-1,37,39,41,43,45,47,49,51,-1,-1,-1,-1,-1,-1,-1,-1,-1,-1,-1,-1,-1,-1,-1,-1,-1,-1,-1,-1,-1,-1,-1,-1],"loss_changes":[2.7600426E4,3.1152725E3,9.128013E3,2.3036133E3,7.471771E2,8.977344E2,1.7774026E3,4.369052E1,1.1396504E3,2.115802E2,1.1348111E2,0E0,1.7343127E3,1.666366E2,8.184728E2,1.4507874E1,0E0,2.088359E1,3.893496E2,1.780194E1,0E0,1.5950446E2,1.2344721E-3,7.079443E1,7.1814197E2,4.618396E1,3.1582747E1,9.630962E2,3.6123047E0,0E0,0E0,0E0,0E0,0E0,0E0,0E0,0E0,0E0,0E0,0E0,0E0,0E0,0E0,0E0,0E0,0E0,0E0,0E0,0E0,0E0,0E0,0E0,0E0],"parents":[2147483647,0,0,1,1,2,2,3,3,4,4,5,5,6,6,7,7,8,8,9,9,10,10,12,12,13,13,14,14,15,15,17,17,18,18,19,19,21,21,22,22,23,23,24,24,25,25,26,26,27,27,28,28],"right_children":[2,4,6,8,10,12,14,16,18,20,22,-1,24,26,28,30,-1,32,34,36,-1,38,40,42,44,46,48,50,52,-1,-1,-1,-1,-1,-1,-1,-1,-1,-1,-1,-1,-1,-1,-1,-1,-1,-1,-1,-1,-1,-1,-1,-1],"split_conditions":[1.0083008E-1,1.26953125E-2,-8.25E0,-2.34375E-2,-2.15E1,9.62963E-1,1E0,3.5E1,-8.225E1,2E1,3.0273438E-2,-1.4390789E-1,5E0,3E0,2.5390625E-2,2.5E0,-0E0,1.5E0,9.4666666E-1,1.3183594E-2,-0E0,2.65E1,1E1,1.2109375E-1,1.9042969E-1,1.8164062E-1,2.734375E-2,-2.2460938E-2,2.65E1,-1.0158106E-1,-0E0,-6.5712504E-2,-0E0,-0E0,1.4175521E-1,-0E0,-1.1457612E-1,8.389567E-2,-0E0,-2.7713992E-4,-0E0,-0E0,-1.2420248E-1,9.1144055E-2,-4.3362822E-2,-0E0,-7.882854E-2,1.2150674E-2,-3.198897E-2,-5.775529E-2,1.0577897E-1,-7.777601E-2,-0E0],"split_indices":[2,8,10,8,10,1,0,6,10,6,8,0,6,6,8,7,0,6,1,8,0,10,6,2,2,2,9,8,10,0,0,0,0,0,0,0,0,0,0,0,0,0,0,0,0,0,0,0,0,0,0,0,0],"split_type":[0,0,0,0,0,0,0,0,0,0,0,0,0,0,0,0,0,0,0,0,0,0,0,0,0,0,0,0,0,0,0,0,0,0,0,0,0,0,0,0,0,0,0,0,0,0,0,0,0,0,0,0,0],"sum_hessian":[3.0980629E4,1.2903014E4,1.8077615E4,1.1642661E4,1.260353E3,1.3191274E4,4.886341E3,3.4409467E2,1.1298566E4,7.094907E2,5.508623E2,8.863649E3,4.327625E3,1.47093E3,3.4154106E3,3.3276434E2,1.1330324E1,1.7525275E2,1.1123313E4,6.616082E2,4.7882458E1,4.817258E2,6.913649E1,2.9536494E3,1.3739757E3,9.6577954E2,5.051505E2,3.2260176E3,1.8939296E2,3.2553833E2,7.226024E0,1.6736612E2,7.886636E0,2.019924E2,1.0921321E4,3.6564744E0,6.579518E2,4.4496057E2,3.6765232E1,6.0724857E1,8.411632E0,1.5202295E2,2.8016265E3,5.7268286E2,8.0129285E2,5.0245968E1,9.1553357E2,3.6336606E2,1.4178445E2,2.6135117E2,2.9646665E3,1.8833919E2,1.0537735E0],"tree_param":{"num_deleted":"0","num_feature":"11","num_nodes":"53","size_leaf_vector":"1"}},{"base_weights":[-9.396013E-3,9.683555E-1,-8.099295E-1,-9.769104E-1,1.125946E0,-1.163208E0,3.3031058E-1,-1.1734431E0,-0E0,1.2094772E0,-9.337322E-1,-1.3173519E-1,-6.0118234E-1,6.40395E-1,-6.1380905E-1,-1.2077459E0,-0E0,-3.6297622E-1,1.2733951E0,-1.0112132E0,-0E0,-1.0679245E0,4.3210506E-1,-6.0862154E-1,8.473489E-1,-8.2333136E-1,-0E0,-0E0,-1.21105194E-1,-6.603109E-2,-0E0,-5.351202E-2,1.3139795E-1,-1.02572404E-1,-0E0,-0E0,-1.0903924E-1,7.443756E-2,-2.0087209E-2,-8.258484E-2,-0E0,1.1159046E-1,-4.0663254E-2,-1.028155E-1,-0E0],"categories":[],"categories_nodes":[],"categories_segments":[],"categories_sizes":[],"default_left":[0,0,0,0,0,0,0,0,0,0,0,0,0,0,0,0,0,0,0,0,0,0,0,0,0,0,0,0,0,0,0,0,0,0,0,0,0,0,0,0,0,0,0,0,0],"id":5,"left_children":[1,3,5,7,9,11,13,15,-1,17,19,-1,21,23,25,27,-1,29,31,33,-1,35,37,39,41,43,-1,-1,-1,-1,-1,-1,-1,-1,-1,-1,-1,-1,-1,-1,-1,-1,-1,-1,-1],"loss_changes":[2.3452408E4,4.245504E3,6.7848E3,2.8585803E2,2.2959678E3,8.3069727E2,1.1906143E3,5.7120117E1,0E0,1.3564492E3,5.7718903E1,0E0,1.5858866E3,8.721543E2,1.1490167E2,2.19104E0,0E0,1.0570024E2,1.0098633E3,8.628357E0,0E0,4.3384277E1,2.5844617E2,8.490402E1,1.0439403E3,4.2993927E1,0E0,0E0,0E0,0E0,0E0,0E0,0E0,0E0,0E0,0E0,0E0,0E0,0E0,0E0,0E0,0E0,0E0,0E0,0E0],"parents":[2147483647,0,0,1,1,2,2,3,3,4,4,5,5,6,6,7,7,9,9,10,10,12,12,13,13,14,14,15,15,17,17,18,18,19,19,21,21,22,22,23,23,24,24,25,25],"right_children":[2,4,6,8,10,12,14,16,-1,18,20,-1,22,24,26,28,-1,30,32,34,-1,36,38,40,42,44,-1,-1,-1,-1,-1,-1,-1,-1,-1,-1,-1,-1,-1,-1,-1,-1,-1,-1,-1],"split_conditions":[1.1401367E-1,1E0,-5E0,-1.1E1,2.734375E-2,9.787234E-1,3.75E0,2E1,-0E0,-1.953125E-2,6E0,-1.3173519E-1,5E0,-1.5625E-2,9.849624E-1,1.1169434E-2,-0E0,-9E0,-8.225E1,5E-1,-0E0,1.22802734E-1,3.6816406E-1,5E0,1.5625E-2,5.4E1,-0E0,-0E0,-1.21105194E-1,-6.603109E-2,-0E0,-5.351202E-2,1.3139795E-1,-1.02572404E-1,-0E0,-0E0,-1.0903924E-1,7.443756E-2,-2.0087209E-2,-8.258484E-2,-0E0,1.1159046E-1,-4.0663254E-2,-1.028155E-1,-0E0],"split_indices":[2,0,10,10,8,1,10,6,0,8,6,0,6,9,1,2,0,10,10,10,0,2,2,6,9,3,0,0,0,0,0,0,0,0,0,0,0,0,0,0,0,0,0,0,0],"split_type":[0,0,0,0,0,0,0,0,0,0,0,0,0,0,0,0,0,0,0,0,0,0,0,0,0,0,0,0,0,0,0,0,0,0,0,0,0,0,0,0,0,0,0,0,0],"sum_hessian":[2.9782639E4,1.3341628E4,1.644101E4,9.1332056E2,1.2428308E4,1.2617454E4,3.823556E3,8.099152E2,1.0340539E2,1.2030245E4,3.9806226E2,9.656653E3,2.960801E3,2.9821836E3,8.4137244E2,7.9812134E2,1.1793878E1,3.9052402E2,1.1639721E4,3.8110742E2,1.6954834E1,2.1038884E3,8.569126E2,3.2762186E2,2.6545618E3,5.9271606E2,2.4865633E2,3.4029553E0,7.947184E2,2.9065036E2,9.987367E1,1.7464508E2,1.1465076E4,3.7579227E2,5.315141E0,5.3398357E1,2.05049E3,6.678316E2,1.89081E2,2.5673703E2,7.088483E1,2.2610803E3,3.9348132E2,3.8488058E2,2.0783553E2],"tree_param":{"num_deleted":"0","num_feature":"11","num_nodes":"45","size_leaf_vector":"1"}},{"base_weights":[-1.218185E-2,9.7872573E-1,-7.1691597E-1,1.1296711E0,-3.6526778E-1,-1.1174344E0,2.6329705E-1,-3.8388807E-1,1.2585256E0,-1.0365769E0,6.734668E-1,-1.3118552E-1,-6.841462E-1,-4.7949716E-1,6.301247E-1,-9.540464E-2,2.9969418E-1,-0E0,1.2942473E0,-1.100303E0,-0E0,8.110553E-1,-0E0,-1.1374079E0,-0E0,-6.4735234E-1,-0E0,8.09536E-1,-3.475616E-1,-0E0,5.6040395E-2,-0E0,-1.9505335E-2,1.3093229E-1,-0E0,-0E0,-1.1145301E-1,-0E0,8.135851E-2,-1.1382564E-1,-0E0,-9.337457E-2,5.11747E-2,-0E0,-6.805558E-2,1.526939E-2,-1.6312538E-2,9.6174456E-2,-4.1763704E-2,-5.984005E-2,-0E0],"categories":[],"categories_nodes":[],"categories_segments":[],"categories_sizes":[],"default_left":[0,0,0,0,0,0,0,0,0,0,0,0,0,0,0,0,0,0,0,0,0,0,0,0,0,0,0,0,0,0,0,0,0,0,0,0,0,0,0,0,0,0,0,0,0,0,0,0,0,0,0],"id":6,"left_children":[1,3,5,7,9,11,13,15,17,19,21,-1,23,25,27,-1,29,31,33,35,-1,37,-1,39,41,43,45,47,49,-1,-1,-1,-1,-1,-1,-1,-1,-1,-1,-1,-1,-1,-1,-1,-1,-1,-1,-1,-1,-1,-1],"loss_changes":[2.0021027E4,2.526336E3,6.723838E3,2.235331E3,9.4811304E2,7.251113E2,1.3781614E3,4.2934055E2,5.2119727E2,3.5706543E1,4.5659363E1,0E0,1.3582437E3,1.3977005E2,6.7210864E2,0E0,7.20917E1,8.151871E0,2.775371E2,1.545813E1,0E0,9.173889E-1,0E0,2.3649902E0,8.112556E2,1.7514801E1,1.42819E1,6.54182E2,6.912506E1,0E0,0E0,0E0,0E0,0E0,0E0,0E0,0E0,0E0,0E0,0E0,0E0,0E0,0E0,0E0,0E0,0E0,0E0,0E0,0E0,0E0,0E0],"parents":[2147483647,0,0,1,1,2,2,3,3,4,4,5,5,6,6,7,7,8,8,9,9,10,10,12,12,13,13,14,14,16,16,17,17,18,18,19,19,21,21,23,23,24,24,25,25,26,26,27,27,28,28],"right_children":[2,4,6,8,10,12,14,16,18,20,22,-1,24,26,28,-1,30,32,34,36,-1,38,-1,40,42,44,46,48,50,-1,-1,-1,-1,-1,-1,-1,-1,-1,-1,-1,-1,-1,-1,-1,-1,-1,-1,-1,-1,-1,-1],"split_conditions":[1.0083008E-1,2.734375E-2,-8.75E0,-3.90625E-2,5E0,9.62963E-1,1E0,2.5E0,9.4666666E-1,2E0,7.9589844E-2,-1.3118552E-1,3E0,5E0,5.5E0,-9.540464E-2,9.1752577E-1,9.765625E-3,2.65E1,5E0,-0E0,-5.6640625E-2,-0E0,1.1E2,-1.3671875E-2,1.9482422E-1,2.734375E-2,2.34375E-2,9.849624E-1,-0E0,5.6040395E-2,-0E0,-1.9505335E-2,1.3093229E-1,-0E0,-0E0,-1.1145301E-1,-0E0,8.135851E-2,-1.1382564E-1,-0E0,-9.337457E-2,5.11747E-2,-0E0,-6.805558E-2,1.526939E-2,-1.6312538E-2,9.6174456E-2,-4.1763704E-2,-5.984005E-2,-0E0],"split_indices":[2,9,10,9,6,1,0,6,1,6,2,0,6,6,10,0,1,8,10,4,0,8,0,3,8,2,9,9,1,0,0,0,0,0,0,0,0,0,0,0,0,0,0,0,0,0,0,0,0,0,0],"split_type":[0,0,0,0,0,0,0,0,0,0,0,0,0,0,0,0,0,0,0,0,0,0,0,0,0,0,0,0,0,0,0,0,0,0,0,0,0,0,0,0,0,0,0,0,0,0,0,0,0,0,0],"sum_hessian":[2.850703E4,1.1772815E4,1.6734215E4,1.0665333E4,1.1074827E3,1.194249E4,4.7917236E3,7.603285E2,9.905004E3,7.313242E2,3.7615848E2,7.9442617E3,3.9982285E3,1.4838114E3,3.307912E3,4.7274588E2,2.8758264E2,2.3351183E2,9.671492E3,6.6731067E2,6.401358E1,2.9772018E2,7.843828E1,2.4326218E3,1.5656069E3,1.1024768E3,3.813346E2,2.895966E3,4.1194598E2,4.718404E1,2.403986E2,1.1924718E2,1.1426464E2,9.609663E3,6.1829296E1,7.0201283E0,6.602905E2,1.0835291E0,2.9663666E2,2.4306726E3,1.9489892E0,4.71921E2,1.0936859E3,7.665604E1,1.0258208E3,2.604073E2,1.20927284E2,2.668148E3,2.2781812E2,2.657465E2,1.461995E2],"tree_param":{"num_deleted":"0","num_feature":"11","num_nodes":"51","size_leaf_vector":"1"}},{"base_weights":[-1.3875483E-2,8.684903E-1,-7.267772E-1,-8.690272E-1,1.0150152E0,-1.0507481E0,2.7465013E-1,-1.0802805E0,-0E0,1.0954487E0,-8.42337E-1,-1.2190423E-1,-5.4535216E-1,5.636504E-1,-5.503285E-1,-1.1074202E0,-0E0,-3.2465315E-1,1.1587393E0,-9.157644E-1,-0E0,-1.114262E0,1.2203517E-1,-6.4412487E-1,7.474144E-1,-7.405848E-1,-0E0,-1.1105138E-1,-0E0,-5.9532154E-2,-0E0,-4.5817997E-2,1.1988461E-1,-9.292931E-2,-0E0,-1.13533475E-1,-0E0,9.1791175E-2,-2.9786244E-2,-7.5894155E-2,-0E0,9.588906E-2,-5.0156634E-2,-9.342267E-2,-0E0],"categories":[],"categories_nodes":[],"categories_segments":[],"categories_sizes":[],"default_left":[0,0,0,0,0,0,0,0,0,0,0,0,0,0,0,0,0,0,0,0,0,0,0,0,0,0,0,0,0,0,0,0,0,0,0,0,0,0,0,0,0,0,0,0,0],"id":7,"left_children":[1,3,5,7,9,11,13,15,-1,17,19,-1,21,23,25,27,-1,29,31,33,-1,35,37,39,41,43,-1,-1,-1,-1,-1,-1,-1,-1,-1,-1,-1,-1,-1,-1,-1,-1,-1,-1,-1],"loss_changes":[1.7233338E4,3.2065312E3,5.0467275E3,2.4344855E2,1.8120264E3,7.438457E2,9.206758E2,4.017572E1,0E0,1.1066826E3,4.7347076E1,0E0,1.3382642E3,7.017705E2,9.200879E1,3.1063843E0,0E0,8.349104E1,8.156113E2,6.9357605E0,0E0,1.0808105E1,5.887773E2,3.711255E1,7.895028E2,4.0240387E1,0E0,0E0,0E0,0E0,0E0,0E0,0E0,0E0,0E0,0E0,0E0,0E0,0E0,0E0,0E0,0E0,0E0,0E0,0E0],"parents":[2147483647,0,0,1,1,2,2,3,3,4,4,5,5,6,6,7,7,9,9,10,10,12,12,13,13,14,14,15,15,17,17,18,18,19,19,21,21,22,22,23,23,24,24,25,25],"right_children":[2,4,6,8,10,12,14,16,-1,18,20,-1,22,24,26,28,-1,30,32,34,-1,36,38,40,42,44,-1,-1,-1,-1,-1,-1,-1,-1,-1,-1,-1,-1,-1,-1,-1,-1,-1,-1,-1],"split_conditions":[1.1401367E-1,1E0,-4.75E0,-1.675E1,2.734375E-2,5E0,3.75E0,2E1,-0E0,-1.953125E-2,6E0,-1.2190423E-1,1E0,-2.6367188E-2,9.849624E-1,1.0229492E-1,-0E0,-1E1,-8.225E1,5E-1,-0E0,9.8214287E-1,1.8847656E-1,1E1,2.1972656E-2,5.4E1,-0E0,-1.1105138E-1,-0E0,-5.9532154E-2,-0E0,-4.5817997E-2,1.1988461E-1,-9.292931E-2,-0E0,-1.13533475E-1,-0E0,9.1791175E-2,-2.9786244E-2,-7.5894155E-2,-0E0,9.588906E-2,-5.0156634E-2,-9.342267E-2,-0E0],"split_indices":[2,0,10,10,8,6,10,6,0,8,6,0,0,9,1,2,0,10,10,10,0,1,2,6,9,3,0,0,0,0,0,0,0,0,0,0,0,0,0,0,0,0,0,0,0],"split_type":[0,0,0,0,0,0,0,0,0,0,0,0,0,0,0,0,0,0,0,0,0,0,0,0,0,0,0,0,0,0,0,0,0,0,0,0,0,0,0,0,0,0,0,0,0],"sum_hessian":[2.7218434E4,1.2091081E4,1.5127352E4,8.4891693E2,1.1242164E4,1.1501458E4,3.6258938E3,7.226851E2,1.26231865E2,1.0866449E4,3.7571506E2,8.373916E3,3.127542E3,2.798453E3,8.274409E2,7.1561554E2,7.0695605E0,3.7859714E2,1.0487853E4,3.589444E2,1.6770666E1,1.733074E3,1.3944679E3,2.6461246E2,2.5338406E3,5.79887E2,2.4755383E2,7.135967E2,2.0188818E0,2.7791226E2,1.0068488E2,1.6826892E2,1.0319583E4,3.537103E2,5.234097E0,1.6740436E3,5.903038E1,5.229033E2,8.7156464E2,2.2706885E2,3.7543625E1,2.2552715E3,2.7856903E2,3.7335587E2,2.0653119E2],"tree_param":{"num_deleted":"0","num_feature":"11","num_nodes":"45","size_leaf_vector":"1"}},{"base_weights":[-1.6927188E-2,8.2328445E-1,-6.9093573E-1,-8.540249E-1,9.617252E-1,-1.0429114E0,1.4113276E-1,-1.014839E0,-0E0,1.041809E0,-8.045183E-1,-1.1733887E-1,-5.2279687E-1,-5.596119E-1,4.5252872E-1,-1.0426937E0,-0E0,-1.1947866E-1,1.1213895E0,-8.7443995E-1,-0E0,-9.0247864E-1,2.8970036E-1,-0E0,-7.1895406E-2,6.426473E-1,-8.287345E-1,-1.05408035E-1,-0E0,-7.7411704E-2,4.793509E-2,1.1899678E-1,-1.0508047E-2,-8.88429E-2,-0E0,-0E0,-9.189966E-2,5.7516363E-2,-1.4002897E-2,5.7551805E-3,-0E0,-7.240935E-2,8.439592E-2,-8.5599974E-2,-0E0],"categories":[],"categories_nodes":[],"categories_segments":[],"categories_sizes":[],"default_left":[0,0,0,0,0,0,0,0,0,0,0,0,0,0,0,0,0,0,0,0,0,0,0,0,0,0,0,0,0,0,0,0,0,0,0,0,0,0,0,0,0,0,0,0,0],"id":8,"left_children":[1,3,5,7,9,11,13,15,-1,17,19,-1,21,23,25,27,-1,29,31,33,-1,35,37,39,-1,41,43,-1,-1,-1,-1,-1,-1,-1,-1,-1,-1,-1,-1,-1,-1,-1,-1,-1,-1],"loss_changes":[1.4779974E4,2.7777695E3,4.368858E3,1.5713873E2,1.6327549E3,4.699082E2,9.598131E2,3.669098E1,0E0,1.0759082E3,4.131125E1,0E0,8.294356E2,1.8410236E2,8.02704E2,1.4957947E1,0E0,3.3221207E2,9.4823145E2,6.4668884E0,0E0,1.15E1,1.4453482E2,7.8058755E-1,0E0,8.627295E2,1.4328278E1,0E0,0E0,0E0,0E0,0E0,0E0,0E0,0E0,0E0,0E0,0E0,0E0,0E0,0E0,0E0,0E0,0E0,0E0],"parents":[2147483647,0,0,1,1,2,2,3,3,4,4,5,5,6,6,7,7,9,9,10,10,12,12,13,13,14,14,15,15,17,17,18,18,19,19,21,21,22,22,23,23,25,25,26,26],"right_children":[2,4,6,8,10,12,14,16,-1,18,20,-1,22,24,26,28,-1,30,32,34,-1,36,38,40,-1,42,44,-1,-1,-1,-1,-1,-1,-1,-1,-1,-1,-1,-1,-1,-1,-1,-1,-1,-1],"split_conditions":[1.1401367E-1,9.3939394E-1,-8.75E0,-2.15E1,2.734375E-2,9.787234E-1,9.62963E-1,2E1,-0E0,-4.296875E-2,6E0,-1.1733887E-1,6E0,1.8164062E-1,2.5390625E-2,1E0,-0E0,2.5E0,5.078125E-2,2.5E-1,-0E0,1.22802734E-1,3.6816406E-1,1.953125E-2,-7.1895406E-2,-2.34375E-2,2.65E1,-1.05408035E-1,-0E0,-7.7411704E-2,4.793509E-2,1.1899678E-1,-1.0508047E-2,-8.88429E-2,-0E0,-0E0,-9.189966E-2,5.7516363E-2,-1.4002897E-2,5.7551805E-3,-0E0,-7.240935E-2,8.439592E-2,-8.5599974E-2,-0E0],"split_indices":[2,1,10,10,8,1,1,6,0,9,6,0,6,2,8,0,0,6,9,10,0,2,2,9,0,8,10,0,0,0,0,0,0,0,0,0,0,0,0,0,0,0,0,0,0],"split_type":[0,0,0,0,0,0,0,0,0,0,0,0,0,0,0,0,0,0,0,0,0,0,0,0,0,0,0,0,0,0,0,0,0,0,0,0,0,0,0,0,0,0,0,0,0],"sum_hessian":[2.5921664E4,1.1462333E4,1.4459332E4,7.79455E2,1.0682878E4,1.0227718E4,4.231614E3,6.7539355E2,1.0406144E2,1.031291E4,3.6996756E2,7.9224146E3,2.3053037E3,1.1785771E3,3.0530366E3,6.682669E2,7.1266775E0,5.775937E2,9.735316E3,3.518404E2,1.8127184E1,1.6474495E3,6.578541E2,1.4776958E2,1.0308076E3,2.7699167E3,2.831199E2,6.6522064E2,3.0462334E0,3.4173303E2,2.3586063E2,9.299827E3,4.3549014E2,3.459163E2,5.9240837E0,4.863622E1,1.5988132E3,5.147646E2,1.4308958E2,1.3566966E2,1.2099911E1,2.5849838E2,2.5114182E3,2.7865692E2,4.4629693E0],"tree_param":{"num_deleted":"0","num_feature":"11","num_nodes":"45","size_leaf_vector":"1"}},{"base_weights":[-1.907161E-2,9.0212893E-1,-5.8228964E-1,-6.096495E-1,1.0078838E0,-9.724492E-1,2.1460597E-1,-0E0,-8.1970745E-1,-7.2819096E-1,1.0879459E0,-1.1478269E-1,-4.6630692E-1,8.1667405E-1,-1.2549734E-1,-8.435566E-1,-0E0,-7.843097E-2,-0E0,-3.3599775E-2,1.1328734E0,-1.0405307E0,1.1859042E-1,9.634832E-1,-4.0873817E-1,-6.4881253E-1,1.8817736E-1,-8.511377E-2,-0E0,-2.9525504E-2,-0E0,1.1712002E-1,-0E0,-1.06540106E-1,-0E0,7.836633E-2,-3.6134526E-2,1.0179897E-1,-0E0,-0E0,-5.1365346E-2,-6.5749556E-2,-0E0,3.979984E-2,-6.8731725E-2],"categories":[],"categories_nodes":[],"categories_segments":[],"categories_sizes":[],"default_left":[0,0,0,0,0,0,0,0,0,0,0,0,0,0,0,0,0,0,0,0,0,0,0,0,0,0,0,0,0,0,0,0,0,0,0,0,0,0,0,0,0,0,0,0,0],"id":9,"left_children":[1,3,5,7,9,11,13,-1,15,17,19,-1,21,23,25,27,-1,-1,-1,29,31,33,35,37,39,41,43,-1,-1,-1,-1,-1,-1,-1,-1,-1,-1,-1,-1,-1,-1,-1,-1,-1,-1],"loss_changes":[1.2854017E4,1.5972212E3,4.9090923E3,8.835542E1,1.344544E3,7.1650195E2,1.1206074E3,0E0,1.5438995E1,2.83965E1,5.445459E2,0E0,1.117292E3,4.4657214E2,5.884789E2,4.649109E0,0E0,0E0,0E0,2.1771082E1,4.628369E2,3.290222E1,5.4847986E2,1.40646E2,1.5847816E1,1.8521729E0,3.616931E2,0E0,0E0,0E0,0E0,0E0,0E0,0E0,0E0,0E0,0E0,0E0,0E0,0E0,0E0,0E0,0E0,0E0,0E0],"parents":[2147483647,0,0,1,1,2,2,3,3,4,4,5,5,6,6,8,8,9,9,10,10,12,12,13,13,14,14,15,15,19,19,20,20,21,21,22,22,23,23,24,24,25,25,26,26],"right_children":[2,4,6,8,10,12,14,-1,16,18,20,-1,22,24,26,28,-1,-1,-1,30,32,34,36,38,40,42,44,-1,-1,-1,-1,-1,-1,-1,-1,-1,-1,-1,-1,-1,-1,-1,-1,-1,-1],"split_conditions":[8.8134766E-2,9.4666666E-1,-9.5E0,6.25E-2,-8.225E1,5E0,1.8164062E-1,-0E0,2E1,1.5E0,-1.953125E-2,-1.1478269E-1,1E0,1.975E1,9.852941E-1,8.618164E-2,-0E0,-7.843097E-2,-0E0,2.5E0,2.1484375E-2,9.78022E-1,1.8847656E-1,3.125E-2,1E0,9.8214287E-1,2.5390625E-2,-8.511377E-2,-0E0,-2.9525504E-2,-0E0,1.1712002E-1,-0E0,-1.06540106E-1,-0E0,7.836633E-2,-3.6134526E-2,1.0179897E-1,-0E0,-0E0,-5.1365346E-2,-6.5749556E-2,-0E0,3.979984E-2,-6.8731725E-2],"split_indices":[2,1,10,2,10,6,2,0,6,6,8,0,0,10,1,2,0,0,0,6,8,1,2,9,7,1,8,0,0,0,0,0,0,0,0,0,0,0,0,0,0,0,0,0,0],"split_type":[0,0,0,0,0,0,0,0,0,0,0,0,0,0,0,0,0,0,0,0,0,0,0,0,0,0,0,0,0,0,0,0,0,0,0,0,0,0,0,0,0,0,0,0,0],"sum_hessian":[2.4635084E4,9.256845E3,1.5378239E4,5.12241E2,8.7446045E3,1.0393195E4,4.9850435E3,1.4208327E2,3.7015775E2,2.9474588E2,8.449858E3,7.477795E3,2.9154004E3,1.8550476E3,3.129996E3,3.6564545E2,4.5123134E0,2.8643994E2,8.305952E0,2.4069464E2,8.209164E3,1.5180869E3,1.3973135E3,1.748545E3,1.06502525E2,1.2524486E3,1.8775475E3,3.6380487E2,1.8405753E0,1.5415051E2,8.654412E1,8.011654E3,1.9750993E2,1.4724113E3,4.5675655E1,6.464998E2,7.5081366E2,1.6916095E3,5.69356E1,1.5676393E1,9.082613E1,1.2212476E3,3.1201002E1,1.6507017E3,2.2684581E2],"tree_param":{"num_deleted":"0","num_feature":"11","num_nodes":"45","size_leaf_vector":"1"}},{"base_weights":[-2.1086395E-2,-1.0214643E0,4.486115E-1,-1.1577357E0,-1.5929613E-2,-9.882164E-1,6.649246E-1,-0E0,-1.16762154E-1,1.8012094E-1,-4.6729034E-1,-1.1711917E0,-4.345611E-2,8.3905274E-1,-1.1254283E0,-2.541644E-3,3.817244E-1,-0E0,-4.961349E-1,-1.1839621E0,-0E0,-4.051985E-1,1.915302E-3,1.011349E0,4.786722E-2,-1.1278553E-1,-0E0,-1.1573939E-3,-0E0,6.392648E-2,-0E0,-0E0,-5.050409E-2,-1.18665926E-1,-0E0,-4.3180015E-2,-0E0,3.6682356E-2,-0E0,-0E0,1.0715349E-1,-6.2495984E-2,5.739851E-2],"categories":[],"categories_nodes":[],"categories_segments":[],"categories_sizes":[],"default_left":[0,0,0,0,0,0,0,0,0,0,0,0,0,0,0,0,0,0,0,0,0,0,0,0,0,0,0,0,0,0,0,0,0,0,0,0,0,0,0,0,0,0,0],"id":10,"left_children":[1,3,5,7,9,11,13,-1,-1,15,17,19,21,23,25,27,29,-1,31,33,-1,35,37,39,41,-1,-1,-1,-1,-1,-1,-1,-1,-1,-1,-1,-1,-1,-1,-1,-1,-1,-1],"loss_changes":[1.11496E4,9.2354395E2,5.006091E3,2.2435547E1,1.342245E2,2.3184497E2,4.438476E3,0E0,0E0,6.315454E1,9.464302E0,3.0561035E1,4.908685E1,1.6465371E3,5.2261963E0,2.4925487E-2,1.17343605E2,0E0,3.7416153E0,6.5507812E0,0E0,6.0238495E0,3.329177E1,6.9852734E2,9.207099E2,0E0,0E0,0E0,0E0,0E0,0E0,0E0,0E0,0E0,0E0,0E0,0E0,0E0,0E0,0E0,0E0,0E0,0E0],"parents":[2147483647,0,0,1,1,2,2,3,3,4,4,5,5,6,6,9,9,10,10,11,11,12,12,13,13,14,14,15,15,16,16,18,18,19,19,21,21,22,22,23,23,24,24],"right_children":[2,4,6,8,10,12,14,-1,-1,16,18,20,22,24,26,28,30,-1,32,34,-1,36,38,40,42,-1,-1,-1,-1,-1,-1,-1,-1,-1,-1,-1,-1,-1,-1,-1,-1,-1,-1],"split_conditions":[1E0,-2E0,-1.8554688E-2,6.25E-2,3.25E0,-2.34375E-2,2.5390625E-2,-0E0,-1.16762154E-1,-1.3671875E-2,6.8085104E-1,6.25E0,-5.859375E-3,1.8310547E-1,2.65E1,4.5E0,1.6601562E-2,-0E0,4.9682617E-2,2E2,-0E0,2E0,3.515625E-2,-5.078125E-2,9.849624E-1,-1.1278553E-1,-0E0,-1.1573939E-3,-0E0,6.392648E-2,-0E0,-0E0,-5.050409E-2,-1.18665926E-1,-0E0,-4.3180015E-2,-0E0,3.6682356E-2,-0E0,-0E0,1.0715349E-1,-6.2495984E-2,5.739851E-2],"split_indices":[0,10,8,2,10,8,8,0,0,8,1,10,9,2,10,7,8,0,2,6,0,7,9,9,1,0,0,0,0,0,0,0,0,0,0,0,0,0,0,0,0,0,0],"split_type":[0,0,0,0,0,0,0,0,0,0,0,0,0,0,0,0,0,0,0,0,0,0,0,0,0,0,0,0,0,0,0,0,0,0,0,0,0,0,0,0,0,0,0],"sum_hessian":[2.3409404E4,7.509933E3,1.5899471E4,6.5127334E3,9.9719977E2,1.9732578E3,1.3926213E4,9.504476E1,6.4176885E3,5.826602E2,4.1453955E2,1.5443448E3,4.2891306E2,1.2791146E4,1.135066E3,9.72568E1,4.854034E2,1.9640673E1,3.9489886E2,1.5308654E3,1.3479402E1,2.0504753E2,2.2386551E2,1.0377107E4,2.4140396E3,1.1338647E3,1.2011906E0,9.55847E1,1.6721008E0,3.9587683E2,8.952657E1,2.6310935E0,3.9226776E2,1.5281127E3,2.7527215E0,2.0092741E2,4.120118E0,1.4742178E2,7.6443726E1,5.3552625E2,9.841581E3,9.676718E2,1.4463678E3],"tree_param":{"num_deleted":"0","num_feature":"11","num_nodes":"43","size_leaf_vector":"1"}},{"base_weights":[-2.3288544E-2,8.2996625E-1,-5.319671E-1,-5.403796E-1,9.3386346E-1,-9.0147924E-1,1.7562355E-1,-0E0,-7.3221534E-1,-6.6634816E-1,1.0148513E0,-1.09166265E-1,-4.2967615E-1,3.736633E-1,-7.8305006E-1,-7.5708336E-1,-0E0,-7.222652E-2,-0E0,-0E0,1.0604162E0,-9.594638E-1,1.7569626E-2,-7.3412406E-1,5.950404E-1,-9.852998E-2,-0E0,-7.649162E-2,-0E0,-2.3543386E-2,-0E0,1.1002513E-1,-0E0,-1.0083441E-1,-0E0,-7.265649E-2,4.0871277E-2,-9.582742E-2,-0E0,8.2970105E-2,-3.8071897E-2],"categories":[],"categories_nodes":[],"categories_segments":[],"categories_sizes":[],"default_left":[0,0,0,0,0,0,0,0,0,0,0,0,0,0,0,0,0,0,0,0,0,0,0,0,0,0,0,0,0,0,0,0,0,0,0,0,0,0,0,0,0],"id":11,"left_children":[1,3,5,7,9,11,13,-1,15,17,19,-1,21,23,25,27,-1,-1,-1,29,31,33,35,37,39,-1,-1,-1,-1,-1,-1,-1,-1,-1,-1,-1,-1,-1,-1,-1,-1],"loss_changes":[9.707347E3,1.2724854E3,3.7817668E3,6.62272E1,1.1166807E3,6.4341504E2,9.066193E2,0E0,1.3726959E1,2.5039642E1,4.47896E2,0E0,8.098652E2,1.0506714E3,1.5636813E2,4.1273193E0,0E0,0E0,0E0,1.3861427E1,3.9967383E2,5.0777832E1,4.722829E2,1.3578577E2,9.007855E2,0E0,0E0,0E0,0E0,0E0,0E0,0E0,0E0,0E0,0E0,0E0,0E0,0E0,0E0,0E0,0E0],"parents":[2147483647,0,0,1,1,2,2,3,3,4,4,5,5,6,6,8,8,9,9,10,10,12,12,13,13,14,14,15,15,19,19,20,20,21,21,22,22,23,23,24,24],"right_children":[2,4,6,8,10,12,14,-1,16,18,20,-1,22,24,26,28,-1,-1,-1,30,32,34,36,38,40,-1,-1,-1,-1,-1,-1,-1,-1,-1,-1,-1,-1,-1,-1,-1,-1],"split_conditions":[8.8134766E-2,9.4666666E-1,-9.5E0,6.25E-2,-8.225E1,4E0,1.953125E-2,-0E0,2E1,1.5E0,-1.953125E-2,-1.09166265E-1,1E0,-1.953125E-2,1E1,8.618164E-2,-0E0,-7.222652E-2,-0E0,2.5E0,2.1484375E-2,9.512195E-1,-1.3671875E-2,5E0,5.5E0,-9.852998E-2,-0E0,-7.649162E-2,-0E0,-2.3543386E-2,-0E0,1.1002513E-1,-0E0,-1.0083441E-1,-0E0,-7.265649E-2,4.0871277E-2,-9.582742E-2,-0E0,8.2970105E-2,-3.8071897E-2],"split_indices":[2,1,10,2,10,6,9,0,6,6,8,0,0,9,6,2,0,0,0,6,8,1,8,6,10,0,0,0,0,0,0,0,0,0,0,0,0,0,0,0,0],"split_type":[0,0,0,0,0,0,0,0,0,0,0,0,0,0,0,0,0,0,0,0,0,0,0,0,0,0,0,0,0,0,0,0,0,0,0,0,0,0,0,0,0],"sum_hessian":[2.2232424E4,8.206736E3,1.40256875E4,4.809307E2,7.7258057E3,9.288859E3,4.736828E3,1.4099876E2,3.3993195E2,2.7787326E2,7.4479326E3,6.375548E3,2.9133118E3,4.0628674E3,6.7396063E2,3.3545456E2,4.4773602E0,2.696284E2,8.244885E0,2.3640361E2,7.211529E3,1.3835192E3,1.5297925E3,5.628732E2,3.4999944E3,5.499025E2,1.2405805E2,3.3363608E2,1.8184841E0,1.5007494E2,8.6328674E1,7.0218364E3,1.8969243E2,1.2931168E3,9.040236E1,4.0943787E2,1.1203546E3,4.3690408E2,1.2596918E2,2.916143E3,5.8385114E2],"tree_param":{"num_deleted":"0","num_feature":"11","num_nodes":"41","size_leaf_vector":"1"}},{"base_weights":[-2.6269361E-2,-9.5606726E-1,4.0245008E-1,-1.0962061E0,-1.711375E-2,-9.0881664E-1,6.03803E-1,-0E0,-1.1063069E-1,1.3128333E-1,-3.970341E-1,-1.0905908E0,-6.0671805E-3,7.6768965E-1,-1.0483053E0,-0E0,3.178981E-1,-0E0,-4.2479065E-1,-1.1060225E0,-0E0,1.1945836E-2,-3.4177992E-1,-0E0,9.205295E-1,-1.0509019E-1,-0E0,5.5490017E-2,-0E0,-0E0,-4.3426566E-2,-1.1088518E-1,-0E0,-0E0,2.080785E-2,-0E0,-3.768728E-2,-6.568145E-2,4.4756386E-2,1.0175206E-1,-3.0644503E-3],"categories":[],"categories_nodes":[],"categories_segments":[],"categories_sizes":[],"default_left":[0,0,0,0,0,0,0,0,0,0,0,0,0,0,0,0,0,0,0,0,0,0,0,0,0,0,0,0,0,0,0,0,0,0,0,0,0,0,0,0,0],"id":12,"left_children":[1,3,5,7,9,11,13,-1,-1,15,17,19,21,23,25,-1,27,-1,29,31,-1,33,35,37,39,-1,-1,-1,-1,-1,-1,-1,-1,-1,-1,-1,-1,-1,-1,-1,-1],"loss_changes":[8.542666E3,7.8050195E2,3.8535918E3,1.3302246E1,9.2468704E1,2.02177E2,3.4907012E3,0E0,0E0,4.5984184E1,8.192764E0,2.875232E1,3.6487595E1,1.4460146E3,4.852417E0,0E0,9.113285E1,0E0,3.5028915E0,5.8581543E0,0E0,1.1502735E1,7.2342606E0,6.1893005E2,1.0077344E3,0E0,0E0,0E0,0E0,0E0,0E0,0E0,0E0,0E0,0E0,0E0,0E0,0E0,0E0,0E0,0E0],"parents":[2147483647,0,0,1,1,2,2,3,3,4,4,5,5,6,6,9,9,10,10,11,11,12,12,13,13,14,14,16,16,18,18,19,19,21,21,22,22,23,23,24,24],"right_children":[2,4,6,8,10,12,14,-1,-1,16,18,20,22,24,26,-1,28,-1,30,32,-1,34,36,38,40,-1,-1,-1,-1,-1,-1,-1,-1,-1,-1,-1,-1,-1,-1,-1,-1],"split_conditions":[1E0,-2E0,-1.8554688E-2,6.25E-2,3E0,-2.34375E-2,2.5390625E-2,-0E0,-1.1063069E-1,-1.3671875E-2,6.8085104E-1,3.25E0,1.7529297E-1,-1.3671875E-2,2.65E1,-0E0,1.6601562E-2,-0E0,4.9682617E-2,2E2,-0E0,-7.421875E-2,9.4857144E-1,3E0,4.6875E-2,-1.0509019E-1,-0E0,5.5490017E-2,-0E0,-0E0,-4.3426566E-2,-1.1088518E-1,-0E0,-0E0,2.080785E-2,-0E0,-3.768728E-2,-6.568145E-2,4.4756386E-2,1.0175206E-1,-3.0644503E-3],"split_indices":[0,10,8,2,10,8,8,0,0,8,1,10,2,9,10,0,8,0,2,6,0,9,1,6,9,0,0,0,0,0,0,0,0,0,0,0,0,0,0,0,0],"split_type":[0,0,0,0,0,0,0,0,0,0,0,0,0,0,0,0,0,0,0,0,0,0,0,0,0,0,0,0,0,0,0,0,0,0,0,0,0,0,0,0,0],"sum_hessian":[2.1095059E4,6.6919478E3,1.4403111E4,5.71564E3,9.763079E2,1.8043942E3,1.2598718E4,9.484421E1,5.620796E3,5.598584E2,4.1644952E2,1.3924377E3,4.119564E2,1.1565499E4,1.0332185E3,9.2299484E1,4.6755893E2,1.9883839E1,3.9656567E2,1.3745865E3,1.7851212E1,1.9980368E2,2.1215273E2,1.8457014E3,9.719798E3,1.0320192E3,1.1994184E0,3.8224445E2,8.531448E1,2.8577447E0,3.9370795E2,1.3718357E3,2.7509415E0,3.3142944E1,1.6666074E2,4.492605E0,2.0766013E2,8.050451E2,1.0406564E3,8.909459E3,8.10338E2],"tree_param":{"num_deleted":"0","num_feature":"11","num_nodes":"41","size_leaf_vector":"1"}},{"base_weights":[-2.8574623E-2,5.393752E-1,-6.8197E-1,-7.160735E-1,7.589155E-1,-9.5604444E-1,-0E0,-9.009909E-1,-0E0,8.860566E-1,-3.2102385E-1,-1.0198052E-1,-3.4742007E-1,-3.80919E-1,5.055298E-1,-9.0897894E-1,-0E0,2.254368E-1,-0E0,-2.7460477E-1,1.0262074E0,-8.3522785E-1,3.6573073E-1,-0E0,-6.037098E-1,-7.97267E-1,8.437329E-2,6.730078E-1,-1.4427423E-1,-0E0,-9.138963E-2,2.9457783E-2,-0E0,-8.2348324E-2,4.3773506E-2,1.0691237E-1,-2.2611858E-3,-0E0,-8.675412E-2,-0E0,5.7236232E-2,1.0899648E-2,-0E0,-0E0,-7.14246E-2,-0E0,-8.413581E-2,3.1939697E-2,-0E0,-0E0,8.0491155E-2,-2.1350648E-2,-0E0],"categories":[],"categories_nodes":[],"categories_segments":[],"categories_sizes":[],"default_left":[0,0,0,0,0,0,0,0,0,0,0,0,0,0,0,0,0,0,0,0,0,0,0,0,0,0,0,0,0,0,0,0,0,0,0,0,0,0,0,0,0,0,0,0,0,0,0,0,0,0,0,0,0],"id":13,"left_children":[1,3,5,7,9,11,13,15,17,19,21,-1,23,25,27,29,-1,31,-1,33,35,37,39,41,43,45,47,49,51,-1,-1,-1,-1,-1,-1,-1,-1,-1,-1,-1,-1,-1,-1,-1,-1,-1,-1,-1,-1,-1,-1,-1,-1],"loss_changes":[7.520236E3,3.019278E3,1.7239082E3,2.871922E2,1.3562861E3,8.834277E1,5.661018E2,1.6964844E1,1.3246191E1,1.4686768E3,4.1856265E2,0E0,1.08607346E2,4.176819E2,1.9531384E2,7.7022705E0,0E0,8.189665E0,0E0,4.289854E2,4.4857324E2,2.0679657E1,4.9012684E1,2.988799E0,3.2386047E1,2.0064209E1,4.1060627E1,1.7242249E2,4.8042774E0,0E0,0E0,0E0,0E0,0E0,0E0,0E0,0E0,0E0,0E0,0E0,0E0,0E0,0E0,0E0,0E0,0E0,0E0,0E0,0E0,0E0,0E0,0E0,0E0],"parents":[2147483647,0,0,1,1,2,2,3,3,4,4,5,5,6,6,7,7,8,8,9,9,10,10,12,12,13,13,14,14,15,15,17,17,19,19,20,20,21,21,22,22,23,23,24,24,25,25,26,26,27,27,28,28],"right_children":[2,4,6,8,10,12,14,16,18,20,22,-1,24,26,28,30,-1,32,-1,34,36,38,40,42,44,46,48,50,52,-1,-1,-1,-1,-1,-1,-1,-1,-1,-1,-1,-1,-1,-1,-1,-1,-1,-1,-1,-1,-1,-1,-1,-1],"split_conditions":[1.6113281E-1,9.512195E-1,9.885057E-1,-9E0,3.90625E-2,-2E0,3E0,2E2,5.5E0,-4.296875E-2,6E0,-1.0198052E-1,2.25E0,-1E0,2.1484375E-2,1.1169434E-2,-0E0,1.953125E-2,-0E0,2.5E0,8E0,5E0,-5.859375E-3,3.3789062E-1,8.6538464E-1,1.9189453E-1,4.189453E-1,-2.734375E-2,6.25E0,-0E0,-9.138963E-2,2.9457783E-2,-0E0,-8.2348324E-2,4.3773506E-2,1.0691237E-1,-2.2611858E-3,-0E0,-8.675412E-2,-0E0,5.7236232E-2,1.0899648E-2,-0E0,-0E0,-7.14246E-2,-0E0,-8.413581E-2,3.1939697E-2,-0E0,-0E0,8.0491155E-2,-2.1350648E-2,-0E0],"split_indices":[2,1,1,10,9,10,6,6,10,9,6,0,10,10,8,2,0,9,0,6,10,4,8,2,1,2,2,8,10,0,0,0,0,0,0,0,0,0,0,0,0,0,0,0,0,0,0,0,0,0,0,0,0],"split_type":[0,0,0,0,0,0,0,0,0,0,0,0,0,0,0,0,0,0,0,0,0,0,0,0,0,0,0,0,0,0,0,0,0,0,0,0,0,0,0,0,0,0,0,0,0,0,0,0,0,0,0,0,0],"sum_hessian":[2.00274E4,1.064172E4,9.385681E3,1.4824741E3,9.159245E3,6.6126885E3,2.7729924E3,1.2533436E3,2.2913048E2,8.293413E3,8.6583185E2,5.775745E3,8.369431E2,1.653353E3,1.1196394E3,1.2501948E3,3.1488526E0,1.6064018E2,6.8490295E1,8.0632935E2,7.487084E3,5.660201E2,2.9981177E2,3.2866336E2,5.0827975E2,9.483402E2,7.050128E2,1.00971985E3,1.0991953E2,5.269E0,1.2449258E3,1.4702487E2,1.3615315E1,5.2589325E2,2.804361E2,7.2825034E3,2.0458089E2,2.121394E1,5.448061E2,8.695606E1,2.128557E2,1.515775E2,1.7708586E2,1.1022158E2,3.9805817E2,7.865281E1,8.696874E2,3.5867426E2,3.4633856E2,6.777432E1,9.4194556E2,1.01245186E2,8.674349E0],"tree_param":{"num_deleted":"0","num_feature":"11","num_nodes":"53","size_leaf_vector":"1"}},{"base_weights":[-2.996066E-2,7.79036E-1,-4.5828444E-1,9.0894246E-1,-2.3076616E-1,-8.5528505E-1,5.511986E-2,-3.9997116E-1,9.776137E-1,-5.5383223E-1,1.9014658E-1,-1.0195808E0,-4.07789E-1,3.675206E-1,-4.277191E-1,-4.795359E-1,-0E0,-2.780986E-1,1.0323004E0,-7.8129834E-1,-0E0,2.4279043E-1,-0E0,-1.0197365E-1,-0E0,-8.699103E-1,-0E0,5.671517E-1,-8.6052996E-1,-6.732883E-1,-0E0,-0E0,-4.9065746E-2,-3.354254E-2,-0E0,1.0549911E-1,-0E0,-0E0,-7.865947E-2,2.585499E-2,-0E0,-9.218773E-2,-0E0,5.3833157E-2,-3.7777252E-2,-1.8340377E-2,7.162296E-2,-9.944563E-2,-0E0,-8.7734E-2,-1.5670648E-2,-1.3768809E-2,2.217955E-2],"categories":[],"categories_nodes":[],"categories_segments":[],"categories_sizes":[],"default_left":[0,0,0,0,0,0,0,0,0,0,0,0,0,0,0,0,0,0,0,0,0,0,0,0,0,0,0,0,0,0,0,0,0,0,0,0,0,0,0,0,0,0,0,0,0,0,0,0,0,0,0,0,0],"id":14,"left_children":[1,3,5,7,9,11,13,15,17,19,21,23,25,27,29,31,-1,33,35,37,-1,39,-1,-1,-1,41,43,45,47,49,51,-1,-1,-1,-1,-1,-1,-1,-1,-1,-1,-1,-1,-1,-1,-1,-1,-1,-1,-1,-1,-1,-1],"loss_changes":[6.613695E3,9.49301E2,2.6561926E3,6.289888E2,1.474867E2,3.4728955E2,8.3715344E2,1.7834538E1,4.9737598E2,1.0287558E2,5.2276945E0,3.0419922E-1,4.8144778E2,8.8002234E2,2.6076404E2,2.749092E0,0E0,7.7382812E0,1.8366748E2,1.4551697E0,0E0,1.8518496E0,0E0,0E0,0E0,4.2217285E1,2.8162497E2,4.188432E2,7.613229E1,3.1770996E1,3.1686409E1,0E0,0E0,0E0,0E0,0E0,0E0,0E0,0E0,0E0,0E0,0E0,0E0,0E0,0E0,0E0,0E0,0E0,0E0,0E0,0E0,0E0,0E0],"parents":[2147483647,0,0,1,1,2,2,3,3,4,4,5,5,6,6,7,7,8,8,9,9,10,10,11,11,12,12,13,13,14,14,15,15,17,17,18,18,19,19,21,21,25,25,26,26,27,27,28,28,29,29,30,30],"right_children":[2,4,6,8,10,12,14,16,18,20,22,24,26,28,30,32,-1,34,36,38,-1,40,-1,-1,-1,42,44,46,48,50,52,-1,-1,-1,-1,-1,-1,-1,-1,-1,-1,-1,-1,-1,-1,-1,-1,-1,-1,-1,-1,-1,-1],"split_conditions":[7.9589844E-2,1.3183594E-2,-1.55E1,-2.34375E-2,-8.25E0,5E0,3.3789062E-1,2E1,-8.225E1,3E0,3.466797E-2,1.24E2,1E0,1.525E1,3E0,-6.1E1,-0E0,1.5E0,8.59375E-2,3.1E1,-0E0,1.7578125E-2,-0E0,-1.0197365E-1,-0E0,9.3939394E-1,1.8847656E-1,-1.3671875E-2,9.8224854E-1,-2.5E-1,9.849624E-1,-0E0,-4.9065746E-2,-3.354254E-2,-0E0,1.0549911E-1,-0E0,-0E0,-7.865947E-2,2.585499E-2,-0E0,-9.218773E-2,-0E0,5.3833157E-2,-3.7777252E-2,-1.8340377E-2,7.162296E-2,-9.944563E-2,-0E0,-8.7734E-2,-1.5670648E-2,-1.3768809E-2,2.217955E-2],"split_indices":[2,8,10,8,10,6,2,6,10,6,8,3,0,10,6,10,0,6,9,3,0,9,0,0,0,1,2,9,1,10,1,0,0,0,0,0,0,0,0,0,0,0,0,0,0,0,0,0,0,0,0,0,0],"split_type":[0,0,0,0,0,0,0,0,0,0,0,0,0,0,0,0,0,0,0,0,0,0,0,0,0,0,0,0,0,0,0,0,0,0,0,0,0,0,0,0,0,0,0,0,0,0,0,0,0,0,0,0,0],"sum_hessian":[1.8975986E4,6.4597617E3,1.2516226E4,5.8200557E3,6.3970624E2,7.130559E3,5.3856665E3,1.9348375E2,5.626572E3,4.78466E2,1.6124025E2,4.9586934E3,2.1718655E3,3.4102188E3,1.9754475E3,1.817302E2,1.1753552E1,1.4145131E2,5.4851206E3,3.5920065E2,1.1926534E2,1.4891809E2,1.2322151E1,4.957442E3,1.2518E0,1.0354441E3,1.1364215E3,3.0497073E3,3.6051166E2,1.3128165E3,6.6263104E2,1.2078999E0,1.805223E2,1.3475067E2,6.700639E0,5.4124746E3,7.264587E1,3.8111618E0,3.553895E2,1.4720053E2,1.7175623E0,9.607161E2,7.4727974E1,5.180041E2,6.1841736E2,3.9039383E2,2.6593132E3,3.2181046E2,3.870121E1,7.5225665E2,5.605598E2,2.555194E2,4.0711166E2],"tree_param":{"num_deleted":"0","num_feature":"11","num_nodes":"53","size_leaf_vector":"1"}},{"base_weights":[-3.2904416E-2,-8.705707E-1,3.4385443E-1,-1.0200291E0,-1.2916276E-2,-8.33736E-1,5.299E-1,-0E0,-1.0310457E-1,1.0025897E-1,-3.2393423E-1,-1.0079432E0,-0E0,6.830393E-1,-9.607451E-1,-0E0,2.8118604E-1,-0E0,-3.826183E-1,-1.0227065E0,-0E0,-2.6925126E-1,-0E0,8.5389715E-1,8.813009E-3,-9.6357025E-2,-0E0,5.034728E-2,-0E0,-0E0,-4.2060044E-2,-1.02555744E-1,-0E0,-2.9538905E-2,-0E0,2.6275E-2,-0E0,1.5851128E-3,9.382889E-2,-5.5206645E-2,4.3942418E-2],"categories":[],"categories_nodes":[],"categories_segments":[],"categories_sizes":[],"default_left":[0,0,0,0,0,0,0,0,0,0,0,0,0,0,0,0,0,0,0,0,0,0,0,0,0,0,0,0,0,0,0,0,0,0,0,0,0,0,0,0,0],"id":15,"left_children":[1,3,5,7,9,11,13,-1,-1,15,17,19,21,23,25,-1,27,-1,29,31,-1,33,35,37,39,-1,-1,-1,-1,-1,-1,-1,-1,-1,-1,-1,-1,-1,-1,-1,-1],"loss_changes":[5.805333E3,6.3066895E2,2.751662E3,1.146582E1,6.263947E1,1.5537952E2,2.532064E3,0E0,0E0,3.581096E1,7.0228424E0,2.494165E1,2.0056128E1,1.0681299E3,4.3152466E0,0E0,7.004999E1,0E0,3.369564E0,4.656616E0,0E0,3.7398777E0,1.5980039E1,4.6046826E2,5.5563184E2,0E0,0E0,0E0,0E0,0E0,0E0,0E0,0E0,0E0,0E0,0E0,0E0,0E0,0E0,0E0,0E0],"parents":[2147483647,0,0,1,1,2,2,3,3,4,4,5,5,6,6,9,9,10,10,11,11,12,12,13,13,14,14,16,16,18,18,19,19,21,21,22,22,23,23,24,24],"right_children":[2,4,6,8,10,12,14,-1,-1,16,18,20,22,24,26,-1,28,-1,30,32,-1,34,36,38,40,-1,-1,-1,-1,-1,-1,-1,-1,-1,-1,-1,-1,-1,-1,-1,-1],"split_conditions":[1E0,-2E0,-1.8554688E-2,6.25E-2,2.5E0,-2.34375E-2,2.5390625E-2,-0E0,-1.0310457E-1,-2.34375E-2,8.604651E-1,6.25E0,-5.859375E-3,1.8310547E-1,2.65E1,-0E0,2.1972656E-2,-0E0,3.75E0,2E2,-0E0,2E0,3.515625E-2,-1.953125E-2,9.8255813E-1,-9.6357025E-2,-0E0,5.034728E-2,-0E0,-0E0,-4.2060044E-2,-1.02555744E-1,-0E0,-2.9538905E-2,-0E0,2.6275E-2,-0E0,1.5851128E-3,9.382889E-2,-5.5206645E-2,4.3942418E-2],"split_indices":[0,10,8,2,10,8,8,0,0,9,1,10,9,2,10,0,9,0,10,6,0,7,9,9,1,0,0,0,0,0,0,0,0,0,0,0,0,0,0,0,0],"split_type":[0,0,0,0,0,0,0,0,0,0,0,0,0,0,0,0,0,0,0,0,0,0,0,0,0,0,0,0,0,0,0,0,0,0,0,0,0,0,0,0,0],"sum_hessian":[1.8032951E4,5.636158E3,1.2396792E4,4.6843203E3,9.51838E2,1.5705066E3,1.0826285E4,9.090802E1,4.593412E3,5.1182956E2,4.4000848E2,1.195906E3,3.7460052E2,9.927646E3,8.9863916E2,8.111851E1,4.3071106E2,1.04973175E2,3.350353E2,1.182608E3,1.3297974E1,1.766506E2,1.9794992E2,7.7808975E3,2.1467488E3,8.9743945E2,1.1997073E0,3.4188425E2,8.882678E1,5.597628E1,2.7905902E2,1.1799146E3,2.6934614E0,1.7271893E2,3.9316719E0,1.3146875E2,6.648117E1,8.311321E2,6.949765E3,8.1923975E2,1.327509E3],"tree_param":{"num_deleted":"0","num_feature":"11","num_nodes":"41","size_leaf_vector":"1"}},{"base_weights":[-3.4203697E-2,7.254597E-1,-4.2446586E-1,8.532398E-1,-1.9613788E-1,-7.6962423E-1,9.090122E-2,-3.2529056E-1,9.225162E-1,-5.03974E-1,1.3343628E-1,-9.2596784E-2,-3.353306E-1,-8.691645E-1,2.9470417E-1,-4.0869504E-1,-0E0,-2.6435623E-1,9.822815E-1,-7.209903E-1,-0E0,1.9662233E-1,-0E0,-0E0,-5.498502E-1,-8.930631E-1,-0E0,5.478729E-1,-8.0101025E-1,-0E0,-4.2039845E-2,-3.203576E-2,-0E0,1.0082369E-1,-0E0,-0E0,-7.2578266E-2,2.135125E-2,-0E0,4.3945797E-2,-4.8409093E-2,-5.532045E-2,-0E0,-8.9867584E-2,-0E0,-0E0,7.8914665E-2,-8.850316E-2,-0E0],"categories":[],"categories_nodes":[],"categories_segments":[],"categories_sizes":[],"default_left":[0,0,0,0,0,0,0,0,0,0,0,0,0,0,0,0,0,0,0,0,0,0,0,0,0,0,0,0,0,0,0,0,0,0,0,0,0,0,0,0,0,0,0,0,0,0,0,0,0],"id":16,"left_children":[1,3,5,7,9,11,13,15,17,19,21,-1,23,25,27,29,-1,31,33,35,-1,37,-1,39,41,43,-1,45,47,-1,-1,-1,-1,-1,-1,-1,-1,-1,-1,-1,-1,-1,-1,-1,-1,-1,-1,-1,-1],"loss_changes":[5.1086523E3,7.6514136E2,2.1262393E3,5.147175E2,1.13978546E2,3.2037598E2,8.679857E2,1.5321484E1,4.5402832E2,8.464496E1,4.7700586E0,0E0,2.0320035E2,1.8624268E1,1.1154407E3,2.4156685E0,0E0,7.155653E0,1.8078564E2,1.0809174E0,0E0,1.5928421E0,0E0,1.881731E2,4.8366394E0,3.9416504E0,0E0,4.0451312E2,7.617334E1,0E0,0E0,0E0,0E0,0E0,0E0,0E0,0E0,0E0,0E0,0E0,0E0,0E0,0E0,0E0,0E0,0E0,0E0,0E0,0E0],"parents":[2147483647,0,0,1,1,2,2,3,3,4,4,5,5,6,6,7,7,8,8,9,9,10,10,12,12,13,13,14,14,15,15,17,17,18,18,19,19,21,21,23,23,24,24,25,25,27,27,28,28],"right_children":[2,4,6,8,10,12,14,16,18,20,22,-1,24,26,28,30,-1,32,34,36,-1,38,-1,40,42,44,-1,46,48,-1,-1,-1,-1,-1,-1,-1,-1,-1,-1,-1,-1,-1,-1,-1,-1,-1,-1,-1,-1],"split_conditions":[7.9589844E-2,1.3183594E-2,9.8255813E-1,-2.34375E-2,-9E0,-1.625E1,-2.34375E-2,2E1,-8.225E1,3E0,3.466797E-2,-9.2596784E-2,1.8164062E-1,8E0,2.1484375E-2,-6.1E1,-0E0,1.5E0,8.59375E-2,3.1E1,-0E0,1.7578125E-2,-0E0,8.7890625E-3,9.8214287E-1,5E0,-0E0,1.5E0,6.25E0,-0E0,-4.2039845E-2,-3.203576E-2,-0E0,1.0082369E-1,-0E0,-0E0,-7.2578266E-2,2.135125E-2,-0E0,4.3945797E-2,-4.8409093E-2,-5.532045E-2,-0E0,-8.9867584E-2,-0E0,-0E0,7.8914665E-2,-8.850316E-2,-0E0],"split_indices":[2,8,1,8,10,10,8,6,10,6,8,0,2,10,8,10,0,6,9,3,0,9,0,8,1,7,0,6,10,0,0,0,0,0,0,0,0,0,0,0,0,0,0,0,0,0,0,0,0],"split_type":[0,0,0,0,0,0,0,0,0,0,0,0,0,0,0,0,0,0,0,0,0,0,0,0,0,0,0,0,0,0,0,0,0,0,0,0,0,0,0,0,0,0,0,0,0,0,0,0,0],"sum_hessian":[1.7129383E4,5.6972646E3,1.1432118E4,5.105332E3,5.9193274E2,6.9333354E3,4.498782E3,1.8278308E2,4.922549E3,4.3558405E2,1.5634871E2,4.845506E3,2.0878298E3,6.446852E2,3.8540972E3,1.7087012E2,1.1912964E1,1.3936562E2,4.783183E3,3.2452173E2,1.11062325E2,1.4144664E2,1.4902068E1,7.020143E2,1.3858157E3,6.28714E2,1.5971221E1,3.2454805E3,6.0861664E2,1.2031538E0,1.6966696E2,1.3271718E2,6.648431E0,4.7128447E3,7.0338356E1,3.5357096E0,3.20986E2,1.3969797E2,1.7486805E0,4.6303098E2,2.3898329E2,1.3836562E3,2.1593785E0,6.245206E2,4.1933556E0,1.0834125E3,2.162068E3,5.7770605E2,3.0910593E1],"tree_param":{"num_deleted":"0","num_feature":"11","num_nodes":"49","size_leaf_vector":"1"}},{"base_weights":[-3.5188336E-2,-8.172766E-1,3.0934334E-1,-9.704098E-1,-0E0,-7.7452403E-1,4.8302925E-1,-0E0,-9.823598E-2,1.3089125E-1,-2.848509E-1,-9.375251E-1,-0E0,6.977163E-1,-4.555716E-1,-0E0,3.040056E-1,-0E0,-3.4704027E-1,-9.5538425E-1,-0E0,-2.3954554E-1,-0E0,-0E0,8.4162647E-1,-0E0,-9.276649E-2,4.7401514E-2,-0E0,-0E0,-3.5745855E-2,-9.5850565E-2,-0E0,-2.6490165E-2,-0E0,2.1579746E-2,-0E0,-5.6790628E-2,5.088253E-2,9.055494E-2,-1.2725519E-2,3.1682856E-2,-2.9059175E-2],"categories":[],"categories_nodes":[],"categories_segments":[],"categories_sizes":[],"default_left":[0,0,0,0,0,0,0,0,0,0,0,0,0,0,0,0,0,0,0,0,0,0,0,0,0,0,0,0,0,0,0,0,0,0,0,0,0,0,0,0,0,0,0],"id":17,"left_children":[1,3,5,7,9,11,13,-1,-1,15,17,19,21,23,25,-1,27,-1,29,31,-1,33,35,37,39,41,-1,-1,-1,-1,-1,-1,-1,-1,-1,-1,-1,-1,-1,-1,-1,-1,-1],"loss_changes":[4.495194E3,5.669114E2,2.148444E3,1.0634033E1,5.2580475E1,1.113692E2,2.0588865E3,0E0,0E0,3.55466E1,8.374939E0,2.346936E1,1.545535E1,8.0539795E2,3.5279465E2,0E0,4.852117E1,0E0,2.7520218E0,4.408203E0,0E0,3.1753168E0,1.0471151E1,4.7031564E2,5.094624E2,1.0698779E2,0E0,0E0,0E0,0E0,0E0,0E0,0E0,0E0,0E0,0E0,0E0,0E0,0E0,0E0,0E0,0E0,0E0],"parents":[2147483647,0,0,1,1,2,2,3,3,4,4,5,5,6,6,9,9,10,10,11,11,12,12,13,13,14,14,16,16,18,18,19,19,21,21,22,22,23,23,24,24,25,25],"right_children":[2,4,6,8,10,12,14,-1,-1,16,18,20,22,24,26,-1,28,-1,30,32,-1,34,36,38,40,42,-1,-1,-1,-1,-1,-1,-1,-1,-1,-1,-1,-1,-1,-1,-1,-1,-1],"split_conditions":[1E0,-1.5E0,-1.8554688E-2,6.25E-2,2.5E0,-2.34375E-2,1.171875E-2,-0E0,-9.823598E-2,-2.34375E-2,8.604651E-1,3.25E0,-5.859375E-3,-1.3671875E-2,3.0273438E-2,-0E0,2.1972656E-2,-0E0,4.9682617E-2,2E2,-0E0,2E0,3.515625E-2,3E0,5.5E0,8.8134766E-2,-9.276649E-2,4.7401514E-2,-0E0,-0E0,-3.5745855E-2,-9.5850565E-2,-0E0,-2.6490165E-2,-0E0,2.1579746E-2,-0E0,-5.6790628E-2,5.088253E-2,9.055494E-2,-1.2725519E-2,3.1682856E-2,-2.9059175E-2],"split_indices":[0,10,8,2,10,8,8,0,0,9,1,10,9,9,8,0,9,0,2,6,0,7,9,6,10,2,0,0,0,0,0,0,0,0,0,0,0,0,0,0,0,0,0],"split_type":[0,0,0,0,0,0,0,0,0,0,0,0,0,0,0,0,0,0,0,0,0,0,0,0,0,0,0,0,0,0,0,0,0,0,0,0,0,0,0,0,0,0,0],"sum_hessian":[1.630026E4,5.0315825E3,1.1268678E4,4.1418247E3,8.897576E2,1.4290662E3,9.839611E3,9.155195E1,4.050273E3,4.5997324E2,4.297844E2,1.0702976E3,3.5876855E2,8.1155415E3,1.72407E3,7.154385E1,3.8842938E2,1.0332335E2,3.2646103E2,1.052666E3,1.7631588E1,1.6934113E2,1.8942744E2,1.4323267E3,6.683215E3,9.741929E2,7.4987714E2,3.168471E2,7.158228E1,2.95869E0,3.2350235E2,1.049969E3,2.6970387E0,1.6549669E2,3.8444328E0,1.2485461E2,6.4572845E1,6.498479E2,7.824787E2,6.37253E3,3.1068503E2,3.916159E2,5.8257697E2],"tree_param":{"num_deleted":"0","num_feature":"11","num_nodes":"43","size_leaf_vector":"1"}},{"base_weights":[-3.7465658E-2,6.782723E-1,-3.9458677E-1,8.0530304E-1,-2.2696191E-1,-8.321773E-1,-1.6790789E-2,-5.103525E-2,9.6372277E-1,-7.00429E-1,3.0482868E-2,-9.523769E-1,-2.971584E-1,-7.8971255E-1,1.8012255E-1,-6.637623E-1,3.103123E-1,-0E0,9.9535704E-1,-0E0,-7.200465E-1,-0E0,-9.6106574E-2,-6.368501E-1,-0E0,-8.7051386E-1,-0E0,5.196473E-1,-6.8963665E-1,-0E0,-7.1731865E-2,4.442842E-2,-0E0,1.00436725E-1,-0E0,-7.212494E-2,-0E0,-6.389564E-2,-0E0,2.4649788E-2,-1.8051885E-2,-8.747651E-2,-0E0,5.9578516E-2,-1.4254575E-2,-7.552788E-2,-0E0],"categories":[],"categories_nodes":[],"categories_segments":[],"categories_sizes":[],"default_left":[0,0,0,0,0,0,0,0,0,0,0,0,0,0,0,0,0,0,0,0,0,0,0,0,0,0,0,0,0,0,0,0,0,0,0,0,0,0,0,0,0,0,0,0,0,0,0],"id":18,"left_children":[1,3,5,7,9,11,13,15,17,19,-1,21,23,25,27,29,31,-1,33,-1,35,-1,-1,37,39,41,-1,43,45,-1,-1,-1,-1,-1,-1,-1,-1,-1,-1,-1,-1,-1,-1,-1,-1,-1,-1],"loss_changes":[3.9923752E3,6.6772974E2,1.6629149E3,7.24375E2,2.1557373E2,1.5399634E2,9.7361694E2,2.152075E2,1.5717725E2,9.343506E0,0E0,1.6900635E1,1.1897734E2,6.436572E1,1.4016941E3,1.2971069E1,3.342426E1,0E0,5.583008E1,0E0,9.211731E-2,0E0,0E0,1.052948E0,3.6771946E1,6.5770264E0,0E0,2.3067084E2,4.3713196E1,0E0,0E0,0E0,0E0,0E0,0E0,0E0,0E0,0E0,0E0,0E0,0E0,0E0,0E0,0E0,0E0,0E0,0E0],"parents":[2147483647,0,0,1,1,2,2,3,3,4,4,5,5,6,6,7,7,8,8,9,9,11,11,12,12,13,13,14,14,15,15,16,16,18,18,20,20,23,23,24,24,25,25,27,27,28,28],"right_children":[2,4,6,8,10,12,14,16,18,20,-1,22,24,26,28,30,32,-1,34,-1,36,-1,-1,38,40,42,-1,44,46,-1,-1,-1,-1,-1,-1,-1,-1,-1,-1,-1,-1,-1,-1,-1,-1,-1,-1],"split_conditions":[7.9589844E-2,3.125E-2,9.62963E-1,-1.5625E-2,5E0,-8.75E0,-1.3671875E-2,2E0,9.292035E-1,5E0,3.0482868E-2,1.0083008E-1,5.4E1,0E0,1.171875E-2,2.4169922E-2,1.6601562E-2,-0E0,8.3984375E-2,-0E0,7.763672E-2,-0E0,-9.6106574E-2,8E0,2.861328E-1,8E0,-0E0,4.25E0,2E1,-0E0,-7.1731865E-2,4.442842E-2,-0E0,1.00436725E-1,-0E0,-7.212494E-2,-0E0,-6.389564E-2,-0E0,2.4649788E-2,-1.8051885E-2,-8.747651E-2,-0E0,5.9578516E-2,-1.4254575E-2,-7.552788E-2,-0E0],"split_indices":[2,9,1,9,6,10,8,6,1,4,0,2,3,10,8,2,8,0,8,0,2,0,0,7,2,7,0,10,6,0,0,0,0,0,0,0,0,0,0,0,0,0,0,0,0,0,0],"split_type":[0,0,0,0,0,0,0,0,0,0,0,0,0,0,0,0,0,0,0,0,0,0,0,0,0,0,0,0,0,0,0,0,0,0,0,0,0,0,0,0,0,0,0,0,0,0,0],"sum_hessian":[1.5525587E4,5.0448374E3,1.0480749E4,4.5305737E3,5.1426373E2,4.6777163E3,5.803033E3,6.193306E2,3.9112432E3,3.5475162E2,1.5951213E2,3.6032725E3,1.0744436E3,1.2202227E3,4.5828105E3,3.0136514E2,3.1796548E2,9.227033E1,3.8189727E3,6.420263E0,3.4833136E2,4.836044E1,3.554912E3,4.4905423E2,6.253894E2,1.0714486E3,1.48774E2,3.4077627E3,1.1750477E3,3.248723E1,2.6887793E2,2.732322E2,4.4733284E1,3.8043193E3,1.4653465E1,3.4701428E2,1.3170701E0,4.4801935E2,1.0348676E0,2.5049637E2,3.7489304E2,1.0686853E3,2.7633748E0,3.2007837E3,2.0697902E2,1.0396769E3,1.3537079E2],"tree_param":{"num_deleted":"0","num_feature":"11","num_nodes":"47","size_leaf_vector":"1"}},{"base_weights":[-3.9297666E-2,4.207246E-1,-5.463475E-1,-5.6689876E-1,6.0735476E-1,-7.6623935E-1,3.5355515E-3,-7.4046254E-1,-0E0,7.5137293E-1,-2.587866E-1,-9.255461E-2,-2.9695022E-1,3.278944E-1,-3.724142E-1,-7.50533E-1,-0E0,1.0001602E-1,-0E0,-4.9115162E-2,9.334754E-1,-7.566676E-1,3.216302E-1,-5.6138307E-1,1.3275097E-1,-9.160623E-2,4.8122784E-1,-0E0,-4.2385396E-1,-0E0,-7.557123E-2,1.5934857E-2,-0E0,-7.2312966E-2,5.227482E-2,1.0030103E-1,-0E0,-0E0,-8.0103956E-2,-0E0,5.116151E-2,-7.2411455E-2,-0E0,3.385483E-2,-0E0,-1.3531796E-2,-0E0,6.256221E-2,-0E0,-0E0,-5.0149966E-2],"categories":[],"categories_nodes":[],"categories_segments":[],"categories_sizes":[],"default_left":[0,0,0,0,0,0,0,0,0,0,0,0,0,0,0,0,0,0,0,0,0,0,0,0,0,0,0,0,0,0,0,0,0,0,0,0,0,0,0,0,0,0,0,0,0,0,0,0,0,0,0],"id":19,"left_children":[1,3,5,7,9,11,13,15,17,19,21,-1,23,25,27,29,-1,31,-1,33,35,37,39,41,43,45,47,-1,49,-1,-1,-1,-1,-1,-1,-1,-1,-1,-1,-1,-1,-1,-1,-1,-1,-1,-1,-1,-1,-1,-1],"loss_changes":[3.5090762E3,1.4689807E3,9.5083105E2,1.5613434E2,8.995864E2,2.4616382E2,2.5592647E2,1.3223999E1,2.438158E0,9.4372217E2,3.351549E2,0E0,2.3761635E2,1.2625079E2,1.5413895E1,4.845886E0,0E0,3.418888E0,0E0,4.721102E2,4.126494E2,1.8856232E1,4.0910004E1,1.312478E2,4.814847E1,2.2737727E0,1.4060602E2,0E0,1.8885956E1,0E0,0E0,0E0,0E0,0E0,0E0,0E0,0E0,0E0,0E0,0E0,0E0,0E0,0E0,0E0,0E0,0E0,0E0,0E0,0E0,0E0,0E0],"parents":[2147483647,0,0,1,1,2,2,3,3,4,4,5,5,6,6,7,7,8,8,9,9,10,10,12,12,13,13,14,14,15,15,17,17,19,19,20,20,21,21,22,22,23,23,24,24,25,25,26,26,28,28],"right_children":[2,4,6,8,10,12,14,16,18,20,22,-1,24,26,28,30,-1,32,-1,34,36,38,40,42,44,46,48,-1,50,-1,-1,-1,-1,-1,-1,-1,-1,-1,-1,-1,-1,-1,-1,-1,-1,-1,-1,-1,-1,-1,-1],"split_conditions":[1.6113281E-1,9.512195E-1,-2E0,-9E0,2.734375E-2,6E0,2.25E0,2E2,5.5E0,-1.5625E-2,6E0,-9.255461E-2,9.8255813E-1,-1.3671875E-2,8.6538464E-1,1.1169434E-2,-0E0,1.953125E-2,-0E0,2.5E0,5.5E0,2.4658203E-2,-5.859375E-3,-2.55E1,2.1484375E-2,1.5E1,2.1484375E-2,-0E0,3.75E0,-0E0,-7.557123E-2,1.5934857E-2,-0E0,-7.2312966E-2,5.227482E-2,1.0030103E-1,-0E0,-0E0,-8.0103956E-2,-0E0,5.116151E-2,-7.2411455E-2,-0E0,3.385483E-2,-0E0,-1.3531796E-2,-0E0,6.256221E-2,-0E0,-0E0,-5.0149966E-2],"split_indices":[2,1,10,10,9,6,10,6,10,9,6,0,1,8,1,2,0,9,0,6,10,2,8,10,8,6,8,0,10,0,0,0,0,0,0,0,0,0,0,0,0,0,0,0,0,0,0,0,0,0,0],"split_type":[0,0,0,0,0,0,0,0,0,0,0,0,0,0,0,0,0,0,0,0,0,0,0,0,0,0,0,0,0,0,0,0,0,0,0,0,0,0,0,0,0,0,0,0,0,0,0,0,0,0,0],"sum_hessian":[1.4791596E4,7.6609688E3,7.1306274E3,1.100053E3,6.5609155E3,5.195513E3,1.9351145E3,8.881734E2,2.1187953E2,5.7358833E3,8.250323E2,3.6471323E3,1.5483806E3,1.1884923E3,7.466222E2,8.8530914E2,2.8642766E0,1.4373772E2,6.8141815E1,9.747876E2,4.7610957E3,5.204847E2,3.045476E2,1.0836132E3,4.647674E2,1.5433502E2,1.0341573E3,1.0722732E2,6.393949E2,4.97424E0,8.803349E2,1.3066533E2,1.3072378E1,5.155551E2,4.5923248E2,4.520631E3,2.4046466E2,3.7450542E1,4.8303418E2,8.837255E1,2.1617505E2,8.617096E2,2.2190361E2,4.0692572E2,5.7841694E1,1.4073445E2,1.3600571E1,9.3027936E2,1.03877914E2,1.361395E2,5.0325537E2],"tree_param":{"num_deleted":"0","num_feature":"11","num_nodes":"51","size_leaf_vector":"1"}},{"base_weights":[-4.0678483E-2,6.3120866E-1,-3.639114E-1,7.609289E-1,-1.6631287E-1,-6.7333376E-1,5.8835175E-2,-4.3510187E-2,8.5093117E-1,-4.3073425E-1,2.7419765E-2,-2.3313843E-1,-8.143629E-1,-5.1338756E-1,3.025089E-1,-3.3828968E-1,-0E0,-1.18166424E-1,9.169194E-1,-6.305145E-1,-0E0,6.839099E-2,-0E0,-6.083174E-1,1.263079E-1,-9.105604E-2,-3.4703264E-1,-6.7056376E-1,-0E0,5.6836414E-1,-6.5489197E-1,-0E0,-3.8490113E-2,-1.9142E-2,-0E0,9.500256E-2,-0E0,-0E0,-6.355681E-2,8.498251E-3,-0E0,-7.1285576E-2,-0E0,-4.430045E-2,5.5079848E-2,-5.462125E-2,-0E0,-7.828287E-2,-0E0,6.3816205E-2,-0E0,-7.500654E-2,-0E0],"categories":[],"categories_nodes":[],"categories_segments":[],"categories_sizes":[],"default_left":[0,0,0,0,0,0,0,0,0,0,0,0,0,0,0,0,0,0,0,0,0,0,0,0,0,0,0,0,0,0,0,0,0,0,0,0,0,0,0,0,0,0,0,0,0,0,0,0,0,0,0,0,0],"id":20,"left_children":[1,3,5,7,9,11,13,15,17,19,21,23,25,27,29,31,-1,33,35,37,-1,39,-1,41,43,-1,45,47,-1,49,51,-1,-1,-1,-1,-1,-1,-1,-1,-1,-1,-1,-1,-1,-1,-1,-1,-1,-1,-1,-1,-1,-1],"loss_changes":[3.068428E3,5.408677E2,1.336216E3,3.7570654E2,7.26635E1,2.3347461E2,5.607025E2,3.4545433E1,3.2954395E2,6.166201E1,8.3721614E-1,2.8626318E2,2.9014893E1,9.9826904E1,8.007363E2,7.768833E0,0E0,4.8470263E0,1.5869849E2,1.1077118E0,0E0,5.360451E-1,0E0,5.496292E1,2.3313889E2,0E0,2.1383362E1,6.8657745E1,0E0,1.3123364E2,6.62782E1,0E0,0E0,0E0,0E0,0E0,0E0,0E0,0E0,0E0,0E0,0E0,0E0,0E0,0E0,0E0,0E0,0E0,0E0,0E0,0E0,0E0,0E0],"parents":[2147483647,0,0,1,1,2,2,3,3,4,4,5,5,6,6,7,7,8,8,9,9,10,10,11,11,12,12,13,13,14,14,15,15,17,17,18,18,19,19,21,21,23,23,24,24,26,26,27,27,29,29,30,30],"right_children":[2,4,6,8,10,12,14,16,18,20,22,24,26,28,30,32,-1,34,36,38,-1,40,-1,42,44,-1,46,48,-1,50,52,-1,-1,-1,-1,-1,-1,-1,-1,-1,-1,-1,-1,-1,-1,-1,-1,-1,-1,-1,-1,-1,-1],"split_conditions":[7.9589844E-2,1.3183594E-2,9.8255813E-1,-5.078125E-2,-8.25E0,1.7626953E-1,-8.7890625E-3,5E0,-2.34375E-2,3E0,3.466797E-2,9.512195E-1,-7.5E0,-7.5E-1,2.1484375E-2,2.355957E-2,-0E0,2E1,8.59375E-2,3.1E1,-0E0,1.7578125E-2,-0E0,-9E0,9.082031E-2,-9.105604E-2,5.4E1,1E1,-0E0,3E0,6.25E0,-0E0,-3.8490113E-2,-1.9142E-2,-0E0,9.500256E-2,-0E0,-0E0,-6.355681E-2,8.498251E-3,-0E0,-7.1285576E-2,-0E0,-4.430045E-2,5.5079848E-2,-5.462125E-2,-0E0,-7.828287E-2,-0E0,6.3816205E-2,-0E0,-7.500654E-2,-0E0],"split_indices":[2,8,1,9,10,2,8,6,8,6,8,1,10,10,8,2,0,6,9,3,0,9,0,10,2,0,3,6,0,10,10,0,0,0,0,0,0,0,0,0,0,0,0,0,0,0,0,0,0,0,0,0,0],"split_type":[0,0,0,0,0,0,0,0,0,0,0,0,0,0,0,0,0,0,0,0,0,0,0,0,0,0,0,0,0,0,0,0,0,0,0,0,0,0,0,0,0,0,0,0,0,0,0,0,0,0,0,0,0],"sum_hessian":[1.4046069E4,4.4309775E3,9.615092E3,3.9228809E3,5.0809647E2,5.6540073E3,3.961085E3,2.8813217E2,3.6347488E3,3.8138858E2,1.26707886E2,1.6083225E3,4.0456848E3,1.0273864E3,2.9336985E3,2.0828601E2,7.9846146E1,1.300692E2,3.5046797E3,2.7976495E2,1.01623634E2,1.1543608E2,1.1271803E1,8.8918604E2,7.191365E2,3.0989565E3,9.4672833E2,7.828275E2,2.4455884E2,2.4096582E3,5.240403E2,1.7706345E1,1.9057967E2,1.1995624E2,1.0112954E1,3.433661E3,7.101878E1,3.2729874E0,2.7649197E2,1.1375024E2,1.6858462E0,7.2849585E2,1.6069017E2,2.0468369E2,5.1445276E2,3.9419653E2,5.5253174E2,6.5980817E2,1.2301935E2,2.2129436E3,1.9671457E2,4.9352994E2,3.0510376E1],"tree_param":{"num_deleted":"0","num_feature":"11","num_nodes":"53","size_leaf_vector":"1"}},{"base_weights":[-4.3771323E-2,-7.2372353E-1,2.4475957E-1,-9.105742E-1,-3.3762217E-2,6.953281E-1,-6.3649155E-2,-0E0,-9.12209E-2,-0E0,-3.618121E-1,-3.6820346E-1,7.8547776E-1,-7.435903E-1,8.133371E-2,-1.9250998E-1,2.2032954E-1,-3.6817592E-1,-0E0,-4.226988E-2,-0E0,8.406036E-1,-0E0,-0E0,-7.801872E-1,3.2327375E-1,-5.817802E-1,-0E0,-2.4459345E-2,4.140064E-2,-0E0,-0E0,-3.6948487E-2,-0E0,8.749643E-2,-1.7902141E-2,-0E0,-8.2015924E-2,-0E0,-3.2414913E-3,5.1773693E-2,-0E0,-6.251117E-2],"categories":[],"categories_nodes":[],"categories_segments":[],"categories_sizes":[],"default_left":[0,0,0,0,0,0,0,0,0,0,0,0,0,0,0,0,0,0,0,0,0,0,0,0,0,0,0,0,0,0,0,0,0,0,0,0,0,0,0,0,0,0,0],"id":21,"left_children":[1,3,5,7,9,11,13,-1,-1,15,17,19,21,23,25,27,29,31,-1,-1,-1,33,35,-1,37,39,41,-1,-1,-1,-1,-1,-1,-1,-1,-1,-1,-1,-1,-1,-1,-1,-1],"loss_changes":[2.7146023E3,4.376582E2,1.380927E3,4.8859863E0,4.7438133E1,4.522987E2,6.2142126E2,0E0,0E0,4.2178177E1,1.5341072E0,1.1272503E1,2.2187646E2,4.9575012E1,7.246085E2,5.0827847E0,4.1636044E1,8.1707E-2,0E0,0E0,0E0,1.6307007E2,6.457739E0,0E0,1.01623535E1,2.934149E2,4.6286743E1,0E0,0E0,0E0,0E0,0E0,0E0,0E0,0E0,0E0,0E0,0E0,0E0,0E0,0E0,0E0,0E0],"parents":[2147483647,0,0,1,1,2,2,3,3,4,4,5,5,6,6,9,9,10,10,11,11,12,12,13,13,14,14,15,15,16,16,17,17,21,21,22,22,24,24,25,25,26,26],"right_children":[2,4,6,8,10,12,14,-1,-1,16,18,20,22,24,26,28,30,32,-1,-1,-1,34,36,-1,38,40,42,-1,-1,-1,-1,-1,-1,-1,-1,-1,-1,-1,-1,-1,-1,-1,-1],"split_conditions":[1E0,-3.75E0,7.9589844E-2,1.1169434E-2,1.5625E-2,-8.225E1,-1.8554688E-2,-0E0,-9.12209E-2,-1.5625E-2,2E2,1.5E0,5.6640625E-2,9.4857144E-1,1.171875E-2,2.7E1,2.5E0,9.2285156E-2,-0E0,-4.226988E-2,-0E0,-2.734375E-2,5E0,-0E0,1.25E0,1.5E0,9.4857144E-1,-0E0,-2.4459345E-2,4.140064E-2,-0E0,-0E0,-3.6948487E-2,-0E0,8.749643E-2,-1.7902141E-2,-0E0,-8.2015924E-2,-0E0,-3.2414913E-3,5.1773693E-2,-0E0,-6.251117E-2],"split_indices":[0,10,2,2,9,10,8,0,0,9,6,6,9,1,8,3,10,2,0,0,0,8,6,0,10,6,1,0,0,0,0,0,0,0,0,0,0,0,0,0,0,0,0],"split_type":[0,0,0,0,0,0,0,0,0,0,0,0,0,0,0,0,0,0,0,0,0,0,0,0,0,0,0,0,0,0,0,0,0,0,0,0,0,0,0,0,0,0,0],"sum_hessian":[1.3402367E4,4.0511577E3,9.35121E3,3.0486365E3,1.00252136E3,3.8806204E3,5.4705894E3,5.4037495E0,3.0432327E3,7.3054346E2,2.7197787E2,1.9245448E2,3.688166E3,1.0101306E3,4.4604585E3,1.6078821E2,5.6975525E2,2.705473E2,1.4305549E0,1.8499715E2,7.4573236E0,3.5216091E3,1.6655696E2,2.0259975E1,9.8987067E2,3.4161238E3,1.044335E3,1.4279512E1,1.465087E2,3.3260687E2,2.371484E2,2.0222332E0,2.685251E2,6.585549E1,3.4557537E3,1.014979E2,6.505906E1,9.013334E2,8.8537254E1,1.0551906E3,2.360933E3,3.4695644E1,1.0096393E3],"tree_param":{"num_deleted":"0","num_feature":"11","num_nodes":"43","size_leaf_vector":"1"}},{"base_weights":[-4.55625E-2,-6.588074E-1,2.4525051E-1,9.0981126E-2,-7.362964E-1,-8.0946076E-1,3.760148E-1,2.727666E-1,-0E0,-8.761694E-2,-2.1775968E-1,-8.317267E-1,-0E0,5.8071584E-1,-4.1729856E-1,-0E0,3.301724E-1,-5.406412E-1,-0E0,-8.4525156E-1,-0E0,-1.342125E-1,7.073444E-1,-0E0,-8.4475124E-1,3.7421603E-2,-0E0,-0E0,-6.411791E-2,2.6529094E-2,-1.3553716E-2,-8.479651E-2,-0E0,-5.647884E-2,2.2108555E-2,7.9703934E-2,-0E0,1.0964606E-2,-3.72634E-2,-8.473372E-2,-0E0],"categories":[],"categories_nodes":[],"categories_segments":[],"categories_sizes":[],"default_left":[0,0,0,0,0,0,0,0,0,0,0,0,0,0,0,0,0,0,0,0,0,0,0,0,0,0,0,0,0,0,0,0,0,0,0,0,0,0,0,0,0],"id":22,"left_children":[1,3,5,7,9,11,13,15,-1,-1,17,19,-1,21,23,-1,25,27,29,31,-1,33,35,37,39,-1,-1,-1,-1,-1,-1,-1,-1,-1,-1,-1,-1,-1,-1,-1,-1],"loss_changes":[2.3646238E3,3.2101147E2,1.192154E3,1.9615004E1,1.6369873E2,2.1237976E1,1.3277484E3,8.822197E0,0E0,0E0,9.8451065E1,1.6181702E1,0E0,6.500564E2,2.5319055E2,0E0,7.8153286E0,8.10376E0,3.3821983E1,5.029907E-1,0E0,1.8984021E2,4.2368823E2,5.1717827E1,2.1929321E0,0E0,0E0,0E0,0E0,0E0,0E0,0E0,0E0,0E0,0E0,0E0,0E0,0E0,0E0,0E0,0E0],"parents":[2147483647,0,0,1,1,2,2,3,3,4,4,5,5,6,6,7,7,10,10,11,11,13,13,14,14,16,16,17,17,18,18,19,19,21,21,22,22,23,23,24,24],"right_children":[2,4,6,8,10,12,14,16,-1,-1,18,20,-1,22,24,-1,26,28,30,32,-1,34,36,38,40,-1,-1,-1,-1,-1,-1,-1,-1,-1,-1,-1,-1,-1,-1,-1,-1],"split_conditions":[9.62963E-1,6.25E-2,-2.34375E-2,1.5625E-2,-8.75E0,8E0,1.171875E-2,-3.515625E-2,-0E0,-8.761694E-2,5.4E1,8E0,-0E0,-4.296875E-2,3.0273438E-2,-0E0,1.075E1,1E0,2.861328E-1,2E2,-0E0,3.5E0,4.8828125E-2,1.2939453E-2,2.65E1,3.7421603E-2,-0E0,-0E0,-6.411791E-2,2.6529094E-2,-1.3553716E-2,-8.479651E-2,-0E0,-5.647884E-2,2.2108555E-2,7.9703934E-2,-0E0,1.0964606E-2,-3.72634E-2,-8.473372E-2,-0E0],"split_indices":[1,2,8,9,10,10,8,9,0,0,3,7,0,9,8,0,10,10,2,6,0,6,9,9,10,0,0,0,0,0,0,0,0,0,0,0,0,0,0,0,0],"split_type":[0,0,0,0,0,0,0,0,0,0,0,0,0,0,0,0,0,0,0,0,0,0,0,0,0,0,0,0,0,0,0,0,0,0,0,0,0,0,0,0,0],"sum_hessian":[1.2836616E4,4.199129E3,8.637487E3,2.7081277E2,3.9283162E3,8.111558E2,7.826332E3,2.0489166E2,6.592113E1,2.8875835E3,1.0407327E3,7.937252E2,1.7430609E1,6.3425874E3,1.4837448E3,1.5876662E1,1.89015E2,4.2188672E2,6.1884595E2,7.880021E2,5.7231355E0,8.346365E2,5.5079507E3,8.424648E2,6.4127997E2,1.8079565E2,8.219345E0,1.311219E2,2.9076483E2,2.6108228E2,3.5776367E2,7.830274E2,4.9746556E0,4.7793375E2,3.5670273E2,4.983728E3,5.2422284E2,6.3351697E2,2.0894785E2,6.3981665E2,1.4633015E0],"tree_param":{"num_deleted":"0","num_feature":"11","num_nodes":"41","size_leaf_vector":"1"}},{"base_weights":[-4.734461E-2,3.5070953E-1,-4.7677922E-1,-1.2546372E-1,6.2556374E-1,-7.286593E-1,-2.9127432E-2,-7.4378E-1,4.5790708E-1,-1.3496041E-1,7.657782E-1,-8.429023E-1,-2.9939038E-1,-3.1425297E-1,2.6363033E-1,-0E0,-8.062075E-1,-0E0,5.529377E-1,-4.0567112E-1,-0E0,8.3781505E-1,-2.3215806E-1,-0E0,-8.463808E-2,-4.8733234E-1,-0E0,-5.843982E-1,-0E0,3.8398403E-1,-0E0,-8.139154E-2,-0E0,-0E0,6.320779E-2,-0E0,-4.638606E-2,-0E0,1.1041213E-2,8.982411E-2,-0E0,-0E0,-3.5373658E-2,-0E0,-5.153356E-2,7.227515E-3,-2.4548998E-2,-0E0,-5.87517E-2,1.0533209E-2,-8.4566866E-4,-0E0,5.3035166E-2,-3.768531E-3,-0E0],"categories":[],"categories_nodes":[],"categories_segments":[],"categories_sizes":[],"default_left":[0,0,0,0,0,0,0,0,0,0,0,0,0,0,0,0,0,0,0,0,0,0,0,0,0,0,0,0,0,0,0,0,0,0,0,0,0,0,0,0,0,0,0,0,0,0,0,0,0,0,0,0,0,0,0],"id":23,"left_children":[1,3,5,7,9,11,13,15,17,19,21,23,25,27,29,-1,31,-1,33,35,37,39,41,-1,-1,43,45,47,49,51,53,-1,-1,-1,-1,-1,-1,-1,-1,-1,-1,-1,-1,-1,-1,-1,-1,-1,-1,-1,-1,-1,-1,-1,-1],"loss_changes":[2.1434202E3,8.8959827E2,6.1131287E2,8.835847E2,5.19067E2,4.5148315E1,2.1769202E2,4.269806E1,8.531459E1,5.635347E1,3.4273877E2,1.296228E1,2.96473E1,1.546744E2,6.951873E1,0E0,4.6520996E0,0E0,8.410388E1,1.822461E1,2.5895014E0,1.702356E2,1.3916973E1,0E0,0E0,1.0941681E1,2.5888494E1,1.1086121E0,5.8085456E0,1.0123816E2,2.5613254E-1,0E0,0E0,0E0,0E0,0E0,0E0,0E0,0E0,0E0,0E0,0E0,0E0,0E0,0E0,0E0,0E0,0E0,0E0,0E0,0E0,0E0,0E0,0E0,0E0],"parents":[2147483647,0,0,1,1,2,2,3,3,4,4,5,5,6,6,7,7,8,8,9,9,10,10,11,11,12,12,13,13,14,14,16,16,18,18,19,19,20,20,21,21,22,22,25,25,26,26,27,27,28,28,29,29,30,30],"right_children":[2,4,6,8,10,12,14,16,18,20,22,24,26,28,30,-1,32,-1,34,36,38,40,42,-1,-1,44,46,48,50,52,54,-1,-1,-1,-1,-1,-1,-1,-1,-1,-1,-1,-1,-1,-1,-1,-1,-1,-1,-1,-1,-1,-1,-1,-1],"split_conditions":[1.6113281E-1,1.5E0,9.8255813E-1,-1.225E1,9.512195E-1,-1.025E1,3E0,2.4658203E-2,9.4857144E-1,-2.55E1,8E0,1.6357422E-1,6.1E1,-7.5E-1,2.1484375E-2,-0E0,2E0,-0E0,-1.5625E-2,6.1523438E-2,-5.859375E-3,5.46875E-2,4.4433594E-2,-0E0,-8.463808E-2,1.8310547E-1,4.1601562E-1,9.84375E-1,2.5E0,-2.34375E-2,2.5E-1,-8.139154E-2,-0E0,-0E0,6.320779E-2,-0E0,-4.638606E-2,-0E0,1.1041213E-2,8.982411E-2,-0E0,-0E0,-3.5373658E-2,-0E0,-5.153356E-2,7.227515E-3,-2.4548998E-2,-0E0,-5.87517E-2,1.0533209E-2,-8.4566866E-4,-0E0,5.3035166E-2,-3.768531E-3,-0E0],"split_indices":[2,6,1,10,1,10,6,2,1,10,10,2,3,10,8,0,7,0,9,2,9,9,2,0,0,2,2,1,10,8,10,0,0,0,0,0,0,0,0,0,0,0,0,0,0,0,0,0,0,0,0,0,0,0,0],"split_type":[0,0,0,0,0,0,0,0,0,0,0,0,0,0,0,0,0,0,0,0,0,0,0,0,0,0,0,0,0,0,0,0,0,0,0,0,0,0,0,0,0,0,0,0,0,0,0,0,0,0,0,0,0,0,0],"sum_hessian":[1.2267581E4,6.2550654E3,6.0125156E3,2.1759128E3,4.0791528E3,3.6644685E3,2.3480469E3,1.1261859E3,1.0497268E3,5.245491E2,3.5546038E3,2.6341262E3,1.0303424E3,1.3588546E3,9.891922E2,1.1685127E2,1.0093346E3,8.21926E1,9.6753424E2,3.1155493E2,2.1299414E2,3.4237124E3,1.3089133E2,4.3323083E0,2.629794E3,4.5144864E2,5.7889374E2,7.7474347E2,5.841112E2,8.849087E2,1.0428348E2,9.9544525E2,1.3889373E1,4.0077717E1,9.2745654E2,1.207944E1,2.994755E2,1.0058044E2,1.1241371E2,3.1765588E3,2.4715352E2,2.0218424E1,1.106729E2,1.7102446E1,4.3434622E2,2.824703E2,2.964234E2,6.050655E0,7.686928E2,4.218448E2,1.6226642E2,1.0868922E2,7.762195E2,8.035184E1,2.3931643E1],"tree_param":{"num_deleted":"0","num_feature":"11","num_nodes":"55","size_leaf_vector":"1"}},{"base_weights":[-4.9088795E-2,5.726663E-1,-3.057106E-1,-0E0,8.27505E-1,-6.6813165E-1,-0E0,-5.4099935E-1,5.0795364E-1,8.652305E-1,-0E0,-7.967576E-1,-1.23800255E-1,-5.438346E-1,1.8388951E-1,-0E0,-5.840887E-1,-0E0,5.847111E-1,8.923002E-1,-0E0,-7.992724E-2,-0E0,-4.75778E-1,2.3806712E-3,-6.9168586E-1,-0E0,4.9613336E-1,-5.1505727E-1,-0E0,-5.9790462E-2,6.497144E-2,-0E0,9.115865E-2,-0E0,-0E0,-5.7330113E-2,2.5250895E-2,-3.9439024E-3,-0E0,-7.182522E-2,5.949069E-2,-8.7136375E-3,-0E0,-5.5333413E-2],"categories":[],"categories_nodes":[],"categories_segments":[],"categories_sizes":[],"default_left":[0,0,0,0,0,0,0,0,0,0,0,0,0,0,0,0,0,0,0,0,0,0,0,0,0,0,0,0,0,0,0,0,0,0,0,0,0,0,0,0,0,0,0,0,0],"id":24,"left_children":[1,3,5,7,9,11,13,15,17,19,-1,21,23,25,27,-1,29,-1,31,33,-1,-1,-1,35,37,39,-1,41,43,-1,-1,-1,-1,-1,-1,-1,-1,-1,-1,-1,-1,-1,-1,-1,-1],"loss_changes":[1.8788933E3,4.300869E2,9.1010724E2,3.635791E2,8.38042E1,1.6623169E2,5.129112E2,1.8138123E1,5.467447E1,6.5203125E1,0E0,6.738281E-2,9.182256E1,1.0125351E2,8.0999506E2,0E0,3.0688782E0,0E0,5.013922E1,4.1829346E1,0E0,0E0,0E0,1.9014915E1,2.8848488E1,1.10364685E1,0E0,2.0807239E2,3.211734E1,0E0,0E0,0E0,0E0,0E0,0E0,0E0,0E0,0E0,0E0,0E0,0E0,0E0,0E0,0E0,0E0],"parents":[2147483647,0,0,1,1,2,2,3,3,4,4,5,5,6,6,7,7,8,8,9,9,11,11,12,12,13,13,14,14,16,16,18,18,19,19,23,23,24,24,25,25,27,27,28,28],"right_children":[2,4,6,8,10,12,14,16,18,20,-1,22,24,26,28,-1,30,-1,32,34,-1,-1,-1,36,38,40,-1,42,44,-1,-1,-1,-1,-1,-1,-1,-1,-1,-1,-1,-1,-1,-1,-1,-1],"split_conditions":[7.2509766E-2,1.5E0,9.6899223E-1,-1.625E1,2.1484375E-2,-4.25E0,-8.7890625E-3,1.1169434E-2,-1.5625E-2,8.59375E-2,-0E0,9.6875E-1,5.4E1,-2E0,1.171875E-2,-0E0,5E0,-0E0,1.7578125E-2,8E0,-0E0,-7.992724E-2,-0E0,1E0,5.3125E-1,9.785714E-1,-0E0,3E0,8.8134766E-2,-0E0,-5.9790462E-2,6.497144E-2,-0E0,9.115865E-2,-0E0,-0E0,-5.7330113E-2,2.5250895E-2,-3.9439024E-3,-0E0,-7.182522E-2,5.949069E-2,-8.7136375E-3,-0E0,-5.5333413E-2],"split_indices":[2,6,1,10,8,10,8,2,9,9,0,1,3,10,8,0,4,0,9,10,0,0,0,10,2,1,0,10,2,0,0,0,0,0,0,0,0,0,0,0,0,0,0,0,0],"split_type":[0,0,0,0,0,0,0,0,0,0,0,0,0,0,0,0,0,0,0,0,0,0,0,0,0,0,0,0,0,0,0,0,0,0,0,0,0,0,0,0,0,0,0,0,0],"sum_hessian":[1.17333545E4,3.2781262E3,8.455229E3,1.1321976E3,2.1459285E3,3.729907E3,4.7253213E3,4.7264023E2,6.595574E2,2.06629E3,7.963849E1,2.830882E3,8.990247E2,1.2222826E3,3.5030388E3,2.8207008E1,4.4443323E2,2.64115E1,6.331459E2,2.0187395E3,4.755063E1,2.8125735E3,1.830879E1,3.7326535E2,5.257594E2,9.29048E2,2.9323468E2,2.5402917E3,9.627472E2,1.6285536E1,4.281477E2,6.1256055E2,2.0585323E1,1.9803732E3,3.836627E1,8.946433E1,2.8380103E2,3.4567178E2,1.8008763E2,5.3322697E1,8.757253E2,2.3173186E3,2.2297313E2,3.704812E1,9.2569904E2],"tree_param":{"num_deleted":"0","num_feature":"11","num_nodes":"45","size_leaf_vector":"1"}},{"base_weights":[-4.9631137E-2,3.1758136E-1,-4.4108096E-1,-1.20305225E-1,5.812776E-1,-6.371428E-1,-0E0,-6.422759E-1,4.504501E-1,-8.449202E-2,7.13601E-1,-8.448046E-1,-2.038478E-1,2.2136244E-1,-3.215563E-1,-0E0,-7.216696E-1,5.61426E-1,-0E0,-3.4890193E-1,-0E0,7.897183E-1,-1.9863556E-1,-8.4654994E-2,-0E0,-3.9281005E-1,-0E0,-3.8070906E-2,3.6283565E-1,-0E0,-3.7900335E-1,-7.305395E-2,-0E0,6.2445264E-2,-0E0,-0E0,-4.0612992E-2,-0E0,8.664726E-3,8.532742E-2,-0E0,-0E0,-3.1660885E-2,-5.409457E-2,-0E0,2.1103261E-2,-0E0,-7.931439E-3,-0E0,4.8623346E-2,-0E0,-4.607897E-2,-0E0],"categories":[],"categories_nodes":[],"categories_segments":[],"categories_sizes":[],"default_left":[0,0,0,0,0,0,0,0,0,0,0,0,0,0,0,0,0,0,0,0,0,0,0,0,0,0,0,0,0,0,0,0,0,0,0,0,0,0,0,0,0,0,0,0,0,0,0,0,0,0,0,0,0],"id":25,"left_children":[1,3,5,7,9,11,13,15,17,19,21,23,25,27,29,-1,31,33,-1,35,37,39,41,-1,-1,43,45,47,49,-1,51,-1,-1,-1,-1,-1,-1,-1,-1,-1,-1,-1,-1,-1,-1,-1,-1,-1,-1,-1,-1,-1,-1],"loss_changes":[1.6596989E3,7.215647E2,4.8950537E2,6.7857996E2,4.0132642E2,2.3106921E2,1.3888579E2,6.4262146E1,8.219739E1,4.260047E1,3.0277698E2,5.71167E-1,9.9132645E1,7.609749E1,1.72015E1,0E0,6.0891724E0,5.7527283E1,0E0,1.4694962E1,1.8951485E0,1.5254993E2,1.2050148E1,0E0,0E0,8.2980896E1,1.7129778E1,1.1146865E0,8.624733E1,0E0,1.740979E1,0E0,0E0,0E0,0E0,0E0,0E0,0E0,0E0,0E0,0E0,0E0,0E0,0E0,0E0,0E0,0E0,0E0,0E0,0E0,0E0,0E0,0E0],"parents":[2147483647,0,0,1,1,2,2,3,3,4,4,5,5,6,6,7,7,8,8,9,9,10,10,11,11,12,12,13,13,14,14,16,16,17,17,19,19,20,20,21,21,22,22,25,25,26,26,27,27,28,28,30,30],"right_children":[2,4,6,8,10,12,14,16,18,20,22,24,26,28,30,-1,32,34,-1,36,38,40,42,-1,-1,44,46,48,50,-1,52,-1,-1,-1,-1,-1,-1,-1,-1,-1,-1,-1,-1,-1,-1,-1,-1,-1,-1,-1,-1,-1,-1],"split_conditions":[1.6113281E-1,1.5E0,-2E0,-8.25E0,9.512195E-1,3.5E0,2.25E0,2.4658203E-2,5.5E0,-2.525E1,8E0,3E0,-2.05E1,-1.3671875E-2,8.6538464E-1,-0E0,2E0,1.7578125E-2,-0E0,6.1523438E-2,-1.3671875E-2,5.46875E-2,4.4433594E-2,-8.4654994E-2,-0E0,9.8255813E-1,3.5253906E-1,1.5E1,2.5390625E-2,-0E0,7.8125E-3,-7.305395E-2,-0E0,6.2445264E-2,-0E0,-0E0,-4.0612992E-2,-0E0,8.664726E-3,8.532742E-2,-0E0,-0E0,-3.1660885E-2,-5.409457E-2,-0E0,2.1103261E-2,-0E0,-7.931439E-3,-0E0,4.8623346E-2,-0E0,-4.607897E-2,-0E0],"split_indices":[2,6,10,10,1,6,10,2,10,10,10,7,10,8,1,0,7,9,0,2,9,9,2,0,0,1,2,6,8,0,8,0,0,0,0,0,0,0,0,0,0,0,0,0,0,0,0,0,0,0,0,0,0],"split_type":[0,0,0,0,0,0,0,0,0,0,0,0,0,0,0,0,0,0,0,0,0,0,0,0,0,0,0,0,0,0,0,0,0,0,0,0,0,0,0,0,0,0,0,0,0,0,0,0,0,0,0,0,0],"sum_hessian":[1.1262745E4,5.6892065E3,5.5735386E3,2.0162433E3,3.6729631E3,3.8248735E3,1.7486652E3,1.1380981E3,8.7814514E2,4.8966962E2,3.1832937E3,2.3654443E3,1.4594292E3,1.0508545E3,6.9781067E2,1.3404155E2,1.00405664E3,7.904472E2,8.769792E1,2.84532E2,2.0513759E2,3.0517092E3,1.315843E2,2.3560864E3,9.358098E0,9.624325E2,4.969967E2,1.4718639E2,9.0366815E2,1.03773926E2,5.9403674E2,9.8881915E2,1.523744E1,7.672988E2,2.3148369E1,1.1642052E1,2.7288998E2,5.2711872E1,1.5242572E2,2.8092112E3,2.4249817E2,2.0218424E1,1.1136588E2,7.437974E2,2.1863503E2,2.846383E2,2.1235838E2,1.3414566E2,1.3040729E1,8.2368335E2,7.998476E1,4.5152475E2,1.4251198E2],"tree_param":{"num_deleted":"0","num_feature":"11","num_nodes":"53","size_leaf_vector":"1"}},{"base_weights":[-5.0441843E-2,-6.18803E-1,1.785224E-1,-7.9571885E-1,-0E0,5.850966E-1,-5.8513626E-2,-8.6734563E-1,-1.047619E-1,1.0937329E-2,-1.7191495E-1,-5.3756824E-3,7.200122E-1,-3.2716736E-1,2.1485358E-1,-0E0,-8.694153E-2,-0E0,-3.7218314E-2,-0E0,1.603022E-1,-0E0,-2.3827402E-1,-4.4367915E-1,2.0737807E-1,8.5194105E-1,-0E0,-5.9489834E-1,5.4501038E-2,3.919385E-1,-3.316381E-1,4.0066116E-3,-0E0,2.9756973E-2,-0E0,-2.4358258E-2,-0E0,-0E0,-5.169953E-2,-0E0,2.4902865E-2,8.857249E-2,-0E0,-3.586095E-2,1.3155936E-2,-6.974868E-2,-3.6183668E-3,2.820761E-2,-4.9343638E-2,-1.3436518E-2,5.1504653E-2,-0E0,-3.8681403E-2],"categories":[],"categories_nodes":[],"categories_segments":[],"categories_sizes":[],"default_left":[0,0,0,0,0,0,0,0,0,0,0,0,0,0,0,0,0,0,0,0,0,0,0,0,0,0,0,0,0,0,0,0,0,0,0,0,0,0,0,0,0,0,0,0,0,0,0,0,0,0,0,0,0],"id":26,"left_children":[1,3,5,7,9,11,13,15,17,19,21,23,25,27,29,-1,-1,31,-1,-1,33,-1,35,37,39,41,43,45,47,49,51,-1,-1,-1,-1,-1,-1,-1,-1,-1,-1,-1,-1,-1,-1,-1,-1,-1,-1,-1,-1,-1,-1],"loss_changes":[1.4740688E3,3.053828E2,8.005598E2,1.5716675E1,1.274913E1,3.1159998E2,3.7191467E2,3.6380615E0,4.450798E1,1.3007306E1,6.671091E0,8.142802E1,3.0996582E2,3.2835797E2,2.3799869E2,0E0,0E0,3.124902E-1,0E0,0E0,2.5679996E1,0E0,7.9626274E-1,1.5912262E1,4.354349E0,6.757703E1,4.1261845E1,2.2781738E1,1.2138322E2,1.6763681E2,1.5090008E1,0E0,0E0,0E0,0E0,0E0,0E0,0E0,0E0,0E0,0E0,0E0,0E0,0E0,0E0,0E0,0E0,0E0,0E0,0E0,0E0,0E0,0E0],"parents":[2147483647,0,0,1,1,2,2,3,3,4,4,5,5,6,6,7,7,8,8,9,9,10,10,11,11,12,12,13,13,14,14,17,17,20,20,22,22,23,23,24,24,25,25,26,26,27,27,28,28,29,29,30,30],"right_children":[2,4,6,8,10,12,14,16,18,20,22,24,26,28,30,-1,-1,32,-1,-1,34,-1,36,38,40,42,44,46,48,50,52,-1,-1,-1,-1,-1,-1,-1,-1,-1,-1,-1,-1,-1,-1,-1,-1,-1,-1,-1,-1,-1,-1],"split_conditions":[1E0,-1.5E0,7.9589844E-2,9.3939394E-1,3.75E0,-1.5625E-2,3E0,1.1169434E-2,5.3125E-1,-2.34375E-2,8.604651E-1,5E0,3.125E-2,-2E0,2E0,-0E0,-8.694153E-2,2.1484375E-2,-3.7218314E-2,-0E0,2.734375E-2,-0E0,2E2,2.4169922E-2,-2.734375E-2,5.5E0,5E0,1.5E0,1.975E1,-2.2460938E-2,2.3E1,4.0066116E-3,-0E0,2.9756973E-2,-0E0,-2.4358258E-2,-0E0,-0E0,-5.169953E-2,-0E0,2.4902865E-2,8.857249E-2,-0E0,-3.586095E-2,1.3155936E-2,-6.974868E-2,-3.6183668E-3,2.820761E-2,-4.9343638E-2,-1.3436518E-2,5.1504653E-2,-0E0,-3.8681403E-2],"split_indices":[0,10,2,1,10,9,6,2,2,9,1,6,9,10,7,0,0,8,0,0,9,0,6,2,8,10,6,6,10,8,3,0,0,0,0,0,0,0,0,0,0,0,0,0,0,0,0,0,0,0,0,0,0],"split_type":[0,0,0,0,0,0,0,0,0,0,0,0,0,0,0,0,0,0,0,0,0,0,0,0,0,0,0,0,0,0,0,0,0,0,0,0,0,0,0,0,0,0,0,0,0,0,0,0,0,0,0,0,0],"sum_hessian":[1.0804064E4,3.1790789E3,7.624986E3,2.3653762E3,8.137027E2,2.9095098E3,4.715476E3,1.9889413E3,3.7643488E2,4.8469598E2,3.290067E2,4.2114325E2,2.4883665E3,2.55281E3,2.162666E3,5.1208253E0,1.9838204E3,1.1737645E2,2.5905844E2,7.5790184E1,4.089058E2,8.8179886E1,2.4082684E2,2.5574905E2,1.653942E2,2.1758506E3,3.1251587E2,1.6215044E3,9.3130554E2,1.7929468E3,3.6971927E2,9.4662346E1,2.2714098E1,3.3769894E2,7.120686E1,2.3955333E2,1.2735065E0,3.421153E1,2.2153752E2,1.1137415E1,1.5425679E2,2.0916875E3,8.4163124E1,1.9104544E2,1.2147043E2,1.197758E3,4.2374637E2,8.212419E2,1.10063705E2,1.8416731E2,1.6087794E3,2.3593996E1,3.4612527E2],"tree_param":{"num_deleted":"0","num_feature":"11","num_nodes":"53","size_leaf_vector":"1"}},{"base_weights":[-5.1944192E-2,2.857989E-1,-4.0799975E-1,-0E0,6.5667874E-1,-6.2107736E-1,-0E0,-5.117809E-1,4.7600245E-1,-0E0,7.433816E-1,-7.645737E-2,-2.5678E-1,-2.288811E-1,2.1267503E-1,-0E0,-6.1224E-1,6.765056E-1,-3.1772783E-1,-8.461077E-2,-0E0,7.8921115E-1,-0E0,-0E0,-4.3702987E-1,-0E0,-3.9493632E-1,3.3047152E-1,-0E0,-6.78925E-2,-0E0,7.3955715E-2,-0E0,-4.671888E-2,-0E0,-0E0,-9.77916E-3,8.313094E-2,-0E0,8.420548E-3,-2.4043674E-2,-0E0,-4.5887385E-2,-0E0,4.162758E-3,-4.257258E-2,-0E0,-0E0,4.268581E-2],"categories":[],"categories_nodes":[],"categories_segments":[],"categories_sizes":[],"default_left":[0,0,0,0,0,0,0,0,0,0,0,0,0,0,0,0,0,0,0,0,0,0,0,0,0,0,0,0,0,0,0,0,0,0,0,0,0,0,0,0,0,0,0,0,0,0,0,0,0],"id":27,"left_children":[1,3,5,7,9,11,13,15,17,19,21,-1,23,25,27,-1,29,31,33,35,-1,37,-1,39,41,43,45,47,-1,-1,-1,-1,-1,-1,-1,-1,-1,-1,-1,-1,-1,-1,-1,-1,-1,-1,-1,-1,-1],"loss_changes":[1.2850011E3,5.8421265E2,4.0760535E2,7.658237E2,1.7551624E2,5.2819458E1,1.0605424E2,1.0967908E2,3.105706E2,1.5378103E0,1.15615234E2,0E0,5.186228E1,6.861006E1,4.864176E1,0E0,2.2059998E1,1.0453284E2,2.456248E1,5.055077E-1,0E0,7.42572E1,0E0,1.8495157E1,1.03437195E1,6.872263E-1,1.8085083E1,5.05533E1,0E0,0E0,0E0,0E0,0E0,0E0,0E0,0E0,0E0,0E0,0E0,0E0,0E0,0E0,0E0,0E0,0E0,0E0,0E0,0E0,0E0],"parents":[2147483647,0,0,1,1,2,2,3,3,4,4,5,5,6,6,7,7,8,8,9,9,10,10,12,12,13,13,14,14,16,16,17,17,18,18,19,19,21,21,23,23,24,24,25,25,26,26,27,27],"right_children":[2,4,6,8,10,12,14,16,18,20,22,-1,24,26,28,-1,30,32,34,36,-1,38,-1,40,42,44,46,48,-1,-1,-1,-1,-1,-1,-1,-1,-1,-1,-1,-1,-1,-1,-1,-1,-1,-1,-1,-1,-1],"split_conditions":[1.6113281E-1,3E0,9.894737E-1,-9E0,1E0,-1.65E1,3E0,2.4658203E-2,5.5E0,-4.425E1,3.90625E-2,-7.645737E-2,3.3789062E-1,2.9589844E-1,2.1484375E-2,-0E0,2E0,1.7578125E-2,1.0595703E-1,6.8847656E-2,-0E0,8.59375E-2,-0E0,1.525E1,2.3E1,-1.5625E-2,1.975E1,-2.734375E-2,-0E0,-6.78925E-2,-0E0,7.3955715E-2,-0E0,-4.671888E-2,-0E0,-0E0,-9.77916E-3,8.313094E-2,-0E0,8.420548E-3,-2.4043674E-2,-0E0,-4.5887385E-2,-0E0,4.162758E-3,-4.257258E-2,-0E0,-0E0,4.268581E-2],"split_indices":[2,6,1,10,0,10,6,2,10,10,8,0,2,2,8,0,6,9,2,2,0,9,0,10,3,9,10,8,0,0,0,0,0,0,0,0,0,0,0,0,0,0,0,0,0,0,0,0,0],"split_type":[0,0,0,0,0,0,0,0,0,0,0,0,0,0,0,0,0,0,0,0,0,0,0,0,0,0,0,0,0,0,0,0,0,0,0,0,0,0,0,0,0,0,0,0,0,0,0,0,0],"sum_hessian":[1.0387026E4,5.1965854E3,5.190441E3,2.9385627E3,2.258023E3,3.2397676E3,1.9506732E3,1.447575E3,1.4909878E3,2.003602E2,2.0576628E3,2.048492E3,1.1912755E3,1.1266593E3,8.240139E2,1.7359578E2,1.2739791E3,1.3026766E3,1.8831116E2,1.1480852E2,8.555168E1,1.9999691E3,5.7693626E1,5.7395984E2,6.1731573E2,3.74787E2,7.518724E2,7.280777E2,9.593625E1,1.0651854E3,2.0879378E2,1.2648207E3,3.7855915E1,1.4588313E2,4.2428032E1,1.143776E0,1.1366474E2,1.9001176E3,9.985161E1,4.1750214E2,1.5645772E2,1.754434E1,5.9977136E2,7.8201004E1,2.9658597E2,7.328932E2,1.897917E1,5.4297375E1,6.737803E2],"tree_param":{"num_deleted":"0","num_feature":"11","num_nodes":"49","size_leaf_vector":"1"}},{"base_weights":[-5.2322026E-2,4.8862347E-1,-2.6294506E-1,7.673492E-3,7.9406226E-1,-7.5735044E-1,-7.498313E-2,-3.7865627E-1,5.127957E-1,8.227161E-1,-0E0,-8.05855E-2,-0E0,1.5828915E-1,-6.3540125E-1,-0E0,-5.1302093E-1,6.028091E-1,-0E0,-0E0,8.541938E-1,-0E0,-7.676296E-2,-1.8757938E-1,3.6523706E-1,-7.4094254E-1,-0E0,-0E0,-5.731949E-2,6.45496E-2,-0E0,-0E0,8.6250484E-2,-0E0,-8.101004E-3,-3.9752614E-2,-0E0,4.6298217E-2,-1.5591808E-2,-0E0,-8.115837E-2,-1.2089907E-2,-0E0],"categories":[],"categories_nodes":[],"categories_segments":[],"categories_sizes":[],"default_left":[0,0,0,0,0,0,0,0,0,0,0,0,0,0,0,0,0,0,0,0,0,0,0,0,0,0,0,0,0,0,0,0,0,0,0,0,0,0,0,0,0,0,0],"id":28,"left_children":[1,3,5,7,9,11,13,15,17,19,-1,-1,21,23,25,-1,27,29,-1,-1,31,-1,33,35,37,39,41,-1,-1,-1,-1,-1,-1,-1,-1,-1,-1,-1,-1,-1,-1,-1,-1],"loss_changes":[1.1416763E3,3.208427E2,6.0542676E2,2.8457462E2,4.7089172E1,5.456543E-2,7.9915247E2,4.2727272E1,5.5913437E1,4.6335205E1,0E0,0E0,1.7110702E0,3.0794507E2,6.367755E1,0E0,1.682611E1,3.0757568E1,0E0,0E0,1.44383545E1,0E0,1.2854004E-1,8.8789215E1,1.7502484E2,2.2507751E1,4.084535E0,0E0,0E0,0E0,0E0,0E0,0E0,0E0,0E0,0E0,0E0,0E0,0E0,0E0,0E0,0E0,0E0],"parents":[2147483647,0,0,1,1,2,2,3,3,4,4,5,5,6,6,7,7,8,8,9,9,12,12,13,13,14,14,16,16,17,17,20,20,22,22,23,23,24,24,25,25,26,26],"right_children":[2,4,6,8,10,12,14,16,18,20,-1,-1,22,24,26,-1,28,30,-1,-1,32,-1,34,36,38,40,42,-1,-1,-1,-1,-1,-1,-1,-1,-1,-1,-1,-1,-1,-1,-1,-1],"split_conditions":[7.2509766E-2,2E0,-1.3671875E-2,-8.75E0,9.375E-2,1.25E0,1.171875E-2,2.4658203E-2,5.5E0,9.2753625E-1,-0E0,-8.05855E-2,1.8310547E-1,9.6875E-1,-2.5E-1,-0E0,4.3E1,1.7578125E-2,-0E0,-0E0,-5.2734375E-2,-0E0,1.5E0,3E0,3E0,1.5625E-2,9.8224854E-1,-0E0,-5.731949E-2,6.45496E-2,-0E0,-0E0,8.6250484E-2,-0E0,-8.101004E-3,-3.9752614E-2,-0E0,4.6298217E-2,-1.5591808E-2,-0E0,-8.115837E-2,-1.2089907E-2,-0E0],"split_indices":[2,6,8,10,9,10,8,2,10,1,0,0,2,1,10,0,3,9,0,0,8,0,10,6,10,8,1,0,0,0,0,0,0,0,0,0,0,0,0,0,0,0,0],"split_type":[0,0,0,0,0,0,0,0,0,0,0,0,0,0,0,0,0,0,0,0,0,0,0,0,0,0,0,0,0,0,0,0,0,0,0,0,0,0,0,0,0,0,0],"sum_hessian":[1.0005676E4,2.6339922E3,7.371684E3,1.1900406E3,1.4439515E3,1.8005801E3,5.571104E3,5.7632104E2,6.137196E2,1.4078477E3,3.610392E1,1.578757E3,2.21823E2,3.8583816E3,1.7127222E3,1.4553223E2,4.3078882E2,5.7035474E2,4.3364864E1,4.5579372E1,1.3622683E3,3.1444574E1,1.9037843E2,1.2670045E3,2.5913772E3,1.3490759E3,3.6364636E2,5.4381702E1,3.764071E2,5.584432E2,1.191155E1,8.636175E0,1.3536321E3,1.0062279E1,1.8031615E2,7.662358E2,5.0076868E2,2.3530881E3,2.3828914E2,2.0710846E2,1.1419674E3,1.7944527E2,1.8420108E2],"tree_param":{"num_deleted":"0","num_feature":"11","num_nodes":"43","size_leaf_vector":"1"}},{"base_weights":[-5.2404627E-2,-5.52113E-1,1.4262317E-1,-7.645514E-1,-0E0,-3.4270346E-1,3.2102913E-1,-8.340005E-1,-1.9969074E-2,-0E0,-2.5162682E-1,-6.841725E-1,1.606074E-4,6.006688E-1,-3.5261706E-1,-0E0,-8.3619714E-1,-0E0,-2.854217E-2,-1.0595747E-1,1.9167487E-1,-2.7975012E-2,-0E0,-0E0,-7.265395E-1,3.3562395E-1,-1.419122E-1,7.4998415E-1,-3.0446568E-1,-7.584833E-1,2.7791464E-1,-8.4190376E-2,-0E0,-0E0,-1.5713666E-2,3.320367E-2,-0E0,-0E0,-7.302141E-2,5.346377E-2,-0E0,-3.7799817E-2,-0E0,8.3818525E-2,-0E0,-0E0,-3.8626533E-2,-0E0,-7.829923E-2,-0E0,4.9438387E-2],"categories":[],"categories_nodes":[],"categories_segments":[],"categories_sizes":[],"default_left":[0,0,0,0,0,0,0,0,0,0,0,0,0,0,0,0,0,0,0,0,0,0,0,0,0,0,0,0,0,0,0,0,0,0,0,0,0,0,0,0,0,0,0,0,0,0,0,0,0,0,0],"id":29,"left_children":[1,3,5,7,9,11,13,15,17,19,21,23,25,27,29,-1,31,-1,-1,33,35,-1,-1,-1,37,39,41,43,45,47,49,-1,-1,-1,-1,-1,-1,-1,-1,-1,-1,-1,-1,-1,-1,-1,-1,-1,-1,-1,-1],"loss_changes":[1.0004287E3,2.7235443E2,6.1136475E2,1.53828125E1,2.1545895E1,2.7542603E2,1.042627E3,2.8652344E0,2.4600672E1,2.6194622E1,1.5224915E0,4.020758E1,6.3984505E1,5.918456E2,4.555836E2,0E0,1.7952881E0,0E0,0E0,2.9832938E0,2.1740343E1,0E0,0E0,0E0,2.4094238E0,3.8699875E1,3.2335125E1,2.1239331E2,2.5902725E1,1.7268677E1,5.8409977E1,0E0,0E0,0E0,0E0,0E0,0E0,0E0,0E0,0E0,0E0,0E0,0E0,0E0,0E0,0E0,0E0,0E0,0E0,0E0,0E0],"parents":[2147483647,0,0,1,1,2,2,3,3,4,4,5,5,6,6,7,7,8,8,9,9,10,10,11,11,12,12,13,13,14,14,16,16,19,19,20,20,24,24,25,25,26,26,27,27,28,28,29,29,30,30],"right_children":[2,4,6,8,10,12,14,16,18,20,22,24,26,28,30,-1,32,-1,-1,34,36,-1,-1,-1,38,40,42,44,46,48,50,-1,-1,-1,-1,-1,-1,-1,-1,-1,-1,-1,-1,-1,-1,-1,-1,-1,-1,-1,-1],"split_conditions":[1E0,-3.75E0,-1.3671875E-2,9.3939394E-1,1.5625E-2,3.5E0,1.7578125E-2,1.1169434E-2,5.3125E-1,-1.5625E-2,1E1,2.4658203E-2,1.8896484E-1,5.5E0,6E0,-0E0,-4.75E0,-0E0,-2.854217E-2,2.7E1,2.5E0,-2.7975012E-2,-0E0,-0E0,9.444444E-1,-2.525E1,1.9482422E-1,2.8222656E-1,9.444444E-1,2.4658203E-2,-5.859375E-3,-8.4190376E-2,-0E0,-0E0,-1.5713666E-2,3.320367E-2,-0E0,-0E0,-7.302141E-2,5.346377E-2,-0E0,-3.7799817E-2,-0E0,8.3818525E-2,-0E0,-0E0,-3.8626533E-2,-0E0,-7.829923E-2,-0E0,4.9438387E-2],"split_indices":[0,10,9,1,9,6,9,2,2,9,6,2,2,10,6,0,10,0,0,3,10,0,0,0,1,10,2,2,1,2,8,0,0,0,0,0,0,0,0,0,0,0,0,0,0,0,0,0,0,0,0],"split_type":[0,0,0,0,0,0,0,0,0,0,0,0,0,0,0,0,0,0,0,0,0,0,0,0,0,0,0,0,0,0,0,0,0,0,0,0,0,0,0,0,0,0,0,0,0,0,0,0,0,0,0],"sum_hessian":[9.664358E3,2.80554E3,6.858819E3,1.8811282E3,9.244118E2,1.6681783E3,5.19064E3,1.5868097E3,2.9431848E2,6.8412067E2,2.4029117E2,9.320425E2,7.3613586E2,3.7805583E3,1.4100819E3,4.752632E0,1.5820571E3,9.041194E1,2.0390652E2,1.4644278E2,5.3767786E2,1.9476553E2,4.5525635E1,4.068332E1,8.913592E2,3.878864E2,3.4824945E2,3.3547625E3,4.2579584E2,9.420186E2,4.6806326E2,1.5618645E3,2.0192598E1,1.356896E1,1.3287383E2,3.0969458E2,2.2798329E2,5.4336944E0,8.859255E2,2.2765851E2,1.6022792E2,1.894856E2,1.5876385E2,2.9682532E3,3.865095E2,2.5506235E1,4.002896E2,3.6045753E1,9.059729E2,1.4957408E2,3.184892E2],"tree_param":{"num_deleted":"0","num_feature":"11","num_nodes":"51","size_leaf_vector":"1"}},{"base_weights":[-5.2815694E-2,-6.7654115E-1,9.182709E-2,-8.409726E-1,-1.5310623E-1,3.428658E-1,-5.490874E-1,-8.538116E-1,-0E0,-0E0,-3.2267386E-1,-1.4175473E-1,4.6421078E-1,-1.4418407E-1,-8.65978E-1,-8.6251765E-2,-0E0,-0E0,4.335888E-2,-3.7689667E-2,-0E0,-3.4150353E-1,-0E0,5.4484636E-1,-2.0275907E-1,-4.1840303E-1,3.0705154E-2,-8.705665E-2,-0E0,2.1373995E-2,-0E0,-0E0,-4.026591E-2,-0E0,2.4694184E-2,-0E0,6.3383356E-2,-0E0,-3.197912E-2,-0E0,-4.6953388E-2,1.9359296E-2,-0E0],"categories":[],"categories_nodes":[],"categories_segments":[],"categories_sizes":[],"default_left":[0,0,0,0,0,0,0,0,0,0,0,0,0,0,0,0,0,0,0,0,0,0,0,0,0,0,0,0,0,0,0,0,0,0,0,0,0,0,0,0,0,0,0],"id":30,"left_children":[1,3,5,7,9,11,13,15,-1,17,19,21,23,25,27,-1,-1,-1,29,-1,-1,31,33,35,37,39,41,-1,-1,-1,-1,-1,-1,-1,-1,-1,-1,-1,-1,-1,-1,-1,-1],"loss_changes":[9.1086804E2,5.1913513E1,1.2164406E3,1.698645E1,3.427307E1,3.689818E2,1.5047717E2,3.9442139E0,0E0,5.143043E-1,4.3502274E0,6.0932907E1,2.9687E2,9.577032E1,1.9057617E0,0E0,0E0,0E0,1.0009565E1,0E0,0E0,2.3895851E1,1.5585871E1,2.4533081E2,2.0488457E1,2.4424423E1,1.9208103E1,0E0,0E0,0E0,0E0,0E0,0E0,0E0,0E0,0E0,0E0,0E0,0E0,0E0,0E0,0E0,0E0],"parents":[2147483647,0,0,1,1,2,2,3,3,4,4,5,5,6,6,7,7,9,9,10,10,11,11,12,12,13,13,14,14,18,18,21,21,22,22,23,23,24,24,25,25,26,26],"right_children":[2,4,6,8,10,12,14,16,-1,18,20,22,24,26,28,-1,-1,-1,30,-1,-1,32,34,36,38,40,42,-1,-1,-1,-1,-1,-1,-1,-1,-1,-1,-1,-1,-1,-1,-1,-1],"split_conditions":[-1.3671875E-2,-2.34375E-2,1.171875E-2,1.975E1,1.7529297E-1,9.5238096E-1,3.0273438E-2,6E0,-0E0,-5.2734375E-2,9.849624E-1,3E0,4.25E0,-8.75E0,1E1,-8.6251765E-2,-0E0,-0E0,3.90625E-2,-3.7689667E-2,-0E0,7.495117E-2,6.1E1,-5.078125E-2,4.4433594E-2,2.4658203E-2,2.65E1,-8.705665E-2,-0E0,2.1373995E-2,-0E0,-0E0,-4.026591E-2,-0E0,2.4694184E-2,-0E0,6.3383356E-2,-0E0,-3.197912E-2,-0E0,-4.6953388E-2,1.9359296E-2,-0E0],"split_indices":[8,8,8,10,2,1,8,7,0,9,1,6,10,10,7,0,0,0,9,0,0,2,3,9,2,2,10,0,0,0,0,0,0,0,0,0,0,0,0,0,0,0,0],"split_type":[0,0,0,0,0,0,0,0,0,0,0,0,0,0,0,0,0,0,0,0,0,0,0,0,0,0,0,0,0,0,0,0,0,0,0,0,0,0,0,0,0,0,0],"sum_hessian":[9.279391E3,1.8077361E3,7.4716543E3,1.184065E3,6.2367114E2,5.514299E3,1.9573556E3,1.1690387E3,1.50262785E1,2.3156776E2,3.9210336E2,9.358478E2,4.578451E3,1.0617642E3,8.955913E2,1.1488512E3,2.018751E1,5.8000576E1,1.7356718E2,2.9131857E2,1.0078477E2,6.0094653E2,3.349012E2,4.234722E3,3.4372888E2,5.819082E2,4.7985602E2,8.876386E2,7.9527197E0,1.3035838E2,4.3208805E1,4.9366585E1,5.5157996E2,1.7931248E2,1.5558875E2,5.210446E2,3.7136775E3,6.5005325E1,2.7872357E2,2.9641691E1,5.522665E2,4.2710037E2,5.275564E1],"tree_param":{"num_deleted":"0","num_feature":"11","num_nodes":"43","size_leaf_vector":"1"}},{"base_weights":[-5.5431765E-2,4.3754703E-1,-2.4163103E-1,-0E0,7.451651E-1,-4.6376646E-1,2.5074022E-2,-3.4077874E-1,4.3255457E-1,7.7671367E-1,-0E0,-6.9359213E-1,-0E0,1.8410107E-1,-4.4433358E-1,-0E0,-4.6043316E-1,5.2841204E-1,-0E0,-0E0,8.0859613E-1,-7.020857E-2,-0E0,1.6370474E-1,-3.1343794E-1,-1.1379459E-1,3.766658E-1,-5.3533655E-1,-0E0,-0E0,-5.1517703E-2,5.742383E-2,-0E0,-0E0,8.1756435E-2,3.98406E-2,-0E0,-3.683455E-2,-0E0,-3.4234423E-2,-0E0,5.3999927E-2,-3.24691E-2,-0E0,-5.703491E-2],"categories":[],"categories_nodes":[],"categories_segments":[],"categories_sizes":[],"default_left":[0,0,0,0,0,0,0,0,0,0,0,0,0,0,0,0,0,0,0,0,0,0,0,0,0,0,0,0,0,0,0,0,0,0,0,0,0,0,0,0,0,0,0,0,0],"id":31,"left_children":[1,3,5,7,9,11,13,15,17,19,-1,21,23,25,27,-1,29,31,-1,-1,33,-1,-1,35,37,39,41,43,-1,-1,-1,-1,-1,-1,-1,-1,-1,-1,-1,-1,-1,-1,-1,-1,-1],"loss_changes":[8.242175E2,2.7871387E2,4.4792325E2,1.901405E2,4.212317E1,3.8533282E2,2.0464868E2,3.1973892E1,4.498546E1,3.6737915E1,0E0,8.111084E0,8.7385E1,1.7146701E2,1.9594543E1,0E0,1.2864487E1,2.550821E1,0E0,0E0,1.2381836E1,0E0,0E0,7.391702E1,1.7079155E1,5.3781395E1,2.3597186E2,1.6408875E1,0E0,0E0,0E0,0E0,0E0,0E0,0E0,0E0,0E0,0E0,0E0,0E0,0E0,0E0,0E0,0E0,0E0],"parents":[2147483647,0,0,1,1,2,2,3,3,4,4,5,5,6,6,7,7,8,8,9,9,11,11,12,12,13,13,14,14,16,16,17,17,20,20,23,23,24,24,25,25,26,26,27,27],"right_children":[2,4,6,8,10,12,14,16,18,20,-1,22,24,26,28,-1,30,32,-1,-1,34,-1,-1,36,38,40,42,44,-1,-1,-1,-1,-1,-1,-1,-1,-1,-1,-1,-1,-1,-1,-1,-1,-1],"split_conditions":[7.2509766E-2,2E0,3E0,-8.75E0,9.375E-2,-2E0,2E0,2.4658203E-2,5.5E0,9.2753625E-1,-0E0,2E0,2.25E0,-5.859375E-3,9.8224854E-1,-0E0,4.3E1,1.7578125E-2,-0E0,-0E0,-5.2734375E-2,-7.020857E-2,-0E0,4.189453E-1,2.2460938E-2,9.883041E-1,3.0273438E-2,1.15478516E-1,-0E0,-0E0,-5.1517703E-2,5.742383E-2,-0E0,-0E0,8.1756435E-2,3.98406E-2,-0E0,-3.683455E-2,-0E0,-3.4234423E-2,-0E0,5.3999927E-2,-3.24691E-2,-0E0,-5.703491E-2],"split_indices":[2,6,6,10,9,10,7,2,10,1,0,7,10,8,1,0,3,9,0,0,8,0,0,2,8,1,8,2,0,0,0,0,0,0,0,0,0,0,0,0,0,0,0,0,0],"split_type":[0,0,0,0,0,0,0,0,0,0,0,0,0,0,0,0,0,0,0,0,0,0,0,0,0,0,0,0,0,0,0,0,0,0,0,0,0,0,0,0,0,0,0,0,0],"sum_hessian":[8.977414E3,2.276948E3,6.700466E3,1.0554773E3,1.2214706E3,3.8199414E3,2.8805244E3,5.307109E2,5.247664E2,1.1861227E3,3.5347904E1,2.4535393E3,1.3664022E3,2.3561252E3,5.2439923E2,1.343944E2,3.9631647E2,4.7976447E2,4.5001987E1,4.323357E1,1.1428892E3,2.4085842E3,4.4954865E1,8.3084796E2,5.3555426E2,7.3723303E2,1.6188922E3,3.9852933E2,1.25869934E2,5.1404453E1,3.4491202E2,4.682785E2,1.1485947E1,8.593655E0,1.1342955E3,5.228482E2,3.0799976E2,4.8607816E2,4.9476112E1,4.513921E2,2.8584094E2,1.4474048E3,1.7148743E2,8.886076E0,3.8964325E2],"tree_param":{"num_deleted":"0","num_feature":"11","num_nodes":"45","size_leaf_vector":"1"}},{"base_weights":[-5.386709E-2,-8.0081165E-1,4.661874E-2,-8.185693E-1,-0E0,2.4811722E-1,-5.196759E-1,-8.2774006E-2,-0E0,4.8342305E-1,-4.150847E-2,-1.3618797E-1,-8.28276E-1,-0E0,5.814871E-1,-2.7094126E-1,1.2679139E-1,-3.8330448E-1,1.4942268E-2,-8.3337046E-2,-0E0,-1.807912E-2,-0E0,-0E0,6.633867E-2,-4.515696E-2,-0E0,3.0950967E-2,-0E0,-4.2354014E-2,-0E0,-0E0,2.0783301E-2],"categories":[],"categories_nodes":[],"categories_segments":[],"categories_sizes":[],"default_left":[0,0,0,0,0,0,0,0,0,0,0,0,0,0,0,0,0,0,0,0,0,0,0,0,0,0,0,0,0,0,0,0,0],"id":32,"left_children":[1,3,5,7,-1,9,11,-1,-1,13,15,17,19,21,23,25,27,29,31,-1,-1,-1,-1,-1,-1,-1,-1,-1,-1,-1,-1,-1,-1],"loss_changes":[7.3928796E2,1.717334E1,8.676386E2,3.8374634E0,0E0,4.481711E2,1.2072266E2,0E0,0E0,2.1359229E2,1.161435E2,7.942099E1,1.6767578E0,1.2759516E1,1.7077454E2,5.1368294E1,4.561542E1,1.9048943E1,1.9420809E1,0E0,0E0,0E0,0E0,0E0,0E0,0E0,0E0,0E0,0E0,0E0,0E0,0E0,0E0],"parents":[2147483647,0,0,1,1,2,2,3,3,5,5,6,6,9,9,10,10,11,11,12,12,13,13,14,14,15,15,16,16,17,17,18,18],"right_children":[2,4,6,8,-1,10,12,-1,-1,14,16,18,20,22,24,26,28,30,32,-1,-1,-1,-1,-1,-1,-1,-1,-1,-1,-1,-1,-1,-1],"split_conditions":[-2.34375E-2,1.075E1,1.171875E-2,6E0,-0E0,1.7529297E-1,3.0273438E-2,-8.2774006E-2,-0E0,9.512195E-1,9.8255813E-1,9.8734176E-1,8E0,3E0,-5.078125E-2,6.1E1,3.5253906E-1,6E1,-1.953125E-2,-8.3337046E-2,-0E0,-1.807912E-2,-0E0,-0E0,6.633867E-2,-4.515696E-2,-0E0,3.0950967E-2,-0E0,-4.2354014E-2,-0E0,-0E0,2.0783301E-2],"split_indices":[8,10,8,7,0,2,8,0,0,1,1,1,7,6,9,3,2,6,9,0,0,0,0,0,0,0,0,0,0,0,0,0,0],"split_type":[0,0,0,0,0,0,0,0,0,0,0,0,0,0,0,0,0,0,0,0,0,0,0,0,0,0,0,0,0,0,0,0,0],"sum_hessian":[8.69508E3,1.0663999E3,7.6286797E3,1.041972E3,2.442788E1,5.798304E3,1.8303754E3,1.0224086E3,1.9563425E1,3.3527388E3,2.4455657E3,1.0249169E3,8.0545844E2,4.3467444E2,2.9180642E3,1.2604553E3,1.1851104E3,5.8174615E2,4.4317078E2,7.9683636E2,8.622044E0,2.9037283E2,1.4430162E2,3.1114914E2,2.606915E3,6.4167224E2,6.18783E2,5.9183234E2,5.93278E2,5.6455865E2,1.7187485E1,9.075076E1,3.5242E2],"tree_param":{"num_deleted":"0","num_feature":"11","num_nodes":"33","size_leaf_vector":"1"}},{"base_weights":[-5.4496814E-2,-6.154619E-1,6.83273E-2,-7.0158565E-1,-0E0,2.8979546E-1,-4.9367508E-1,-0E0,-7.291525E-2,-0E0,-1.1603882E-1,3.7232873E-1,-3.279646E-1,-1.2288107E-1,-8.0151576E-1,-1.2016179E-2,-0E0,-1.0350505E-2,5.1658046E-1,-0E0,-4.0615165E-1,-3.7264562E-1,7.2463294E-3,-8.066385E-2,-0E0,-3.9838947E-2,2.5433937E-2,6.886762E-2,-0E0,-0E0,-4.753692E-2,-0E0,-4.210795E-2,1.6617104E-2,-0E0],"categories":[],"categories_nodes":[],"categories_segments":[],"categories_sizes":[],"default_left":[0,0,0,0,0,0,0,0,0,0,0,0,0,0,0,0,0,0,0,0,0,0,0,0,0,0,0,0,0,0,0,0,0,0,0],"id":33,"left_children":[1,3,5,7,9,11,13,-1,-1,-1,15,17,19,21,23,-1,-1,25,27,-1,29,31,33,-1,-1,-1,-1,-1,-1,-1,-1,-1,-1,-1,-1],"loss_changes":[6.45728E2,3.3406433E1,8.5656116E2,1.7956543E-1,4.748367E0,2.7984903E2,1.1099344E2,0E0,0E0,0E0,3.2301807E-1,3.1300842E2,2.4387592E1,7.29855E1,1.4373779E0,0E0,0E0,1.4849078E2,3.8128912E2,0E0,1.9445107E1,1.9811829E1,1.4147332E1,0E0,0E0,0E0,0E0,0E0,0E0,0E0,0E0,0E0,0E0,0E0,0E0],"parents":[2147483647,0,0,1,1,2,2,3,3,4,4,5,5,6,6,10,10,11,11,12,12,13,13,14,14,17,17,18,18,20,20,21,21,22,22],"right_children":[2,4,6,8,10,12,14,-1,-1,-1,16,18,20,22,24,-1,-1,26,28,-1,30,32,34,-1,-1,-1,-1,-1,-1,-1,-1,-1,-1,-1,-1],"split_conditions":[-1.3671875E-2,-7.5E-1,1.171875E-2,5.3588867E-2,1.8310547E-1,5.5E0,3.0273438E-2,-0E0,-7.291525E-2,-0E0,6E0,-1.3671875E-2,8.604651E-1,-8.75E0,8E0,-1.2016179E-2,-0E0,3.5E0,2.34375E-2,-0E0,4.4433594E-2,2.4658203E-2,2.65E1,-8.066385E-2,-0E0,-3.9838947E-2,2.5433937E-2,6.886762E-2,-0E0,-0E0,-4.753692E-2,-0E0,-4.210795E-2,1.6617104E-2,-0E0],"split_indices":[8,10,8,2,2,10,8,0,0,0,7,9,1,10,7,0,0,6,9,0,2,2,10,0,0,0,0,0,0,0,0,0,0,0,0],"split_type":[0,0,0,0,0,0,0,0,0,0,0,0,0,0,0,0,0,0,0,0,0,0,0,0,0,0,0,0,0,0,0,0,0,0,0],"sum_hessian":[8.416821E3,1.5860515E3,6.8307695E3,1.2653817E3,3.2066977E2,5.0622573E3,1.7685122E3,1.009517E2,1.16443E3,6.802483E1,2.5264493E2,4.643488E3,4.1876962E2,1.01305194E3,7.5546027E2,2.512318E2,1.4131253E0,1.1068269E3,3.536661E3,3.2668346E1,3.8610126E2,5.464027E2,4.6664923E2,7.468382E2,8.622044E0,5.8155225E2,5.2527466E2,2.7501443E3,7.8651666E2,4.5204796E1,3.4089645E2,2.841352E1,5.179892E2,4.1342416E2,5.3225082E1],"tree_param":{"num_deleted":"0","num_feature":"11","num_nodes":"35","size_leaf_vector":"1"}},{"base_weights":[-5.6242596E-2,1.8543355E-1,-3.3992052E-1,3.3245474E-1,-3.255949E-1,-5.3881633E-1,-0E0,-1.9294812E-1,5.9453636E-1,-6.290625E-1,-0E0,-0E0,-5.4515964E-1,-2.0317484E-1,1.6072796E-1,-5.127289E-1,1.7370108E-1,7.278341E-1,-1.2497377E-1,-6.4219475E-1,-0E0,-0E0,1.5634924E-1,-0E0,-5.472151E-1,-3.525776E-1,-0E0,2.4829985E-1,-0E0,-0E0,-5.672572E-2,3.6125205E-2,-0E0,7.66729E-2,-0E0,-2.6429167E-2,-0E0,-6.44637E-2,-0E0,-0E0,2.5349675E-2,-5.5335183E-2,-0E0,-0E0,-3.844849E-2,-0E0,3.281995E-2],"categories":[],"categories_nodes":[],"categories_segments":[],"categories_sizes":[],"default_left":[0,0,0,0,0,0,0,0,0,0,0,0,0,0,0,0,0,0,0,0,0,0,0,0,0,0,0,0,0,0,0,0,0,0,0,0,0,0,0,0,0,0,0,0,0,0,0],"id":34,"left_children":[1,3,5,7,9,11,13,15,17,19,21,-1,23,25,27,29,31,33,35,37,-1,-1,39,-1,41,43,-1,45,-1,-1,-1,-1,-1,-1,-1,-1,-1,-1,-1,-1,-1,-1,-1,-1,-1,-1,-1],"loss_changes":[5.884285E2,3.3740204E2,2.2550488E2,5.432036E2,1.4601132E2,7.5791626E0,6.4042816E1,